SVM-light Version V6.01
0 # kernel type
3 # kernel parameter -d 
1 # kernel parameter -g 
1 # kernel parameter -s 
1 # kernel parameter -r 
empty# kernel parameter -u 
6 # highest feature index 
6507 # number of training documents 
4580 # number of support vectors plus 1 
0.57051498 # threshold b, each following line is a SV (starting with alpha*y)
-0.31559599291725110026263223517162 1:1 2:0 3:0.47640449 4:1 5:1 6:1 #PDB 1T7R Res ASN180
-0.31559599291725110026263223517162 1:1 2:0 3:0.48706895 4:1 5:1 6:1 #PDB 1NQ7 Res GLU25
-0.31559599291725110026263223517162 1:0 2:0.40000001 3:1 4:0 5:1 6:1 #PDB 2P0W Res GLN226
-0.31559599291725110026263223517162 1:0.17391305 2:0.40000001 3:1 4:0 5:1 6:1 #PDB 1NVR Res GLU125
-0.31559599291725110026263223517162 1:1 2:0 3:0.44970414 4:1 5:1 6:1 #PDB 1CKA Res LYS31
-0.31559599291725110026263223517162 1:1 2:0 3:0.25961539 4:1 5:0 6:0 #PDB 3BU3 Res MET263
-0.31559599291725110026263223517162 1:0.086956523 2:0.80000001 3:1 4:0 5:1 6:1 #PDB 1NVR Res ASP139
-0.31559599291725110026263223517162 1:0 2:0.40000001 3:0.10613208 4:1 5:0 6:0 #PDB 1HC9 Res VAL14
-0.31559599291725110026263223517162 1:1 2:0 3:0.37344399 4:1 5:1 6:1 #PDB 1D4T Res HIS48
-0.31559599291725110026263223517162 1:1 2:0 3:1 4:0 5:1 6:1 #PDB 2FOJ Res HIS133
-0.31559599291725110026263223517162 1:1 2:0 3:0.34196892 4:1 5:1 6:1 #PDB 2AK5 Res LYS62
-0.31559599291725110026263223517162 1:1 2:0 3:1 4:0.16666667 5:1 6:1 #PDB 2B9H Res GLU165
-0.31559599291725110026263223517162 1:0.13043478 2:0.60000002 3:0.88211381 4:1 5:0 6:0 #PDB 2FMF Res MET128
-0.31559599291725110026263223517162 1:0.043478262 2:0.80000001 3:0.53779072 4:1 5:0 6:0 #PDB 2D0N Res GLY18
3.7871519150070129811069818970282 1:1 2:0 3:0.11744186 4:0 5:1 6:1 #PDB 1LVM Res ASN176
-0.31559599291725110026263223517162 1:1 2:0 3:0.27688172 4:1 5:1 6:1 #PDB 1X2R Res HIS229
-0.31559599291725110026263223517162 1:1 2:0 3:0.11409396 4:0 5:1 6:1 #PDB 1UJ0 Res LYS22
-0.31559599291725110026263223517162 1:1 2:0 3:1 4:0 5:1 6:1 #PDB 2JAM Res TYR162
-0.31559599291725110026263223517162 1:1 2:0 3:0.45299146 4:1 5:1 6:1 #PDB 1T4F Res GLN22
-0.31559599291725110026263223517162 1:0.086956523 2:0.60000002 3:0.10199005 4:1 5:0 6:0 #PDB 1QKZ Res MET106
-0.31559599291725110026263223517162 1:0.086956523 2:0.60000002 3:0.11565421 4:1 5:0 6:0 #PDB 2BBA Res GLY65
-0.31559599291725110026263223517162 1:1 2:0 3:1 4:0 5:1 6:1 #PDB 3BU3 Res ARG169
-0.31559599291725110026263223517162 1:1 2:0 3:1 4:0 5:1 6:1 #PDB 2FMF Res ASN58
-0.31559599291725110026263223517162 1:1 2:0 3:0.47834274 4:1 5:1 6:1 #PDB 2P54 Res LYS163
-0.31559599291725110026263223517162 1:0 2:0.80000001 3:0.2039801 4:0 5:0 6:0 #PDB 1QKZ Res ALA116
-0.31559599291725110026263223517162 1:0.13043478 2:0.80000001 3:0.12601626 4:1 5:0 6:0 #PDB 2FMF Res ALA79
-0.31559599291725110026263223517162 1:0.13043478 2:0.60000002 3:0.10123967 4:0.16666667 5:0 6:0 #PDB 2P1K Res LEU27
3.7871519150070129811069818970282 1:1 2:0 3:1 4:1 5:1 6:1 #PDB 1MFG Res THR40
-0.31559599291725110026263223517162 1:1 2:0 3:1 4:1 5:1 6:1 #PDB 1EG4 Res TYR60
-0.31559599291725110026263223517162 1:1 2:0 3:1 4:0 5:1 6:1 #PDB 1RXZ Res GLU24
-0.31559599291725110026263223517162 1:0 2:0.40000001 3:0.10755814 4:1 5:0 6:0 #PDB 2D0N Res VAL24
-0.31559599291725110026263223517162 1:0 2:0.40000001 3:0.11324786 4:1 5:0 6:0 #PDB 1T4F Res PHE33
-0.31559599291725110026263223517162 1:1 2:0 3:0.98701298 4:0 5:1 6:1 #PDB 2JAM Res ASP84
-0.31559599291725110026263223517162 1:1 2:0 3:0.95849055 4:0 5:1 6:1 #PDB 1NVR Res TYR18
-0.31559599291725110026263223517162 1:0.086956523 2:0.60000002 3:0.125 4:1 5:0 6:0 #PDB 1N7F Res GLY13
-0.31559599291725110026263223517162 1:0.17391305 2:0.60000002 3:0.12271805 4:1 5:0 6:0 #PDB 3CVP Res ALA83
-0.31559599291725110026263223517162 1:1 2:0 3:0.90992367 4:0 5:1 6:1 #PDB 2P0W Res LYS258
-0.31559599291725110026263223517162 1:1 2:0 3:1 4:0.16666667 5:1 6:1 #PDB 1SFI Res CYS109
-0.31559599291725110026263223517162 1:1 2:0 3:1 4:1 5:1 6:1 #PDB 1EG4 Res ARG170
-0.31559599291725110026263223517162 1:0 2:0.40000001 3:0.11357341 4:0 5:0 6:0 #PDB 1CZY Res LEU10
-0.31559599291725110026263223517162 1:1 2:0 3:1 4:1 5:1 6:1 #PDB 1EG4 Res GLU214
-0.31559599291725110026263223517162 1:1 2:0 3:0.36530173 4:1 5:1 6:1 #PDB 1NQ7 Res SER45
-0.31559599291725110026263223517162 1:0 2:0.40000001 3:0.125 4:0 5:0 6:0 #PDB 1IHJ Res VAL26
-0.31559599291725110026263223517162 1:1 2:0 3:1 4:1 5:1 6:1 #PDB 1EG4 Res ARG254
-0.31559599291725110026263223517162 1:1 2:0 3:1 4:1 5:1 6:1 #PDB 1MFG Res SER95
-0.31559599291725110026263223517162 1:0.086956523 2:0.40000001 3:0.11910112 4:0 5:0 6:0 #PDB 1T7R Res GLY15
-0.31559599291725110026263223517162 1:1 2:0 3:1 4:1 5:1 6:1 #PDB 1EG4 Res GLU259
-0.31559599291725110026263223517162 1:0 2:0.40000001 3:0.12601626 4:0.16666667 5:0 6:0 #PDB 2FMF Res ALA76
-0.31559599291725110026263223517162 1:0.13043478 2:0.40000001 3:0.11941964 4:0 5:0 6:0 #PDB 2A3I Res ILE18
-0.31559599291725110026263223517162 1:0.17391305 2:0.40000001 3:0.10199005 4:0 5:0 6:0 #PDB 1QKZ Res LEU176
-0.31559599291725110026263223517162 1:1 2:0 3:1 4:1 5:1 6:1 #PDB 1ER8 Res THR23
-0.31559599291725110026263223517162 1:1 2:0 3:1 4:1 5:1 6:1 #PDB 1ER8 Res THR64
-0.31559599291725110026263223517162 1:0 2:0.2 3:0.0664794 4:0 5:0 6:0 #PDB 3BWA Res LEU163
-0.31559599291725110026263223517162 1:1 2:0 3:1 4:1 5:1 6:1 #PDB 1ER8 Res SER82
-0.31559599291725110026263223517162 1:1 2:0 3:1 4:1 5:1 6:1 #PDB 1ER8 Res ASN145
3.7871519150070129811069818970282 1:0 2:0.2 3:0.33974358 4:0 5:0 6:0 #PDB 1T4F Res LEU35
-0.31559599291725110026263223517162 1:0.043478262 2:0.2 3:0.10923077 4:0 5:0 6:0 #PDB 2ZJD Res GLY39
-0.31559599291725110026263223517162 1:1 2:0 3:1 4:1 5:1 6:1 #PDB 1ER8 Res ASP173
-0.31559599291725110026263223517162 1:0.17391305 2:0.40000001 3:0.10923077 4:0 5:0 6:0 #PDB 2ZJD Res GLY84
-0.31559599291725110026263223517162 1:1 2:0 3:1 4:1 5:1 6:1 #PDB 1ER8 Res CYS253
-0.31559599291725110026263223517162 1:0 2:1 3:0.71608043 4:0 5:0 6:0 #PDB 1NX1 Res MET144
3.7871519150070129811069818970282 1:1 2:0 3:1 4:1 5:1 6:1 #PDB 1NLN Res CYS103
-0.31559599291725110026263223517162 1:1 2:0 3:0.44731182 4:1 5:1 6:1 #PDB 1RXZ Res SER207
-0.31559599291725110026263223517162 1:1 2:0 3:0.57339448 4:1 5:1 6:1 #PDB 1DKX Res LYS209
-0.31559599291725110026263223517162 1:0 2:0.80000001 3:0.95780051 4:0 5:0 6:0 #PDB 2C3I Res PHE13
3.7871519150070129811069818970282 1:1 2:0 3:0.10199005 4:1 5:1 6:1 #PDB 1QKZ Res TYR103
-0.31559599291725110026263223517162 1:1 2:0 3:0.4453125 4:1 5:1 6:1 #PDB 2HPL Res GLU8
-0.31559599291725110026263223517162 1:1 2:0 3:0.4433735 4:1 5:1 6:1 #PDB 1W9E Res GLU126
-0.31559599291725110026263223517162 1:0.043478262 2:1 3:0.56786704 4:0.16666667 5:0 6:0 #PDB 1CZY Res PHE44
-0.31559599291725110026263223517162 1:1 2:0 3:0.4453125 4:1 5:1 6:1 #PDB 2HPL Res SER99
-0.31559599291725110026263223517162 1:0.043478262 2:0.60000002 3:0.95780051 4:0 5:0 6:0 #PDB 2C3I Res LEU8
-0.31559599291725110026263223517162 1:1 2:0 3:0.44444445 4:1 5:1 6:1 #PDB 1SSH Res ASP35
3.7871519150070129811069818970282 1:0.086956523 2:0.40000001 3:0.35371178 4:1 5:0 6:0 #PDB 1SE0 Res GLY50
-0.31559599291725110026263223517162 1:0 2:0.40000001 3:1 4:0 5:0 6:0 #PDB 1NVR Res GLY14
-0.31559599291725110026263223517162 1:1 2:0 3:0.44444445 4:1 5:1 6:1 #PDB 1SSH Res GLU58
-0.31559599291725110026263223517162 1:1 2:0 3:0.62091506 4:1 5:1 6:1 #PDB 2H9M Res ASN26
-0.31559599291725110026263223517162 1:1 2:0 3:0.6168831 4:1 5:1 6:1 #PDB 2JAM Res GLU88
-0.31559599291725110026263223517162 1:0 2:0.2 3:1 4:0 5:0 6:0 #PDB 1VZQ Res GLY223
-0.31559599291725110026263223517162 1:1 2:0 3:0.4433735 4:1 5:1 6:1 #PDB 1W9E Res GLU5
-0.31559599291725110026263223517162 1:0.043478262 2:0.40000001 3:1 4:0 5:0 6:0 #PDB 2B9H Res GLY20
-0.31559599291725110026263223517162 1:0 2:0.60000002 3:0.10755814 4:1 5:1 6:1 #PDB 2D0N Res HIS41
-0.31559599291725110026263223517162 1:1 2:0 3:1 4:0 5:0 6:0 #PDB 2JAM Res VAL177
3.7871519150070129811069818970282 1:0.17391305 2:0.2 3:0.10199005 4:1 5:1 6:1 #PDB 1QKZ Res TYR59
-0.31559599291725110026263223517162 1:0 2:0.60000002 3:0.4245283 4:1 5:1 6:1 #PDB 1HC9 Res GLU41
3.7871519150070129811069818970282 1:1 2:0 3:0.7712692 4:0 5:1 6:1 #PDB 2R7G Res ASN93
-0.31559599291725110026263223517162 1:1 2:0 3:1 4:0 5:0 6:0 #PDB 2JAM Res ALA164
3.7871519150070129811069818970282 1:0.086956523 2:0.40000001 3:0.10199005 4:1 5:1 6:1 #PDB 1QKZ Res THR50
-0.31559599291725110026263223517162 1:0 2:0.2 3:0.081491716 4:1 5:1 6:1 #PDB 2V3S Res LYS13
-0.31559599291725110026263223517162 1:1 2:0 3:1 4:0 5:0 6:0 #PDB 2FMF Res ALA87
-0.31559599291725110026263223517162 1:0 2:0.40000001 3:0.11111111 4:1 5:1 6:1 #PDB 1SSH Res LYS32
-0.31559599291725110026263223517162 1:1 2:0 3:0.99346405 4:0 5:0 6:0 #PDB 2H9M Res VAL238
-0.31559599291725110026263223517162 1:0 2:0.40000001 3:0.11627907 4:1 5:1 6:1 #PDB 2O9V Res GLN20
-0.31559599291725110026263223517162 1:1 2:0 3:0.98701298 4:0 5:0 6:0 #PDB 2JAM Res VAL167
-0.31559599291725110026263223517162 1:0.043478262 2:0.40000001 3:0.10755814 4:1 5:1 6:1 #PDB 2D0N Res LYS43
-0.31559599291725110026263223517162 1:1 2:0 3:0.9739663 4:0 5:0 6:0 #PDB 3D1E Res LEU366
-0.31559599291725110026263223517162 1:0.086956523 2:0.40000001 3:0.10625 4:1 5:1 6:1 #PDB 1AWR Res LYS130
-0.31559599291725110026263223517162 1:1 2:0 3:0.9632653 4:0 5:0 6:0 #PDB 2FVJ Res GLY33
-0.31559599291725110026263223517162 1:0.086956523 2:0.40000001 3:0.125 4:1 5:1 6:1 #PDB 1N7F Res TYR11
-0.31559599291725110026263223517162 1:1 2:0 3:0.94426227 4:0 5:0 6:0 #PDB 2FOJ Res VAL135
-0.31559599291725110026263223517162 1:0 2:0.40000001 3:0.2039801 4:1 5:1 6:1 #PDB 1QKZ Res SER114
-0.31559599291725110026263223517162 1:0.086956523 2:0.40000001 3:0.13333334 4:1 5:1 6:1 #PDB 1TP5 Res LYS55
-0.31559599291725110026263223517162 1:1 2:0 3:0.88447654 4:0 5:0 6:0 #PDB 1ER8 Res GLY247
-0.31559599291725110026263223517162 1:1 2:0 3:1 4:0.16666667 5:0 6:0 #PDB 2C3I Res GLY11
-0.31559599291725110026263223517162 1:1 2:0 3:0.79518074 4:0 5:0 6:0 #PDB 1U00 Res GLY115
-0.31559599291725110026263223517162 1:0.086956523 2:0.60000002 3:1 4:0 5:0 6:1 #PDB 1T7R Res PRO14
-0.31559599291725110026263223517162 1:0 2:0.2 3:0.11290322 4:1 5:1 6:1 #PDB 1YWO Res LYS44
-0.31559599291725110026263223517162 1:1 2:0 3:0.44731182 4:1 5:1 6:1 #PDB 1RXZ Res ASN185
-0.31559599291725110026263223517162 1:0 2:0.2 3:1 4:0 5:0 6:0 #PDB 1VZQ Res GLY221
-0.31559599291725110026263223517162 1:0 2:0.40000001 3:0.90858728 4:0 5:0 6:0 #PDB 1CZY Res ILE22
-0.31559599291725110026263223517162 1:0.17391305 2:0.40000001 3:0.11242604 4:1 5:1 6:1 #PDB 1CKA Res LYS45
-0.31559599291725110026263223517162 1:0.13043478 2:0.40000001 3:0.12601626 4:1 5:1 6:1 #PDB 2FMF Res SER78
-0.31559599291725110026263223517162 1:1 2:0 3:0.74025977 4:0 5:0 6:0 #PDB 2JAM Res VAL163
-0.31559599291725110026263223517162 1:1 2:0 3:1 4:0.33333334 5:0 6:0 #PDB 1IHJ Res GLY65
-0.31559599291725110026263223517162 1:0.13043478 2:0.60000002 3:0.44970414 4:1 5:1 6:1 #PDB 1CKA Res ASN13
-0.31559599291725110026263223517162 1:1 2:0 3:0.89462364 4:0 5:1 6:1 #PDB 1RXZ Res ARG117
-0.31559599291725110026263223517162 1:1 2:0 3:0.87449396 4:0 5:1 6:1 #PDB 1DDV Res ARG76
3.7871519150070129811069818970282 1:0 2:0.2 3:0.57827103 4:1 5:0 6:0 #PDB 2BBA Res LEU34
-0.31559599291725110026263223517162 1:0 2:0.40000001 3:0.1984127 4:1 5:0 6:0 #PDB 2HO2 Res ALA5
-0.31559599291725110026263223517162 1:0 2:0.40000001 3:1 4:1 5:0 6:0 #PDB 1IHJ Res GLY57
-0.31559599291725110026263223517162 1:0.043478262 2:0.2 3:1 4:1 5:0 6:0 #PDB 1CKA Res ALA1
3.7871519150070129811069818970282 1:1 2:0 3:0.0664794 4:0 5:1 6:1 #PDB 3BWA Res ASN70
-0.31559599291725110026263223517162 1:1 2:0 3:0.081491716 4:0 5:1 6:1 #PDB 2V3S Res SER79
-0.31559599291725110026263223517162 1:1 2:0 3:0.10199005 4:0 5:1 6:1 #PDB 1QKZ Res ASP179
-0.31559599291725110026263223517162 1:1 2:0 3:0.47834274 4:1 5:1 6:1 #PDB 2P54 Res LYS126
-0.31559599291725110026263223517162 1:0.043478262 2:0.40000001 3:1 4:1 5:0 6:0 #PDB 2FMF Res GLY101
-0.31559599291725110026263223517162 1:0 2:0.40000001 3:0.875 4:1 5:0 6:0 #PDB 1IHJ Res VAL22
-0.31559599291725110026263223517162 1:1 2:0 3:0.10625 4:0 5:1 6:1 #PDB 1AWR Res ARG68
-0.31559599291725110026263223517162 1:1 2:0 3:0.10833333 4:0 5:1 6:1 #PDB 2VJ0 Res LYS165
-0.31559599291725110026263223517162 1:0 2:0.2 3:0.92523366 4:1 5:0 6:0 #PDB 2BBA Res GLY29
-0.31559599291725110026263223517162 1:0.043478262 2:0.2 3:1 4:1 5:0 6:0 #PDB 2B9H Res ALA23
-0.31559599291725110026263223517162 1:1 2:0 3:0.11141305 4:0 5:1 6:1 #PDB 2PUY Res ARG48
-0.31559599291725110026263223517162 1:0 2:0.80000001 3:0.11958569 4:0 5:1 6:1 #PDB 2P54 Res THR78
-0.31559599291725110026263223517162 1:0.043478262 2:0.60000002 3:0.10923077 4:0 5:1 6:1 #PDB 2ZJD Res LYS38
-0.31559599291725110026263223517162 1:1 2:0 3:1 4:1 5:0 6:0 #PDB 1ER8 Res GLY179
-0.31559599291725110026263223517162 1:1 2:0 3:1 4:1 5:0 6:0 #PDB 1JWG Res GLY137
-0.31559599291725110026263223517162 1:0 2:0.2 3:0.89940828 4:1 5:0 6:0 #PDB 1CKA Res GLY44
-0.31559599291725110026263223517162 1:1 2:0 3:0.11340206 4:0 5:1 6:1 #PDB 2QOS Res ASP64
-0.31559599291725110026263223517162 1:1 2:0 3:0.12337662 4:0 5:1 6:1 #PDB 2JAM Res GLU201
-0.25459056565816323702833301467763 1:1 2:0 3:0.54731458 4:1 5:0 6:1 #PDB 2C3I Res PRO86
-0.31559599291725110026263223517162 1:1 2:0 3:0.36523736 4:1 5:1 6:1 #PDB 3D1E Res GLU6
-0.31559599291725110026263223517162 1:1 2:0 3:0.48163265 4:1 5:1 6:1 #PDB 2FVJ Res TYR13
-0.31559599291725110026263223517162 1:0.043478262 2:0.60000002 3:0.75290698 4:1 5:0 6:0 #PDB 2D0N Res ALA11
-0.31559599291725110026263223517162 1:0 2:0.40000001 3:1 4:0.16666667 5:0 6:0 #PDB 2C3I Res GLY149
-0.31559599291725110026263223517162 1:0 2:0.2 3:1 4:1 5:0 6:1 #PDB 2PUY Res PRO34
3.7871519150070129811069818970282 1:1 2:0 3:0.11565421 4:0 5:0 6:0 #PDB 2BBA Res GLY36
-0.31559599291725110026263223517162 1:1 2:0 3:0.11018131 4:0 5:0 6:0 #PDB 2R7G Res ILE91
-0.31559599291725110026263223517162 1:1 2:0 3:0.12337662 4:0 5:0 6:0 #PDB 2JAM Res ALA169
-0.31559599291725110026263223517162 1:0.043478262 2:0.60000002 3:0.68512112 4:1 5:1 6:1 #PDB 1JWG Res HIS47
-0.31559599291725110026263223517162 1:0.043478262 2:0.40000001 3:0.86666667 4:1 5:1 6:1 #PDB 2VJ0 Res ARG147
-0.31559599291725110026263223517162 1:1 2:0 3:0.11340206 4:0 5:0 6:0 #PDB 2QOS Res LEU73
-0.31559599291725110026263223517162 1:1 2:0 3:0.125 4:0 5:0 6:0 #PDB 1N7F Res PHE26
-0.31559599291725110026263223517162 1:1 2:0 3:0.11398964 4:0 5:0 6:0 #PDB 2AK5 Res VAL8
-0.31559599291725110026263223517162 1:0.043478262 2:0.2 3:1 4:1 5:1 6:1 #PDB 1TW6 Res CYS50
-0.31559599291725110026263223517162 1:1 2:0 3:0.11910112 4:0 5:0 6:0 #PDB 1T7R Res VAL16
-0.31559599291725110026263223517162 1:0.043478262 2:0.2 3:1 4:1 5:1 6:1 #PDB 2BBA Res LYS97
-0.31559599291725110026263223517162 1:1 2:0 3:0.1222467 4:0 5:0 6:0 #PDB 1EG4 Res LEU190
-0.31559599291725110026263223517162 1:0.043478262 2:0.2 3:1 4:1 5:1 6:1 #PDB 2BBA Res THR99
-0.31559599291725110026263223517162 1:1 2:0 3:0.44782609 4:1 5:1 6:1 #PDB 1VZQ Res GLN244
-0.31559599291725110026263223517162 1:0 2:0.40000001 3:0.81395346 4:1 5:1 6:1 #PDB 2O9V Res GLN52
-0.31559599291725110026263223517162 1:1 2:0 3:0.12337662 4:0 5:0 6:0 #PDB 2JAM Res ILE152
-0.31559599291725110026263223517162 1:1 2:0 3:0.49180329 4:1 5:1 6:1 #PDB 1JD5 Res THR14
-0.31559599291725110026263223517162 1:0.043478262 2:0.2 3:1 4:1 5:1 6:1 #PDB 2BBA Res THR129
-0.31559599291725110026263223517162 1:0 2:1 3:0.4908722 4:0 5:1 6:1 #PDB 3CVP Res GLN179
-0.31559599291725110026263223517162 1:0.13043478 2:0.60000002 3:0.65756822 4:1 5:1 6:1 #PDB 2CCH Res LYS19
-0.31559599291725110026263223517162 1:1 2:0 3:0.1222467 4:0.16666667 5:0 6:0 #PDB 1EG4 Res LEU102
-0.31559599291725110026263223517162 1:1 2:0 3:0.25270757 4:0 5:0 6:0 #PDB 1ER8 Res VAL246
-0.31559599291725110026263223517162 1:1 2:0 3:1 4:1 5:0 6:0 #PDB 1IHJ Res GLY52
3.7871519150070129811069818970282 1:1 2:0 3:1 4:1 5:0 6:0 #PDB 1NLN Res ALA95
-0.31559599291725110026263223517162 1:0 2:0.40000001 3:0.10625 4:0 5:1 6:1 #PDB 1AWR Res GLU80
-0.31559599291725110026263223517162 1:0 2:0.40000001 3:0.11242604 4:0 5:1 6:1 #PDB 1CKA Res SER42
-0.31559599291725110026263223517162 1:1 2:0 3:1 4:1 5:0 6:0 #PDB 1JWG Res GLY72
-0.31559599291725110026263223517162 1:1 2:0 3:1 4:1 5:0 6:0 #PDB 1MFG Res GLY1
3.7871519150070129811069818970282 1:0.043478262 2:0.40000001 3:0.0664794 4:0 5:1 6:1 #PDB 3BWA Res TYR74
-0.31559599291725110026263223517162 1:0 2:0.60000002 3:0.3612245 4:0 5:1 6:1 #PDB 2FVJ Res ARG69
-0.31559599291725110026263223517162 1:0.13043478 2:0.60000002 3:0.23255815 4:0 5:1 6:1 #PDB 2O9V Res ARG45
-0.31559599291725110026263223517162 1:1 2:0 3:1 4:1 5:0 6:0 #PDB 1LVM Res GLY7
-0.31559599291725110026263223517162 1:1 2:0 3:0.28669724 4:1 5:1 6:1 #PDB 1DKX Res GLU178
-0.31559599291725110026263223517162 1:1 2:0 3:0.59831458 4:1 5:1 6:1 #PDB 3BWA Res ASP238
-0.31559599291725110026263223517162 1:0 2:0.40000001 3:1 4:0 5:1 6:1 #PDB 2HPL Res ARG98
-0.31559599291725110026263223517162 1:1 2:0 3:0.44782609 4:1 5:1 6:1 #PDB 1VZQ Res LYS83
-0.31559599291725110026263223517162 1:1 2:0 3:0.57121664 4:1 5:1 6:1 #PDB 1NTV Res GLU6
-0.31559599291725110026263223517162 1:0 2:0.40000001 3:0.95625001 4:0 5:1 6:1 #PDB 1AWR Res THR106
-0.31559599291725110026263223517162 1:0.043478262 2:0.40000001 3:0.10923077 4:0 5:1 6:1 #PDB 2ZJD Res LYS4
-0.31559599291725110026263223517162 1:1 2:0 3:1 4:1 5:0 6:0 #PDB 1NLN Res GLY50
-0.31559599291725110026263223517162 1:0 2:0.2 3:0.081491716 4:0 5:1 6:1 #PDB 2V3S Res ASP80
-0.31559599291725110026263223517162 1:0.82608694 2:0.2 3:0.56786704 4:1 5:0 6:0 #PDB 1CZY Res VAL20
3.7871519150070129811069818970282 1:0 2:0.2 3:0.38592234 4:0 5:1 6:1 #PDB 1MFG Res GLU14
-0.31559599291725110026263223517162 1:0 2:0.40000001 3:0.23869346 4:0 5:1 6:1 #PDB 1NX1 Res SER58
-0.31559599291725110026263223517162 1:1 2:0 3:1 4:1 5:1 6:1 #PDB 1EG4 Res ASN53
-0.31559599291725110026263223517162 1:0 2:0.60000002 3:0.47738692 4:0 5:0 6:0 #PDB 1NX1 Res LEU169
-0.31559599291725110026263223517162 1:1 2:0 3:1 4:1 5:1 6:1 #PDB 1GYB Res ASP2
-0.31559599291725110026263223517162 1:1 2:0 3:0.5699482 4:1 5:1 6:1 #PDB 2AK5 Res ASN14
-0.31559599291725110026263223517162 1:0.043478262 2:0.80000001 3:0.55421686 4:0.16666667 5:0 6:0 #PDB 1W9E Res ILE138
-0.31559599291725110026263223517162 1:1 2:0 3:1 4:1 5:1 6:1 #PDB 1MFG Res ASN62
-0.31559599291725110026263223517162 1:0.13043478 2:0.2 3:0.10923077 4:0 5:0 6:0 #PDB 2ZJD Res VAL45
3.7871519150070129811069818970282 1:0.086956523 2:0.2 3:0.11744186 4:0 5:0 6:0 #PDB 1LVM Res PHE172
-0.31559599291725110026263223517162 1:0.13043478 2:0.2 3:0.11111111 4:0 5:0 6:0 #PDB 1SSH Res ALA13
-0.31559599291725110026263223517162 1:1 2:0 3:1 4:1 5:1 6:1 #PDB 1NLN Res SER75
-0.31559599291725110026263223517162 1:1 2:0 3:1 4:1 5:1 6:1 #PDB 1SFI Res THR124
-0.31559599291725110026263223517162 1:0.13043478 2:0.2 3:0.11958569 4:0 5:0 6:0 #PDB 2P54 Res LEU53
-0.31559599291725110026263223517162 1:1 2:0 3:1 4:1 5:1 6:1 #PDB 1RXZ Res ASP150
-0.31559599291725110026263223517162 1:0.13043478 2:0.2 3:0.12941177 4:0 5:0 6:0 #PDB 1YMT Res ALA37
-0.31559599291725110026263223517162 1:0.13043478 2:0.40000001 3:0.23255815 4:0 5:0 6:0 #PDB 2O9V Res GLY1
-0.31559599291725110026263223517162 1:1 2:0 3:1 4:1 5:1 6:1 #PDB 1SFI Res SER126
-0.31559599291725110026263223517162 1:0.17391305 2:0.2 3:0.10347826 4:0 5:0 6:0 #PDB 2B1Z Res ILE22
-0.31559599291725110026263223517162 1:0.17391305 2:0.60000002 3:1 4:0 5:1 6:1 #PDB 2B9H Res SER141
-0.31559599291725110026263223517162 1:0.17391305 2:0.60000002 3:0.75 4:0.66666669 5:1 6:1 #PDB 1TW6 Res THR39
-0.31559599291725110026263223517162 1:0.17391305 2:0.2 3:0.11357341 4:0 5:0 6:0 #PDB 1CZY Res ILE40
-0.31559599291725110026263223517162 1:1 2:0 3:0.45047924 4:1 5:1 6:1 #PDB 1SFI Res THR107
-0.31559599291725110026263223517162 1:0.13043478 2:0.2 3:0.081683166 4:1 5:0 6:0 #PDB 2DS8 Res LEU2
-0.31559599291725110026263223517162 1:1 2:0 3:0.5784983 4:1 5:1 6:1 #PDB 2O02 Res GLN8
-0.31559599291725110026263223517162 1:0.043478262 2:0.80000001 3:0.60204083 4:0 5:1 6:1 #PDB 2FVJ Res CYS66
-0.31559599291725110026263223517162 1:1 2:0 3:1 4:0 5:0 6:1 #PDB 1SE0 Res PRO67
-0.31559599291725110026263223517162 1:0 2:0.2 3:0.11398964 4:1 5:1 6:1 #PDB 2AK5 Res THR34
-0.31559599291725110026263223517162 1:0.13043478 2:0.2 3:0.081491716 4:1 5:1 6:1 #PDB 2V3S Res ARG46
-0.31559599291725110026263223517162 1:1 2:0 3:0.36523736 4:1 5:1 6:1 #PDB 3D1E Res ASN251
-0.31559599291725110026263223517162 1:0.086956523 2:0.60000002 3:0.57827103 4:1 5:1 6:1 #PDB 2BBA Res LYS20
3.7871519150070129811069818970282 1:1 2:0 3:0.80957943 4:0.33333334 5:0 6:1 #PDB 2BBA Res PRO90
-0.31559599291725110026263223517162 1:1 2:0 3:0.70742357 4:0 5:0 6:0 #PDB 1SE0 Res ILE94
-0.31559599291725110026263223517162 1:1 2:0 3:0.34272996 4:1 5:1 6:1 #PDB 1NTV Res GLU147
-0.31559599291725110026263223517162 1:1 2:0 3:0.69392526 4:0 5:0 6:0 #PDB 2BBA Res VAL148
-0.31559599291725110026263223517162 1:0 2:0.2 3:0.11398964 4:1 5:1 6:1 #PDB 2AK5 Res SER5
-0.31559599291725110026263223517162 1:1 2:0 3:0.9739663 4:0.16666667 5:0 6:1 #PDB 3D1E Res PRO28
-0.31559599291725110026263223517162 1:1 2:0 3:0.68545991 4:0 5:0 6:0 #PDB 1NTV Res GLY1
-0.31559599291725110026263223517162 1:1 2:0 3:0.6168831 4:0 5:0 6:0 #PDB 2JAM Res PHE205
-0.31559599291725110026263223517162 1:0 2:0.40000001 3:0.23580787 4:1 5:1 6:1 #PDB 1SE0 Res ASN78
-0.31559599291725110026263223517162 1:0 2:0.2 3:0.11409396 4:1 5:1 6:1 #PDB 1UJ0 Res HIS43
-0.31559599291725110026263223517162 1:1 2:0 3:1 4:0.5 5:0 6:0 #PDB 1YMT Res ALA235
-0.31559599291725110026263223517162 1:0.043478262 2:0.40000001 3:0.23606557 4:1 5:1 6:1 #PDB 2FOJ Res ARG18
-0.31559599291725110026263223517162 1:1 2:0 3:0.68041235 4:0 5:0 6:0 #PDB 2QOS Res VAL171
3.7871519150070129811069818970282 1:0.043478262 2:0.2 3:0.25728154 4:1 5:1 6:1 #PDB 1MFG Res ARG26
-0.31559599291725110026263223517162 1:1 2:0 3:0.68041235 4:0 5:0 6:0 #PDB 2QOS Res ALA30
-0.31559599291725110026263223517162 1:0 2:0.40000001 3:0.3372781 4:1 5:1 6:1 #PDB 1CKA Res TYR3
3.7871519150070129811069818970282 1:1 2:0 3:1 4:1 5:1 6:1 #PDB 2FVJ Res GLN95
-0.31559599291725110026263223517162 1:1 2:0 3:0.64705884 4:0 5:0 6:0 #PDB 1YMT Res LEU120
3.7871519150070129811069818970282 1:0.17391305 2:0.2 3:0.081683166 4:1 5:1 6:1 #PDB 2DS8 Res ARG16
-0.31559599291725110026263223517162 1:0 2:0.40000001 3:0.78279573 4:1 5:1 6:1 #PDB 1RXZ Res LYS12
-0.31559599291725110026263223517162 1:0 2:0.40000001 3:0.69392526 4:1 5:1 6:1 #PDB 2BBA Res GLN30
-0.31559599291725110026263223517162 1:1 2:0 3:0.10833333 4:0.16666667 5:0 6:0 #PDB 2VJ0 Res LEU218
-0.31559599291725110026263223517162 1:1 2:0 3:0.45496184 4:1 5:1 6:1 #PDB 2P0W Res GLN91
-0.31559599291725110026263223517162 1:1 2:0 3:0.36674008 4:0 5:0 6:0 #PDB 1EG4 Res GLY181
-0.31559599291725110026263223517162 1:1 2:0 3:0.37012988 4:0 5:0 6:0 #PDB 2JAM Res GLY151
-0.31559599291725110026263223517162 1:0.043478262 2:0.2 3:1 4:1 5:1 6:1 #PDB 3D9T Res CYS52
3.7871519150070129811069818970282 1:1 2:0 3:0.11565421 4:0 5:0 6:0 #PDB 2BBA Res LEU37
-0.31559599291725110026263223517162 1:0.043478262 2:0.2 3:1 4:1 5:1 6:1 #PDB 1MFG Res HIS71
-0.31559599291725110026263223517162 1:1 2:0 3:0.10833333 4:0.16666667 5:0 6:0 #PDB 2VJ0 Res ALA193
-0.31559599291725110026263223517162 1:0.043478262 2:0.60000002 3:0.26666668 4:0.16666667 5:1 6:1 #PDB 1TP5 Res ARG54
-0.31559599291725110026263223517162 1:0.043478262 2:0.60000002 3:0.34256056 4:0.16666667 5:1 6:1 #PDB 1JWG Res ARG43
-0.31559599291725110026263223517162 1:1 2:0 3:1 4:1 5:0 6:0 #PDB 1NVR Res GLY16
-0.31559599291725110026263223517162 1:1 2:0 3:1 4:1 5:0 6:0 #PDB 1NX1 Res GLY107
-0.31559599291725110026263223517162 1:0 2:0.2 3:0.11290322 4:0 5:1 6:1 #PDB 1YWO Res LYS43
-0.31559599291725110026263223517162 1:1 2:0 3:1 4:1 5:0 6:0 #PDB 1OAI Res ALA13
-0.31559599291725110026263223517162 1:0 2:0.40000001 3:0.29761904 4:0 5:1 6:1 #PDB 2HO2 Res ARG9
-0.31559599291725110026263223517162 1:1 2:0 3:1 4:1 5:0 6:0 #PDB 1SFI Res GLY4
-0.31559599291725110026263223517162 1:1 2:0 3:1 4:1 5:0 6:1 #PDB 1ER8 Res PRO226
-0.31559599291725110026263223517162 1:0.043478262 2:0.2 3:0.10923077 4:0 5:1 6:1 #PDB 2ZJD Res GLU3
-0.31559599291725110026263223517162 1:1 2:0 3:1 4:1 5:0 6:0 #PDB 1SFI Res GLY113
-0.31559599291725110026263223517162 1:0.17391305 2:0.40000001 3:0.11409396 4:0 5:1 6:1 #PDB 1UJ0 Res GLU12
3.7871519150070129811069818970282 1:1 2:0 3:1 4:1 5:0 6:0 #PDB 1TP5 Res VAL28
-0.31559599291725110026263223517162 1:0.13043478 2:0.80000001 3:0.11627907 4:0 5:0 6:1 #PDB 2O9V Res PRO47
-0.31559599291725110026263223517162 1:0.086956523 2:0.60000002 3:0.46511629 4:0 5:1 6:1 #PDB 2O9V Res ASP3
-0.31559599291725110026263223517162 1:1 2:0 3:1 4:1 5:0 6:0 #PDB 1SFI Res GLY169
-0.31559599291725110026263223517162 1:1 2:0 3:1 4:1 5:0 6:0 #PDB 1YMT Res LEU197
-0.31559599291725110026263223517162 1:1 2:0 3:0.60872895 4:0.16666667 5:0 6:0 #PDB 3D1E Res LEU27
-0.31559599291725110026263223517162 1:1 2:0 3:0.60872895 4:1 5:1 6:1 #PDB 3D1E Res THR26
3.7871519150070129811069818970282 1:1 2:0 3:0.85902637 4:0 5:1 6:1 #PDB 3CVP Res ASN224
-0.31559599291725110026263223517162 1:1 2:0 3:0.48584905 4:1 5:1 6:1 #PDB 2O4J Res GLN7
-0.31559599291725110026263223517162 1:0.043478262 2:0.2 3:1 4:0 5:1 6:1 #PDB 2JAM Res LYS122
3.7871519150070129811069818970282 1:1 2:0 3:0.31874999 4:1 5:0 6:1 #PDB 1AWR Res TRP120
-0.31559599291725110026263223517162 1:1 2:0 3:0.48584905 4:1 5:1 6:1 #PDB 2O4J Res LYS19
-0.31559599291725110026263223517162 1:1 2:0 3:0.44072524 4:1 5:1 6:1 #PDB 2R7G Res GLN65
-0.31559599291725110026263223517162 1:0.086956523 2:0.60000002 3:0.83370787 4:0 5:1 6:1 #PDB 1T7R Res GLU13
3.7871519150070129811069818970282 1:1 2:0 3:0.11141305 4:1 5:0 6:0 #PDB 2PUY Res PHE7
-0.31559599291725110026263223517162 1:1 2:0 3:0.44072524 4:1 5:1 6:1 #PDB 2R7G Res LYS50
-0.31559599291725110026263223517162 1:0.086956523 2:0.40000001 3:1 4:0 5:0 6:0 #PDB 2JAM Res ILE208
-0.31559599291725110026263223517162 1:1 2:0 3:0.44176707 4:1 5:1 6:1 #PDB 1U00 Res ASP189
-0.31559599291725110026263223517162 1:0.13043478 2:0.60000002 3:0.86363637 4:0.16666667 5:0 6:0 #PDB 2JAM Res LEU12
-0.31559599291725110026263223517162 1:1 2:0 3:0.44731182 4:1 5:1 6:1 #PDB 1RXZ Res GLU137
-0.31559599291725110026263223517162 1:0 2:0.2 3:1 4:0 5:0 6:0 #PDB 1NVR Res GLY81
-0.31559599291725110026263223517162 1:1 2:0 3:0.44072524 4:1 5:1 6:1 #PDB 2R7G Res ASN137
3.7871519150070129811069818970282 1:1 2:0 3:0.11242604 4:1 5:1 6:1 #PDB 1CKA Res GLU34
-0.31559599291725110026263223517162 1:0.043478262 2:0.2 3:1 4:0 5:0 6:0 #PDB 2B9H Res GLY22
-0.31559599291725110026263223517162 1:1 2:0 3:0.43333334 4:1 5:1 6:1 #PDB 2VJ0 Res GLU157
-0.31559599291725110026263223517162 1:0.17391305 2:0.40000001 3:1 4:0.16666667 5:0 6:0 #PDB 2B9H Res VAL167
-0.31559599291725110026263223517162 1:1 2:0 3:0.42500001 4:1 5:1 6:1 #PDB 1AWR Res ASP159
-0.31559599291725110026263223517162 1:0 2:0.40000001 3:0.79696393 4:0 5:0 6:0 #PDB 2B9H Res LEU19
-0.31559599291725110026263223517162 1:1 2:0 3:1 4:1 5:1 6:1 #PDB 1SFI Res LYS170
-0.31559599291725110026263223517162 1:0.043478262 2:0.40000001 3:0.22168675 4:0.16666667 5:0 6:0 #PDB 1W9E Res LEU31
3.7871519150070129811069818970282 1:1 2:0 3:1 4:1 5:0 6:1 #PDB 2O4J Res PRO231
-0.31559599291725110026263223517162 1:1 2:0 3:1 4:1 5:1 6:1 #PDB 1SFI Res ASN223
3.7871519150070129811069818970282 1:0.043478262 2:0.2 3:0.0664794 4:0 5:0 6:0 #PDB 3BWA Res ILE95
-0.31559599291725110026263223517162 1:0.17391305 2:0.2 3:0.12040816 4:0 5:0 6:0 #PDB 2FVJ Res GLY65
-0.31559599291725110026263223517162 1:1 2:0 3:1 4:1 5:1 6:1 #PDB 1T4F Res LYS42
-0.31559599291725110026263223517162 1:0 2:0.2 3:0.11398964 4:0.16666667 5:0 6:0 #PDB 2AK5 Res LEU7
-0.31559599291725110026263223517162 1:1 2:0 3:1 4:1 5:1 6:1 #PDB 1T4F Res LYS72
-0.31559599291725110026263223517162 1:0.17391305 2:0.2 3:0.12635379 4:0 5:0 6:0 #PDB 1ER8 Res ILE281
-0.31559599291725110026263223517162 1:1 2:0 3:1 4:1 5:1 6:1 #PDB 1TP5 Res ASN63
3.7871519150070129811069818970282 1:1 2:0 3:1 4:1 5:1 6:1 #PDB 1NQ7 Res LYS71
-0.31559599291725110026263223517162 1:0 2:0.2 3:0.12601626 4:0.16666667 5:0 6:0 #PDB 2FMF Res GLY49
-0.31559599291725110026263223517162 1:1 2:0 3:1 4:1 5:1 6:1 #PDB 1TP5 Res GLU101
-0.31559599291725110026263223517162 1:0 2:0.2 3:0.12601626 4:0.16666667 5:0 6:0 #PDB 2FMF Res GLY48
-0.31559599291725110026263223517162 1:0.043478262 2:0.2 3:0.11357341 4:0 5:1 6:1 #PDB 1CZY Res GLN7
-0.31559599291725110026263223517162 1:1 2:0 3:1 4:1 5:0 6:0 #PDB 1T4F Res ALA21
-0.31559599291725110026263223517162 1:0.043478262 2:0.2 3:1 4:1 5:0 6:0 #PDB 3D1E Res GLY239
-0.31559599291725110026263223517162 1:1 2:0 3:0.12040816 4:0 5:1 6:1 #PDB 2FVJ Res GLN126
-0.31559599291725110026263223517162 1:1 2:0 3:0.35804021 4:1 5:1 6:1 #PDB 1NX1 Res ASN27
-0.31559599291725110026263223517162 1:1 2:0 3:0.11744186 4:0 5:1 6:1 #PDB 1LVM Res THR29
-0.31559599291725110026263223517162 1:0.043478262 2:0.40000001 3:0.8557269 4:1 5:0 6:0 #PDB 1EG4 Res LEU122
-0.31559599291725110026263223517162 1:0.13043478 2:0.2 3:1 4:1 5:0 6:0 #PDB 1RXZ Res ALA42
-0.31559599291725110026263223517162 1:1 2:0 3:0.11744186 4:0 5:1 6:1 #PDB 1LVM Res HIS28
-0.31559599291725110026263223517162 1:1 2:0 3:0.11934673 4:0 5:1 6:1 #PDB 1NX1 Res THR60
-0.31559599291725110026263223517162 1:0.043478262 2:0.2 3:0.90797544 4:1 5:0 6:0 #PDB 1OAI Res PHE57
-0.31559599291725110026263223517162 1:0 2:0.40000001 3:0.73514849 4:1 5:0 6:0 #PDB 2DS8 Res PHE7
-0.31559599291725110026263223517162 1:1 2:0 3:0.11958569 4:0 5:1 6:1 #PDB 2P54 Res CYS77
-0.31559599291725110026263223517162 1:1 2:0 3:0.12040816 4:0 5:1 6:1 #PDB 2FVJ Res THR35
-0.31559599291725110026263223517162 1:0 2:0.2 3:0.875 4:1 5:0 6:0 #PDB 1IHJ Res GLY24
-0.31559599291725110026263223517162 1:0.043478262 2:0.2 3:1 4:1 5:0 6:1 #PDB 1TW6 Res PRO72
-0.31559599291725110026263223517162 1:1 2:0 3:0.12040816 4:0 5:1 6:1 #PDB 2FVJ Res LYS38
-0.31559599291725110026263223517162 1:1 2:0 3:0.53130931 4:1 5:1 6:1 #PDB 2B9H Res LYS280
-0.31559599291725110026263223517162 1:0.13043478 2:0.40000001 3:0.89462364 4:1 5:0 6:1 #PDB 1RXZ Res PRO41
-0.31559599291725110026263223517162 1:1 2:0 3:0.12040816 4:0 5:1 6:1 #PDB 2FVJ Res LYS55
-0.31559599291725110026263223517162 1:0.043478262 2:0.40000001 3:1 4:0.66666669 5:0 6:0 #PDB 1NLN Res GLY51
-0.31559599291725110026263223517162 1:1 2:0 3:0.86065573 4:0 5:1 6:1 #PDB 1JD5 Res SER105
-0.31559599291725110026263223517162 1:0.043478262 2:0.40000001 3:0.11141305 4:1 5:0 6:0 #PDB 2PUY Res MET43
-0.31559599291725110026263223517162 1:0 2:0.40000001 3:0.22848664 4:1 5:0 6:0 #PDB 1NTV Res VAL49
-0.31559599291725110026263223517162 1:1 2:0 3:1 4:0.16666667 5:1 6:1 #PDB 1LVM Res GLN117
-0.31559599291725110026263223517162 1:1 2:0 3:1 4:0.16666667 5:1 6:1 #PDB 1T4F Res ASP46
-0.31559599291725110026263223517162 1:0.13043478 2:0.60000002 3:0.47750866 4:1 5:0 6:0 #PDB 1GYB Res ILE116
-0.31559599291725110026263223517162 1:0 2:0.40000001 3:0.25 4:1 5:0 6:0 #PDB 1IHJ Res VAL56
-0.31559599291725110026263223517162 1:1 2:0 3:0.80957943 4:0 5:1 6:1 #PDB 2BBA Res LYS147
-0.31559599291725110026263223517162 1:1 2:0 3:0.80957943 4:0 5:1 6:1 #PDB 2BBA Res GLU39
-0.31559599291725110026263223517162 1:1 2:0 3:0.77884614 4:0 5:1 6:1 #PDB 3BU3 Res GLU54
-0.31559599291725110026263223517162 1:0.13043478 2:0.40000001 3:0.10755814 4:1 5:0 6:0 #PDB 2D0N Res LEU44
-0.31559599291725110026263223517162 1:1 2:0 3:0.3643868 4:1 5:1 6:1 #PDB 2O4J Res HIS192
-0.31559599291725110026263223517162 1:0.13043478 2:0.60000002 3:0.6745562 4:1 5:0 6:0 #PDB 1CKA Res GLY12
-0.31559599291725110026263223517162 1:1 2:0 3:0.45360824 4:1 5:1 6:1 #PDB 2QOS Res GLU137
-0.31559599291725110026263223517162 1:1 2:0 3:0.7764706 4:0 5:1 6:1 #PDB 1YMT Res GLN106
-0.31559599291725110026263223517162 1:0 2:0.40000001 3:0.69767439 4:1 5:0 6:0 #PDB 2O9V Res VAL21
-0.31559599291725110026263223517162 1:0 2:0.2 3:0.85902637 4:1 5:0 6:0 #PDB 3CVP Res LEU25
-0.31559599291725110026263223517162 1:1 2:0 3:0.45429364 4:1 5:1 6:1 #PDB 1CZY Res THR119
-0.31559599291725110026263223517162 1:0.17391305 2:0.40000001 3:0.12635379 4:0 5:1 6:1 #PDB 1ER8 Res SER113
-0.31559599291725110026263223517162 1:0.13043478 2:0.2 3:1 4:1 5:0 6:0 #PDB 1SFI Res GLY185
-0.31559599291725110026263223517162 1:0.17391305 2:0.2 3:1 4:1 5:0 6:0 #PDB 2CCH Res PHE92
-0.31559599291725110026263223517162 1:1 2:0 3:0.12337662 4:0 5:1 6:1 #PDB 2JAM Res GLN149
-0.31559599291725110026263223517162 1:1 2:0 3:0.125 4:0 5:1 6:1 #PDB 1N7F Res LYS63
-0.31559599291725110026263223517162 1:1 2:0 3:0.47640449 4:1 5:1 6:1 #PDB 1T7R Res SER28
3.7871519150070129811069818970282 1:1 2:0 3:0.0664794 4:0 5:1 6:1 #PDB 3BWA Res ASN80
-0.31559599291725110026263223517162 1:0.17391305 2:0.40000001 3:0.87449396 4:1 5:0 6:0 #PDB 1DDV Res ILE43
-0.31559599291725110026263223517162 1:0.13043478 2:0.40000001 3:0.83542717 4:1 5:0 6:0 #PDB 1NX1 Res PHE148
-0.31559599291725110026263223517162 1:1 2:0 3:0.12941177 4:0 5:1 6:1 #PDB 1YMT Res GLN35
-0.31559599291725110026263223517162 1:1 2:0 3:0.13151364 4:0 5:1 6:1 #PDB 2CCH Res LYS225
-0.31559599291725110026263223517162 1:1 2:0 3:0.15015975 4:0 5:1 6:1 #PDB 1SFI Res GLN199
-0.31559599291725110026263223517162 1:0.043478262 2:0.2 3:0.87449396 4:1 5:0 6:0 #PDB 1DDV Res ALA104
-0.31559599291725110026263223517162 1:0 2:0.60000002 3:0.90858728 4:0 5:0 6:1 #PDB 1CZY Res PRO46
-0.31559599291725110026263223517162 1:0 2:0.40000001 3:0.79518074 4:0 5:1 6:1 #PDB 1U00 Res SER113
-0.31559599291725110026263223517162 1:0.086956523 2:0.40000001 3:1 4:0.16666667 5:1 6:1 #PDB 2P1T Res ARG179
-0.31559599291725110026263223517162 1:0.086956523 2:0.2 3:1 4:1 5:1 6:1 #PDB 1VZQ Res LYS205
-0.31559599291725110026263223517162 1:1 2:0 3:0.1222467 4:0.16666667 5:0 6:0 #PDB 1EG4 Res ALA2
-0.31559599291725110026263223517162 1:1 2:0 3:0.54615384 4:1 5:1 6:1 #PDB 2ZJD Res GLN25
-0.31559599291725110026263223517162 1:0 2:0.40000001 3:0.66796875 4:1 5:1 6:1 #PDB 2HPL Res CYS10
-0.31559599291725110026263223517162 1:0.13043478 2:0.40000001 3:0.3488372 4:0 5:0 6:0 #PDB 2O9V Res ILE2
-0.31559599291725110026263223517162 1:0.086956523 2:0.2 3:1 4:1 5:1 6:1 #PDB 2C3I Res GLU114
-0.31559599291725110026263223517162 1:0.17391305 2:0.2 3:0.24504951 4:0 5:0 6:0 #PDB 2DS8 Res VAL31
-0.31559599291725110026263223517162 1:0.086956523 2:0.2 3:1 4:1 5:1 6:1 #PDB 1OAI Res GLN17
-0.31559599291725110026263223517162 1:1 2:0 3:0.21862349 4:0.16666667 5:0 6:0 #PDB 1DDV Res ALA26
-0.31559599291725110026263223517162 1:0 2:0.40000001 3:0.63428569 4:1 5:1 6:1 #PDB 2J6F Res ASN42
-0.31559599291725110026263223517162 1:1 2:0 3:0.375 4:0 5:0 6:0 #PDB 1N7F Res GLY62
-0.31559599291725110026263223517162 1:0.17391305 2:0.40000001 3:0.92979127 4:1 5:1 6:1 #PDB 2B9H Res HIS101
-0.31559599291725110026263223517162 1:0.17391305 2:0.2 3:0.61359024 4:1 5:1 6:1 #PDB 3CVP Res GLU95
-0.31559599291725110026263223517162 1:1 2:0 3:0.25270757 4:1 5:1 6:1 #PDB 1ER8 Res THR55
-0.31559599291725110026263223517162 1:0.086956523 2:0.60000002 3:0.7175141 4:0 5:1 6:1 #PDB 2P54 Res CYS75
-0.31559599291725110026263223517162 1:0.17391305 2:0.80000001 3:0.61359024 4:0.33333334 5:0 6:0 #PDB 3CVP Res ALA86
-0.31559599291725110026263223517162 1:1 2:0 3:0.41391304 4:1 5:1 6:1 #PDB 2B1Z Res GLU160
-0.31559599291725110026263223517162 1:0 2:0.40000001 3:0.79518074 4:0 5:0 6:0 #PDB 1U00 Res LEU63
-0.31559599291725110026263223517162 1:1 2:0 3:0.59831458 4:1 5:0 6:1 #PDB 3BWA Res PRO250
-0.31559599291725110026263223517162 1:0.043478262 2:0.2 3:0.95501733 4:0 5:0 6:0 #PDB 1GYB Res LEU119
-0.31559599291725110026263223517162 1:1 2:0 3:1 4:1 5:1 6:1 #PDB 1TW6 Res LYS81
-0.31559599291725110026263223517162 1:0.043478262 2:0.40000001 3:0.47834274 4:0 5:0 6:0 #PDB 2P54 Res ALA132
-0.31559599291725110026263223517162 1:1 2:0 3:0.40796021 4:1 5:1 6:1 #PDB 1QKZ Res THR159
-0.31559599291725110026263223517162 1:0 2:0.2 3:0.890625 4:0 5:0 6:0 #PDB 2HPL Res LEU18
-0.31559599291725110026263223517162 1:1 2:0 3:0.4054054 4:1 5:1 6:1 #PDB 3D9T Res SER25
-0.31559599291725110026263223517162 1:0 2:0.2 3:1 4:0.16666667 5:0 6:0 #PDB 3BU3 Res GLY96
-0.31559599291725110026263223517162 1:1 2:0 3:0.74509805 4:0 5:1 6:1 #PDB 2H9M Res THR239
-0.31559599291725110026263223517162 1:0 2:0.2 3:0.2039801 4:1 5:0 6:0 #PDB 1QKZ Res MET93
3.7871519150070129811069818970282 1:0.17391305 2:0.40000001 3:0.12418301 4:1 5:0 6:0 #PDB 2H9M Res LEU291
-0.31559599291725110026263223517162 1:0.086956523 2:0.40000001 3:0.22580644 4:1 5:0 6:0 #PDB 1YWO Res GLY33
-0.31559599291725110026263223517162 1:0.043478262 2:0.40000001 3:0.47161573 4:1 5:0 6:0 #PDB 1SE0 Res ALA86
-0.31559599291725110026263223517162 1:1 2:0 3:1 4:0.16666667 5:1 6:1 #PDB 2C3I Res ASP161
3.7871519150070129811069818970282 1:0.17391305 2:0.40000001 3:0.11409396 4:1 5:0 6:0 #PDB 1UJ0 Res VAL14
-0.31559599291725110026263223517162 1:1 2:0 3:0.73348016 4:0 5:1 6:1 #PDB 1EG4 Res SER179
-0.31559599291725110026263223517162 1:0.043478262 2:0.40000001 3:0.75833333 4:1 5:0 6:0 #PDB 2VJ0 Res GLY209
-0.31559599291725110026263223517162 1:1 2:0 3:0.43333334 4:1 5:1 6:1 #PDB 2VJ0 Res GLN28
-0.31559599291725110026263223517162 1:0 2:0.40000001 3:0.90992367 4:0 5:1 6:1 #PDB 2P0W Res SER257
-0.31559599291725110026263223517162 1:1 2:0 3:1 4:1 5:0 6:0 #PDB 1T7R Res GLY56
-0.31559599291725110026263223517162 1:0 2:0.40000001 3:0.35804021 4:0 5:1 6:1 #PDB 1NX1 Res GLN168
-0.31559599291725110026263223517162 1:1 2:0 3:1 4:1 5:0 6:0 #PDB 1TW6 Res GLY82
-0.31559599291725110026263223517162 1:0.043478262 2:0.2 3:0.14927536 4:0 5:1 6:1 #PDB 1VZQ Res GLU94
-0.31559599291725110026263223517162 1:1 2:0 3:1 4:1 5:0 6:0 #PDB 1VZQ Res GLY4
-0.31559599291725110026263223517162 1:0.13043478 2:0.40000001 3:0.23917137 4:0 5:1 6:1 #PDB 2P54 Res CYS74
-0.31559599291725110026263223517162 1:1 2:0 3:1 4:1 5:0 6:0 #PDB 1VZQ Res GLY133
3.7871519150070129811069818970282 1:0.086956523 2:0.2 3:0.23488373 4:0 5:1 6:1 #PDB 1LVM Res LYS220
-0.31559599291725110026263223517162 1:0.043478262 2:0.2 3:0.14927536 4:0 5:1 6:1 #PDB 1VZQ Res ARG93
-0.31559599291725110026263223517162 1:1 2:0 3:1 4:1 5:0 6:0 #PDB 1X2R Res GLY110
-0.31559599291725110026263223517162 1:0 2:0.2 3:0.22580644 4:0 5:1 6:1 #PDB 1YWO Res TYR40
-0.31559599291725110026263223517162 1:1 2:0 3:1 4:1 5:0 6:0 #PDB 1X2R Res GLY157
-0.31559599291725110026263223517162 1:0.043478262 2:0.60000002 3:0.54615384 4:0 5:1 6:1 #PDB 2ZJD Res THR5
-0.31559599291725110026263223517162 1:1 2:0 3:0.43333334 4:1 5:1 6:1 #PDB 2VJ0 Res GLU138
-0.31559599291725110026263223517162 1:0 2:0.60000002 3:0.71393037 4:0 5:1 6:1 #PDB 1QKZ Res GLU154
-0.31559599291725110026263223517162 1:1 2:0 3:1 4:1 5:0 6:0 #PDB 1YMT Res GLY105
-0.31559599291725110026263223517162 1:0.086956523 2:0.40000001 3:0.31714284 4:0 5:1 6:1 #PDB 2J6F Res LYS30
-0.31559599291725110026263223517162 1:1 2:0 3:0.43333334 4:1 5:1 6:1 #PDB 2VJ0 Res LYS204
-0.31559599291725110026263223517162 1:0.043478262 2:0.2 3:1 4:0 5:1 6:1 #PDB 2JAM Res ASP120
-0.31559599291725110026263223517162 1:1 2:0 3:0.43333334 4:1 5:1 6:1 #PDB 2VJ0 Res GLN236
-0.31559599291725110026263223517162 1:0 2:0.40000001 3:0.85000002 4:0 5:1 6:1 #PDB 1AWR Res LYS81
-0.31559599291725110026263223517162 1:0 2:0.2 3:0.11398964 4:0.16666667 5:1 6:1 #PDB 2AK5 Res GLN6
-0.31559599291725110026263223517162 1:0 2:0.2 3:0.13682865 4:0.16666667 5:1 6:1 #PDB 2C3I Res SER39
-0.31559599291725110026263223517162 1:1 2:0 3:1 4:1 5:0 6:0 #PDB 1YMT Res VAL201
-0.31559599291725110026263223517162 1:1 2:0 3:1 4:1 5:0 6:0 #PDB 2B9H Res VAL164
-0.31559599291725110026263223517162 1:0 2:0.2 3:0.11132812 4:0 5:0 6:1 #PDB 2HPL Res PRO14
-0.31559599291725110026263223517162 1:0.17391305 2:0.2 3:0.11357341 4:0 5:0 6:1 #PDB 1CZY Res PRO41
3.7871519150070129811069818970282 1:1 2:0 3:1 4:1 5:0 6:0 #PDB 1VZQ Res LEU26
-0.31559599291725110026263223517162 1:1 2:0 3:1 4:1 5:0 6:0 #PDB 2AK5 Res GLY28
-0.31559599291725110026263223517162 1:1 2:0 3:1 4:1 5:1 6:1 #PDB 1TW6 Res SER94
3.7871519150070129811069818970282 1:0.043478262 2:0.40000001 3:0.0664794 4:0 5:0 6:1 #PDB 3BWA Res TRP147
-0.31559599291725110026263223517162 1:0.13043478 2:0.40000001 3:0.22168675 4:0.16666667 5:0 6:0 #PDB 1W9E Res LEU140
-0.31559599291725110026263223517162 1:1 2:0 3:1 4:1 5:1 6:1 #PDB 1VZQ Res GLU3
-0.31559599291725110026263223517162 1:0.13043478 2:0.40000001 3:0.22168675 4:0.16666667 5:0 6:0 #PDB 1W9E Res GLY139
-0.31559599291725110026263223517162 1:1 2:0 3:1 4:1 5:1 6:1 #PDB 1VZQ Res THR55
3.7871519150070129811069818970282 1:0 2:0.40000001 3:0.0664794 4:0 5:0 6:0 #PDB 3BWA Res PHE67
-0.31559599291725110026263223517162 1:0.043478262 2:0.2 3:0.3581315 4:0 5:0 6:0 #PDB 1GYB Res ILE88
-0.31559599291725110026263223517162 1:1 2:0 3:0.40495867 4:1 5:1 6:1 #PDB 2P1K Res LYS3
-0.31559599291725110026263223517162 1:0 2:0.40000001 3:0.7188679 4:0 5:0 6:0 #PDB 1NVR Res LEU13
-0.31559599291725110026263223517162 1:1 2:0 3:0.40000001 4:1 5:1 6:1 #PDB 1TP5 Res SER20
-0.31559599291725110026263223517162 1:0.086956523 2:0.2 3:0.90992367 4:0 5:0 6:0 #PDB 2P0W Res GLY229
-0.31559599291725110026263223517162 1:1 2:0 3:0.40000001 4:1 5:1 6:1 #PDB 1TP5 Res GLN74
-0.31559599291725110026263223517162 1:0 2:0.40000001 3:0.82097185 4:0.16666667 5:0 6:0 #PDB 2C3I Res GLY12
-0.31559599291725110026263223517162 1:1 2:0 3:1 4:1 5:1 6:1 #PDB 1VZQ Res SER112
-0.31559599291725110026263223517162 1:0.13043478 2:0.2 3:0.12864077 4:0.16666667 5:0 6:0 #PDB 1MFG Res PHE30
-0.31559599291725110026263223517162 1:1 2:0 3:1 4:0.16666667 5:1 6:1 #PDB 1ER8 Res ASP144
-0.31559599291725110026263223517162 1:0.17391305 2:0.2 3:0.11374046 4:0.16666667 5:0 6:0 #PDB 2P0W Res PHE135
-0.31559599291725110026263223517162 1:1 2:0 3:1 4:1 5:1 6:1 #PDB 1VZQ Res ARG211
-0.31559599291725110026263223517162 1:0.043478262 2:0.40000001 3:0.61194032 4:0 5:0 6:0 #PDB 1QKZ Res LEU11
-0.31559599291725110026263223517162 1:1 2:0 3:1 4:1 5:1 6:1 #PDB 1X2R Res HIS109
-0.31559599291725110026263223517162 1:0.086956523 2:0.2 3:0.23255815 4:0.16666667 5:0 6:0 #PDB 2O9V Res PHE5
-0.31559599291725110026263223517162 1:1 2:0 3:1 4:1 5:1 6:1 #PDB 1X2R Res ASP203
-0.31559599291725110026263223517162 1:1 2:0 3:0.55421686 4:1 5:1 6:1 #PDB 1W9E Res CYS9
-0.31559599291725110026263223517162 1:0 2:0.40000001 3:0.55090654 4:0.16666667 5:0 6:0 #PDB 2R7G Res LEU179
-0.31559599291725110026263223517162 1:0.24637681 2:0.40000001 3:0.8108108 4:1 5:1 6:1 #PDB 3D9T Res ASP64
-0.31559599291725110026263223517162 1:1 2:0 3:0.23130842 4:0.16666667 5:0 6:0 #PDB 2BBA Res ALA142
-0.31559599291725110026263223517162 1:0.043478262 2:0.40000001 3:0.70867771 4:1 5:1 6:1 #PDB 2P1K Res LYS34
-0.31559599291725110026263223517162 1:0.043478262 2:0.40000001 3:0.7081967 4:1 5:1 6:1 #PDB 2FOJ Res GLU14
3.7871519150070129811069818970282 1:1 2:0 3:0.38942307 4:0 5:0 6:0 #PDB 3BU3 Res GLY177
-0.31559599291725110026263223517162 1:1 2:0 3:0.64705884 4:0 5:0 6:0 #PDB 1YMT Res GLY118
-0.31559599291725110026263223517162 1:0 2:0.40000001 3:0.44444445 4:1 5:1 6:1 #PDB 1SSH Res LYS33
-0.31559599291725110026263223517162 1:1 2:0 3:0.6168831 4:0 5:0 6:0 #PDB 2JAM Res ALA277
-0.31559599291725110026263223517162 1:0.043478262 2:0.40000001 3:0.7081967 4:1 5:1 6:1 #PDB 2FOJ Res ARG15
-0.31559599291725110026263223517162 1:1 2:0 3:0.45429364 4:0 5:0 6:0 #PDB 1CZY Res ALA3
-0.31559599291725110026263223517162 1:0 2:0.40000001 3:0.625 4:1 5:1 6:1 #PDB 1TW6 Res LYS58
-0.31559599291725110026263223517162 1:0 2:0.40000001 3:0.54655868 4:1 5:1 6:1 #PDB 1DDV Res THR61
-0.31559599291725110026263223517162 1:1 2:0 3:0.6168831 4:0 5:0 6:0 #PDB 2JAM Res LEU168
-0.31559599291725110026263223517162 1:1 2:0 3:0.5699482 4:0 5:0 6:0 #PDB 2AK5 Res ILE61
-0.31559599291725110026263223517162 1:0.043478262 2:0.60000002 3:0.66666669 4:0.16666667 5:1 6:1 #PDB 1TP5 Res GLU52
-0.31559599291725110026263223517162 1:1 2:0 3:0.56701028 4:0 5:0 6:0 #PDB 2QOS Res ALA87
3.7871519150070129811069818970282 1:0 2:0.2 3:0.33974358 4:1 5:1 6:1 #PDB 1T4F Res TYR78
-0.31559599291725110026263223517162 1:0.13043478 2:0.40000001 3:0.22168675 4:1 5:1 6:1 #PDB 1W9E Res ASN106
-0.31559599291725110026263223517162 1:1 2:0 3:1 4:0.66666669 5:0 6:0 #PDB 1LVM Res GLY62
-0.31559599291725110026263223517162 1:0 2:0.60000002 3:0.66413665 4:0 5:1 6:1 #PDB 2B9H Res ARG102
-0.31559599291725110026263223517162 1:1 2:0 3:0.42500001 4:1 5:1 6:1 #PDB 1AWR Res LYS43
-0.31559599291725110026263223517162 1:0.17391305 2:0.40000001 3:0.95849055 4:0 5:1 6:1 #PDB 1NVR Res GLU82
-0.31559599291725110026263223517162 1:1 2:0 3:1 4:1 5:0 6:0 #PDB 2B9H Res GLY130
-0.31559599291725110026263223517162 1:0.17391305 2:0.2 3:0.10123967 4:0 5:1 6:1 #PDB 2P1K Res GLU28
-0.31559599291725110026263223517162 1:0 2:0.2 3:0.79518074 4:0 5:1 6:1 #PDB 1U00 Res LYS111
-0.31559599291725110026263223517162 1:1 2:0 3:0.41532257 4:1 5:1 6:1 #PDB 1X2R Res THR65
-0.31559599291725110026263223517162 1:0.043478262 2:0.60000002 3:0.6553846 4:0 5:1 6:1 #PDB 2ZJD Res ARG36
3.7871519150070129811069818970282 1:1 2:0 3:0.11744186 4:1 5:0 6:0 #PDB 1LVM Res LEU56
-0.31559599291725110026263223517162 1:1 2:0 3:0.41532257 4:1 5:1 6:1 #PDB 1X2R Res ARG124
-0.31559599291725110026263223517162 1:1 2:0 3:1 4:1 5:0 6:0 #PDB 2BBA Res ALA131
-0.31559599291725110026263223517162 1:0.17391305 2:0.40000001 3:0.10613208 4:0.16666667 5:1 6:1 #PDB 1HC9 Res THR58
-0.31559599291725110026263223517162 1:1 2:0 3:0.59831458 4:1 5:1 6:1 #PDB 3BWA Res ASP137
-0.31559599291725110026263223517162 1:1 2:0 3:0.59831458 4:1 5:0 6:0 #PDB 3BWA Res ALA136
-0.31559599291725110026263223517162 1:1 2:0 3:0.59831458 4:1 5:0 6:1 #PDB 3BWA Res PRO193
3.7871519150070129811069818970282 1:1 2:0 3:0.10199005 4:1 5:0 6:0 #PDB 1QKZ Res LEU101
-0.31559599291725110026263223517162 1:0 2:0.40000001 3:0.79501384 4:0 5:1 6:1 #PDB 1CZY Res LYS24
-0.31559599291725110026263223517162 1:0 2:0.2 3:0.45161289 4:0 5:0 6:0 #PDB 1YWO Res GLY41
-0.31559599291725110026263223517162 1:1 2:0 3:1 4:1 5:1 6:1 #PDB 1YMT Res SER155
-0.31559599291725110026263223517162 1:0.17391305 2:0.2 3:0.11374046 4:0.16666667 5:0 6:0 #PDB 2P0W Res VAL126
3.7871519150070129811069818970282 1:1 2:0 3:1 4:1 5:1 6:1 #PDB 1SE0 Res CYS45
-0.31559599291725110026263223517162 1:1 2:0 3:0.98913044 4:0.16666667 5:1 6:1 #PDB 1NLN Res ARG47
-0.31559599291725110026263223517162 1:0.043478262 2:0.60000002 3:0.49456522 4:0.66666669 5:0 6:0 #PDB 1NLN Res VAL52
-0.31559599291725110026263223517162 1:1 2:0 3:1 4:1 5:1 6:1 #PDB 1YMT Res GLU172
-0.31559599291725110026263223517162 1:0.086956523 2:0.2 3:0.2327791 4:0.16666667 5:0 6:0 #PDB 2P1T Res LEU183
-0.31559599291725110026263223517162 1:1 2:0 3:0.71460676 4:0 5:1 6:1 #PDB 1T7R Res ASN88
-0.31559599291725110026263223517162 1:0.086956523 2:0.40000001 3:0.4054054 4:1 5:0 6:0 #PDB 3D9T Res MET82
-0.31559599291725110026263223517162 1:1 2:0 3:1 4:0.33333334 5:1 6:1 #PDB 1IHJ Res ASN64
-0.31559599291725110026263223517162 1:0.043478262 2:0.40000001 3:0.56786704 4:0.16666667 5:0 6:0 #PDB 1CZY Res MET130
-0.31559599291725110026263223517162 1:1 2:0 3:0.43692309 4:1 5:1 6:1 #PDB 2ZJD Res GLU13
-0.31559599291725110026263223517162 1:0.24637681 2:0.2 3:1 4:0 5:0 6:0 #PDB 2C3I Res GLY9
-0.31559599291725110026263223517162 1:1 2:0 3:1 4:1 5:1 6:1 #PDB 1CZY Res ASP155
-0.31559599291725110026263223517162 1:0 2:0.2 3:0.56213015 4:0 5:0 6:0 #PDB 1CKA Res ILE25
-0.31559599291725110026263223517162 1:1 2:0 3:0.40000001 4:1 5:1 6:1 #PDB 1TP5 Res ASP107
-0.31559599291725110026263223517162 1:0 2:0.2 3:0.79518074 4:0 5:0 6:0 #PDB 1U00 Res GLY91
-0.31559599291725110026263223517162 1:1 2:0 3:1 4:1 5:1 6:1 #PDB 2A3I Res GLU163
-0.31559599291725110026263223517162 1:0 2:0.2 3:0.57044196 4:0 5:0 6:0 #PDB 2V3S Res GLY78
-0.31559599291725110026263223517162 1:1 2:0 3:0.3988764 4:1 5:1 6:1 #PDB 3BWA Res GLU128
-0.31559599291725110026263223517162 1:1 2:0 3:0.56870228 4:1 5:1 6:1 #PDB 2P0W Res LYS262
3.7871519150070129811069818970282 1:1 2:0 3:0.11349693 4:1 5:1 6:1 #PDB 1OAI Res ASN33
-0.31559599291725110026263223517162 1:0 2:0.2 3:0.73060346 4:0 5:0 6:0 #PDB 1NQ7 Res GLY115
-0.31559599291725110026263223517162 1:1 2:0 3:1 4:1 5:1 6:1 #PDB 2B9H Res HIS65
-0.31559599291725110026263223517162 1:0.17391305 2:0.2 3:0.12337662 4:0.33333334 5:0 6:0 #PDB 2JAM Res LEU99
-0.31559599291725110026263223517162 1:0.086956523 2:0.40000001 3:0.73514849 4:1 5:1 6:1 #PDB 2DS8 Res CYS34
-0.31559599291725110026263223517162 1:1 2:0 3:0.47213113 4:0 5:0 6:0 #PDB 2FOJ Res ALA136
-0.31559599291725110026263223517162 1:1 2:0 3:0.54615384 4:1 5:1 6:1 #PDB 2ZJD Res GLN76
-0.31559599291725110026263223517162 1:0 2:0.40000001 3:0.10755814 4:1 5:0 6:1 #PDB 2D0N Res TRP2
-0.31559599291725110026263223517162 1:1 2:0 3:0.74637681 4:0.16666667 5:0 6:0 #PDB 1VZQ Res GLY188
-0.31559599291725110026263223517162 1:0.17391305 2:0.60000002 3:0.55090654 4:0.16666667 5:1 6:1 #PDB 2R7G Res HIS284
-0.31559599291725110026263223517162 1:1 2:0 3:0.4433735 4:1 5:1 6:1 #PDB 1W9E Res ASN35
3.7871519150070129811069818970282 1:1 2:0 3:0.83064514 4:1 5:1 6:1 #PDB 1X2R Res ASN59
-0.31559599291725110026263223517162 1:0.17391305 2:0.40000001 3:0.93130434 4:0 5:1 6:1 #PDB 2B1Z Res GLU19
-0.31559599291725110026263223517162 1:1 2:0 3:0.41532257 4:1 5:1 6:1 #PDB 1X2R Res HIS230
-0.31559599291725110026263223517162 1:0.043478262 2:0.40000001 3:0.95477384 4:0.16666667 5:1 6:1 #PDB 1NX1 Res ARG140
-0.31559599291725110026263223517162 1:1 2:0 3:0.41532257 4:1 5:1 6:1 #PDB 1X2R Res THR275
-0.31559599291725110026263223517162 1:0.17391305 2:0.2 3:1 4:0 5:1 6:1 #PDB 1UJ0 Res ASP10
-0.31559599291725110026263223517162 1:1 2:0 3:0.41391304 4:1 5:1 6:1 #PDB 2B1Z Res THR185
-0.31559599291725110026263223517162 1:0 2:0.2 3:1 4:0.16666667 5:1 6:1 #PDB 1VZQ Res GLU222
-0.31559599291725110026263223517162 1:1 2:0 3:0.41048592 4:1 5:1 6:1 #PDB 2C3I Res ARG97
-0.31559599291725110026263223517162 1:0.17391305 2:0.2 3:1 4:0 5:1 6:1 #PDB 2JAM Res GLU124
-0.31559599291725110026263223517162 1:1 2:0 3:0.41048592 4:1 5:1 6:1 #PDB 2C3I Res ARG178
-0.31559599291725110026263223517162 1:0 2:0.40000001 3:0.74637681 4:0 5:1 6:1 #PDB 1VZQ Res GLU195
-0.31559599291725110026263223517162 1:1 2:0 3:1 4:1 5:0 6:0 #PDB 1ER8 Res GLY80
3.7871519150070129811069818970282 1:0 2:0.40000001 3:0.0664794 4:0 5:1 6:1 #PDB 3BWA Res TYR171
-0.31559599291725110026263223517162 1:0.043478262 2:0.40000001 3:0.12448133 4:0.33333334 5:1 6:1 #PDB 1D4T Res LYS81
-0.31559599291725110026263223517162 1:1 2:0 3:1 4:1 5:0 6:0 #PDB 2C3I Res LEU7
-0.31559599291725110026263223517162 1:0.17391305 2:0.2 3:0.10123967 4:0 5:1 6:1 #PDB 2P1K Res THR24
-0.31559599291725110026263223517162 1:1 2:0 3:1 4:1 5:0 6:0 #PDB 2C3I Res PHE61
-0.31559599291725110026263223517162 1:0 2:0.40000001 3:0.47738692 4:0 5:1 6:1 #PDB 1NX1 Res ARG146
-0.31559599291725110026263223517162 1:1 2:0 3:0.39454094 4:1 5:1 6:1 #PDB 2CCH Res ARG118
-0.31559599291725110026263223517162 1:0.17391305 2:0.2 3:1 4:0 5:1 6:1 #PDB 3BU3 Res SER20
-0.31559599291725110026263223517162 1:1 2:0 3:0.39454094 4:1 5:1 6:1 #PDB 2CCH Res SER241
-0.31559599291725110026263223517162 1:0 2:0.40000001 3:0.73342544 4:0 5:1 6:1 #PDB 2V3S Res ASN11
-0.31559599291725110026263223517162 1:1 2:0 3:1 4:1 5:0 6:0 #PDB 2CCH Res ILE7
-0.31559599291725110026263223517162 1:0.043478262 2:0.2 3:0.23875433 4:0 5:1 6:1 #PDB 1GYB Res GLN95
-0.31559599291725110026263223517162 1:0.39130434 2:0.40000001 3:0.6300813 4:1 5:0 6:0 #PDB 2FMF Res VAL107
-0.31559599291725110026263223517162 1:0.17391305 2:0.2 3:0.98307693 4:0 5:1 6:1 #PDB 2ZJD Res LYS7
-0.31559599291725110026263223517162 1:1 2:0 3:0.38942307 4:1 5:1 6:1 #PDB 3BU3 Res THR119
-0.31559599291725110026263223517162 1:0 2:0.40000001 3:0.73342544 4:0 5:1 6:1 #PDB 2V3S Res SER12
-0.31559599291725110026263223517162 1:1 2:0 3:0.38942307 4:1 5:1 6:1 #PDB 3BU3 Res GLU292
3.7871519150070129811069818970282 1:0.17391305 2:0.2 3:0.47738692 4:1 5:1 6:1 #PDB 1NX1 Res LYS77
-0.31559599291725110026263223517162 1:0 2:0.40000001 3:0.73342544 4:0 5:1 6:1 #PDB 2V3S Res SER74
-0.31559599291725110026263223517162 1:1 2:0 3:1 4:1 5:0 6:0 #PDB 2CCH Res ILE95
3.7871519150070129811069818970282 1:0 2:0.2 3:0.37092391 4:0 5:1 6:1 #PDB 1NLN Res ASP141
-0.31559599291725110026263223517162 1:0.17391305 2:0.2 3:0.11638955 4:0 5:1 6:1 #PDB 2P1T Res LYS117
-0.31559599291725110026263223517162 1:1 2:0 3:1 4:1 5:0 6:0 #PDB 2CCH Res LEU117
-0.31559599291725110026263223517162 1:0.17391305 2:0.40000001 3:0.32499999 4:0 5:1 6:1 #PDB 2VJ0 Res GLU244
-0.31559599291725110026263223517162 1:1 2:0 3:1 4:1 5:0 6:0 #PDB 2FMF Res GLY127
-0.31559599291725110026263223517162 1:0 2:0.40000001 3:0.48706895 4:0 5:1 6:1 #PDB 1NQ7 Res GLN21
-0.31559599291725110026263223517162 1:0.17391305 2:0.40000001 3:0.125 4:1 5:0 6:0 #PDB 1TW6 Res PHE4
-0.31559599291725110026263223517162 1:0.17391305 2:0.2 3:0.89940828 4:0 5:1 6:1 #PDB 1CKA Res ASP24
-0.31559599291725110026263223517162 1:1 2:0 3:0.38592234 4:1 5:1 6:1 #PDB 1MFG Res SER76
-0.31559599291725110026263223517162 1:0.13043478 2:0.40000001 3:0.81472683 4:0 5:1 6:1 #PDB 2P1T Res ARG69
-0.31559599291725110026263223517162 1:1 2:0 3:1 4:1 5:0 6:0 #PDB 2H9M Res GLY13
-0.31559599291725110026263223517162 1:0.17391305 2:0.2 3:0.11934673 4:0 5:1 6:1 #PDB 1NX1 Res SER150
3.7871519150070129811069818970282 1:1 2:0 3:1 4:1 5:0 6:0 #PDB 1YMT Res VAL54
-0.31559599291725110026263223517162 1:1 2:0 3:1 4:1 5:0 6:0 #PDB 2H9M Res GLY97
-0.31559599291725110026263223517162 1:0.086956523 2:0.60000002 3:0.4908722 4:0.16666667 5:1 6:1 #PDB 3CVP Res LYS63
-0.31559599291725110026263223517162 1:1 2:0 3:1 4:1 5:0 6:0 #PDB 2O9V Res GLY28
-0.31559599291725110026263223517162 1:0.17391305 2:0.2 3:0.1222467 4:0 5:1 6:1 #PDB 1EG4 Res LYS93
-0.31559599291725110026263223517162 1:1 2:0 3:1 4:1 5:0 6:0 #PDB 2P0W Res GLY39
-0.31559599291725110026263223517162 1:0.17391305 2:0.2 3:0.125 4:0 5:1 6:1 #PDB 1IHJ Res ASP28
-0.31559599291725110026263223517162 1:1 2:0 3:1 4:1 5:0 6:0 #PDB 3BU3 Res GLY236
3.7871519150070129811069818970282 1:0.24637681 2:0.2 3:0.10613208 4:0 5:1 6:1 #PDB 1HC9 Res SER9
-0.31559599291725110026263223517162 1:0.17391305 2:0.2 3:0.125 4:0 5:1 6:1 #PDB 1IHJ Res THR35
-0.31559599291725110026263223517162 1:1 2:0 3:1 4:1 5:0 6:0 #PDB 3D1E Res GLY66
-0.31559599291725110026263223517162 1:0.043478262 2:0.40000001 3:0.47834274 4:0 5:1 6:1 #PDB 2P54 Res TYR133
-0.31559599291725110026263223517162 1:1 2:0 3:0.382263 4:1 5:1 6:1 #PDB 1DKX Res LYS174
-0.31559599291725110026263223517162 1:0 2:0.40000001 3:0.71608043 4:0 5:1 6:1 #PDB 1NX1 Res TYR172
-0.31559599291725110026263223517162 1:1 2:0 3:1 4:1 5:0 6:0 #PDB 3D9T Res GLY1
-0.31559599291725110026263223517162 1:0.086956523 2:0.2 3:0.25 4:0 5:1 6:1 #PDB 1TW6 Res GLN75
-0.31559599291725110026263223517162 1:0.17391305 2:0.40000001 3:0.22265625 4:1 5:0 6:0 #PDB 2HPL Res PHE65
-0.31559599291725110026263223517162 1:0.043478262 2:0.2 3:0.86009175 4:0 5:1 6:1 #PDB 1DKX Res SER117
-0.31559599291725110026263223517162 1:1 2:0 3:0.37906137 4:1 5:1 6:1 #PDB 1ER8 Res THR196
-0.31559599291725110026263223517162 1:0.17391305 2:0.40000001 3:0.722449 4:0 5:1 6:1 #PDB 2FVJ Res SER123
-0.31559599291725110026263223517162 1:1 2:0 3:1 4:1 5:0 6:0 #PDB 3D9T Res GLY84
-0.31559599291725110026263223517162 1:0.043478262 2:0.40000001 3:0.49673203 4:0 5:1 6:1 #PDB 2H9M Res ARG151
-0.31559599291725110026263223517162 1:1 2:0 3:0.99759036 4:1 5:0 6:0 #PDB 1W9E Res GLY122
-0.31559599291725110026263223517162 1:1 2:0 3:0.25961539 4:1 5:1 6:1 #PDB 3BU3 Res ASP235
-0.31559599291725110026263223517162 1:1 2:0 3:0.55090654 4:1 5:0 6:1 #PDB 2R7G Res PRO225
-0.31559599291725110026263223517162 1:0 2:0.2 3:0.68041235 4:0 5:0 6:0 #PDB 2QOS Res ALA31
-0.31559599291725110026263223517162 1:1 2:0 3:0.15015975 4:0 5:1 6:1 #PDB 1SFI Res LYS202
-0.31559599291725110026263223517162 1:0.043478262 2:0.40000001 3:1 4:0.66666669 5:0 6:0 #PDB 1NLN Res GLY1
-0.31559599291725110026263223517162 1:1 2:0 3:0.2039801 4:0 5:1 6:1 #PDB 1QKZ Res SER88
-0.31559599291725110026263223517162 1:0.086956523 2:0.40000001 3:0.74184781 4:1 5:0 6:0 #PDB 1NLN Res LEU200
-0.31559599291725110026263223517162 1:1 2:0 3:0.21846154 4:0 5:1 6:1 #PDB 2ZJD Res LYS121
-0.31559599291725110026263223517162 1:0.043478262 2:0.40000001 3:0.61194032 4:1 5:0 6:0 #PDB 1QKZ Res GLY10
-0.31559599291725110026263223517162 1:1 2:0 3:0.22222222 4:0 5:1 6:1 #PDB 1SSH Res ARG23
-0.31559599291725110026263223517162 1:0.17391305 2:0.2 3:0.98913044 4:1 5:0 6:0 #PDB 1NLN Res LEU21
-0.31559599291725110026263223517162 1:1 2:0 3:0.23488373 4:0 5:1 6:1 #PDB 1LVM Res THR175
-0.31559599291725110026263223517162 1:0.043478262 2:0.2 3:0.86666667 4:1 5:0 6:0 #PDB 2VJ0 Res ILE200
-0.31559599291725110026263223517162 1:1 2:0 3:0.24081632 4:0 5:1 6:1 #PDB 2FVJ Res GLU72
-0.31559599291725110026263223517162 1:0 2:0.2 3:0.79365081 4:1 5:0 6:0 #PDB 2HO2 Res GLY6
-0.31559599291725110026263223517162 1:1 2:0 3:0.2444934 4:0 5:1 6:1 #PDB 1EG4 Res ARG187
-0.31559599291725110026263223517162 1:0.086956523 2:0.2 3:0.88211381 4:1 5:0 6:0 #PDB 2FMF Res ALA1
-0.31559599291725110026263223517162 1:1 2:0 3:0.25 4:0 5:1 6:1 #PDB 1N7F Res LYS61
-0.31559599291725110026263223517162 1:0 2:0.2 3:0.73514849 4:1 5:0 6:0 #PDB 2DS8 Res GLY21
-0.31559599291725110026263223517162 1:1 2:0 3:0.25203252 4:0 5:1 6:1 #PDB 2FMF Res LYS90
-0.31559599291725110026263223517162 1:0 2:0.2 3:0.73514849 4:1 5:0 6:0 #PDB 2DS8 Res VAL24
-0.31559599291725110026263223517162 1:0 2:0.40000001 3:0.95501733 4:0.5 5:0 6:0 #PDB 1GYB Res ILE64
-0.31559599291725110026263223517162 1:1 2:0 3:0.3988764 4:1 5:1 6:1 #PDB 3BWA Res GLU173
-0.31559599291725110026263223517162 1:1 2:0 3:0.66666669 4:1 5:1 6:1 #PDB 1TP5 Res SER71
-0.31559599291725110026263223517162 1:0.043478262 2:0.40000001 3:0.80000001 4:0.16666667 5:0 6:0 #PDB 1TP5 Res GLY51
-0.31559599291725110026263223517162 1:1 2:0 3:0.3988764 4:1 5:1 6:1 #PDB 3BWA Res LYS268
-0.31559599291725110026263223517162 1:0.17391305 2:0.2 3:0.90588236 4:0 5:0 6:0 #PDB 1YMT Res PHE39
-0.31559599291725110026263223517162 1:1 2:0 3:0.39848197 4:1 5:1 6:1 #PDB 2B9H Res ASP48
-0.31559599291725110026263223517162 1:0.13043478 2:0.2 3:0.88145047 4:0 5:0 6:0 #PDB 2R7G Res ILE102
-0.31559599291725110026263223517162 1:1 2:0 3:0.39848197 4:1 5:1 6:1 #PDB 2B9H Res LYS183
-0.31559599291725110026263223517162 1:0.043478262 2:0.2 3:0.76452601 4:0 5:0 6:0 #PDB 1DKX Res ALA115
-0.31559599291725110026263223517162 1:1 2:0 3:1 4:1 5:1 6:1 #PDB 2B9H Res ASN76
-0.31559599291725110026263223517162 1:0.086956523 2:0.2 3:0.45496184 4:0 5:0 6:0 #PDB 2P0W Res GLY227
-0.31559599291725110026263223517162 1:1 2:0 3:0.39848197 4:1 5:1 6:1 #PDB 2B9H Res ARG186
-0.31559599291725110026263223517162 1:0.043478262 2:0.40000001 3:0.8713693 4:0.33333334 5:0 6:0 #PDB 1D4T Res ALA3
-0.31559599291725110026263223517162 1:1 2:0 3:1 4:1 5:1 6:1 #PDB 2B9H Res ASP150
-0.31559599291725110026263223517162 1:0.17391305 2:0.2 3:0.37906137 4:0 5:0 6:0 #PDB 1ER8 Res LEU11
-0.31559599291725110026263223517162 1:0.17391305 2:0.60000002 3:0.4908722 4:0.33333334 5:1 6:1 #PDB 3CVP Res GLN145
-0.31559599291725110026263223517162 1:0.13043478 2:0.2 3:0.47834274 4:0 5:0 6:0 #PDB 2P54 Res VAL54
-0.31559599291725110026263223517162 1:0.13043478 2:0.2 3:1 4:1 5:1 6:1 #PDB 1GYB Res ARG118
-0.31559599291725110026263223517162 1:1 2:0 3:0.29855072 4:1 5:1 6:1 #PDB 1VZQ Res ASN209
-0.31559599291725110026263223517162 1:0.043478262 2:0.2 3:0.91115701 4:1 5:1 6:1 #PDB 2P1K Res HIS53
-0.31559599291725110026263223517162 1:1 2:0 3:0.48698315 4:0 5:0 6:0 #PDB 3D1E Res PHE278
-0.31559599291725110026263223517162 1:0 2:0.40000001 3:0.44565219 4:1 5:1 6:1 #PDB 2PUY Res GLN50
-0.31559599291725110026263223517162 1:1 2:0 3:0.49603173 4:0 5:0 6:0 #PDB 2HO2 Res GLY32
-0.31559599291725110026263223517162 1:0.043478262 2:0.40000001 3:0.59016395 4:1 5:1 6:1 #PDB 2FOJ Res THR12
-0.31559599291725110026263223517162 1:1 2:0 3:0.55706519 4:0 5:0 6:0 #PDB 2PUY Res VAL10
-0.31559599291725110026263223517162 1:0.043478262 2:0.40000001 3:0.5699482 4:1 5:1 6:1 #PDB 2AK5 Res ARG59
-0.31559599291725110026263223517162 1:1 2:0 3:0.34122136 4:0.16666667 5:0 6:0 #PDB 2P0W Res PHE18
-0.31559599291725110026263223517162 1:0.043478262 2:0.2 3:0.90797544 4:1 5:1 6:1 #PDB 1OAI Res LYS59
-0.31559599291725110026263223517162 1:0 2:0.60000002 3:0.74509805 4:0 5:0 6:1 #PDB 2H9M Res PRO25
-0.31559599291725110026263223517162 1:1 2:0 3:0.37804878 4:1 5:1 6:1 #PDB 2FMF Res ASN22
-0.31559599291725110026263223517162 1:0.17391305 2:0.40000001 3:1 4:0.66666669 5:1 6:1 #PDB 1GYB Res ASP68
-0.31559599291725110026263223517162 1:1 2:0 3:0.37344399 4:1 5:1 6:1 #PDB 1D4T Res THR61
-0.31559599291725110026263223517162 1:0.13043478 2:0.40000001 3:0.70867771 4:0 5:1 6:1 #PDB 2P1K Res ASP1
-0.31559599291725110026263223517162 1:1 2:0 3:0.99346405 4:1 5:0 6:0 #PDB 2H9M Res GLY55
-0.31559599291725110026263223517162 1:0.086956523 2:0.2 3:0.25 4:0 5:1 6:1 #PDB 1TW6 Res ARG79
-0.31559599291725110026263223517162 1:1 2:0 3:0.99346405 4:1 5:0 6:0 #PDB 2H9M Res GLY269
-0.31559599291725110026263223517162 1:0 2:0.2 3:0.34020618 4:0 5:1 6:1 #PDB 2QOS Res GLN116
-0.31559599291725110026263223517162 1:1 2:0 3:0.37254903 4:1 5:1 6:1 #PDB 2H9M Res SER214
-0.31559599291725110026263223517162 1:0 2:0.2 3:0.79501384 4:0 5:1 6:1 #PDB 1CZY Res GLU13
3.7871519150070129811069818970282 1:1 2:0 3:0.11744186 4:1 5:0 6:0 #PDB 1LVM Res VAL63
-0.31559599291725110026263223517162 1:1 2:0 3:0.98701298 4:1 5:0 6:0 #PDB 2JAM Res GLY80
-0.31559599291725110026263223517162 1:0 2:0.40000001 3:0.54166669 4:0 5:1 6:1 #PDB 2VJ0 Res LYS19
-0.31559599291725110026263223517162 1:1 2:0 3:0.37254903 4:1 5:1 6:1 #PDB 2H9M Res LYS217
-0.31559599291725110026263223517162 1:0 2:0.2 3:0.74509805 4:0 5:1 6:1 #PDB 2H9M Res SER67
-0.31559599291725110026263223517162 1:1 2:0 3:0.98701298 4:1 5:0 6:0 #PDB 2JAM Res LEU144
-0.31559599291725110026263223517162 1:0 2:0.2 3:0.37344399 4:0 5:1 6:1 #PDB 1D4T Res HIS73
3.7871519150070129811069818970282 1:0.24637681 2:0.2 3:0.65193373 4:1 5:1 6:1 #PDB 2V3S Res ARG20
-0.31559599291725110026263223517162 1:0.13043478 2:0.2 3:0.91191709 4:1 5:0 6:0 #PDB 2AK5 Res GLY48
3.7871519150070129811069818970282 1:1 2:0 3:0.38566554 4:0 5:1 6:1 #PDB 2O02 Res GLU203
-0.31559599291725110026263223517162 1:0.13043478 2:0.40000001 3:1 4:0 5:0 6:1 #PDB 2A3I Res PRO16
-0.31559599291725110026263223517162 1:1 2:0 3:0.37254903 4:1 5:1 6:1 #PDB 2H9M Res CYS218
-0.31559599291725110026263223517162 1:1 2:0 3:0.59016395 4:1 5:1 6:1 #PDB 2FOJ Res THR1
-0.31559599291725110026263223517162 1:0 2:0.40000001 3:0.99346405 4:0 5:0 6:1 #PDB 2H9M Res PRO109
-0.31559599291725110026263223517162 1:1 2:0 3:0.25882354 4:1 5:0 6:0 #PDB 1YMT Res GLY190
-0.31559599291725110026263223517162 1:1 2:0 3:0.47767857 4:1 5:1 6:1 #PDB 2A3I Res TYR191
-0.31559599291725110026263223517162 1:0.043478262 2:0.40000001 3:0.99346405 4:0 5:0 6:1 #PDB 2H9M Res PRO194
-0.31559599291725110026263223517162 1:1 2:0 3:0.36523736 4:1 5:1 6:1 #PDB 3D1E Res GLU301
-0.31559599291725110026263223517162 1:0.086956523 2:0.40000001 3:0.86363637 4:0 5:0 6:1 #PDB 2JAM Res PRO194
-0.31559599291725110026263223517162 1:1 2:0 3:0.25728154 4:1 5:0 6:0 #PDB 1MFG Res GLY72
-0.31559599291725110026263223517162 1:0.043478262 2:0.2 3:1 4:0 5:0 6:1 #PDB 2P0W Res PRO256
-0.31559599291725110026263223517162 1:1 2:0 3:0.3643868 4:1 5:1 6:1 #PDB 2O4J Res ASP30
-0.31559599291725110026263223517162 1:0.17391305 2:0.2 3:1 4:0.16666667 5:1 6:1 #PDB 2B9H Res THR169
-0.31559599291725110026263223517162 1:1 2:0 3:0.3643868 4:1 5:1 6:1 #PDB 2O4J Res ASP107
-0.31559599291725110026263223517162 1:0 2:0.2 3:1 4:0.33333334 5:1 6:1 #PDB 1GYB Res ASP19
-0.31559599291725110026263223517162 1:1 2:0 3:0.59792846 4:1 5:0 6:1 #PDB 2P54 Res PRO156
-0.31559599291725110026263223517162 1:0.043478262 2:0.2 3:0.86009175 4:0 5:0 6:1 #PDB 1DKX Res PRO8
-0.31559599291725110026263223517162 1:1 2:0 3:0.3612245 4:1 5:1 6:1 #PDB 2FVJ Res ARG138
-0.31559599291725110026263223517162 1:0.043478262 2:0.2 3:0.83564013 4:0 5:0 6:1 #PDB 1GYB Res PRO56
-0.31559599291725110026263223517162 1:1 2:0 3:0.25270757 4:1 5:0 6:0 #PDB 1ER8 Res GLY205
-0.31559599291725110026263223517162 1:0.17391305 2:0.2 3:1 4:0.16666667 5:1 6:1 #PDB 2B9H Res TYR184
-0.31559599291725110026263223517162 1:1 2:0 3:0.25270757 4:1 5:0 6:0 #PDB 1ER8 Res ALA232
-0.31559599291725110026263223517162 1:0 2:0.2 3:0.79518074 4:0 5:0 6:1 #PDB 1U00 Res PRO5
3.7871519150070129811069818970282 1:1 2:0 3:0.11934673 4:1 5:0 6:0 #PDB 1NX1 Res ALA81
-0.31559599291725110026263223517162 1:1 2:0 3:0.98360658 4:1 5:0 6:0 #PDB 1JD5 Res GLY85
3.7871519150070129811069818970282 1:0 2:0.40000001 3:0.0664794 4:0 5:0 6:1 #PDB 3BWA Res TRP167
3.7871519150070129811069818970282 1:1 2:0 3:1 4:1 5:0 6:0 #PDB 1YMT Res LEU75
-0.31559599291725110026263223517162 1:0.17391305 2:0.40000001 3:0.22837371 4:0 5:0 6:1 #PDB 1JWG Res PRO52
-0.31559599291725110026263223517162 1:1 2:0 3:0.98307693 4:1 5:0 6:0 #PDB 2ZJD Res ALA77
-0.31559599291725110026263223517162 1:0.13043478 2:0.2 3:0.14927536 4:0 5:0 6:1 #PDB 1VZQ Res TRP50
3.7871519150070129811069818970282 1:0.17391305 2:0.2 3:0.37804878 4:0.33333334 5:1 6:1 #PDB 2FMF Res LYS121
-0.31559599291725110026263223517162 1:1 2:0 3:0.98307693 4:1 5:0 6:0 #PDB 2ZJD Res GLY119
-0.31559599291725110026263223517162 1:0 2:0.40000001 3:0.55664062 4:0 5:1 6:1 #PDB 2HPL Res GLU97
-0.31559599291725110026263223517162 1:1 2:0 3:0.9739663 4:1 5:0 6:0 #PDB 3D1E Res PHE106
3.7871519150070129811069818970282 1:0.39130434 2:0.2 3:0.65193373 4:1 5:1 6:1 #PDB 2V3S Res ASP28
-0.31559599291725110026263223517162 1:0 2:0.40000001 3:0.61194032 4:0 5:0 6:1 #PDB 1QKZ Res PRO41
-0.31559599291725110026263223517162 1:1 2:0 3:0.25203252 4:1 5:0 6:0 #PDB 2FMF Res ALA73
-0.31559599291725110026263223517162 1:0.17391305 2:0.2 3:1 4:0.16666667 5:1 6:1 #PDB 2JAM Res GLU81
-0.31559599291725110026263223517162 1:1 2:0 3:0.25 4:1 5:0 6:0 #PDB 1IHJ Res GLY13
-0.31559599291725110026263223517162 1:0.13043478 2:0.2 3:0.95477384 4:0.16666667 5:1 6:1 #PDB 1NX1 Res THR170
-0.31559599291725110026263223517162 1:1 2:0 3:0.9739663 4:1 5:0 6:0 #PDB 3D1E Res VAL151
-0.31559599291725110026263223517162 1:0.086956523 2:0.2 3:0.11941964 4:0.16666667 5:1 6:1 #PDB 2A3I Res SER205
-0.31559599291725110026263223517162 1:1 2:0 3:0.74637681 4:0.16666667 5:0 6:0 #PDB 1VZQ Res GLY228
-0.31559599291725110026263223517162 1:0 2:0.2 3:0.11790393 4:1 5:1 6:1 #PDB 1SE0 Res THR76
-0.31559599291725110026263223517162 1:1 2:0 3:0.85000002 4:0.33333334 5:0 6:0 #PDB 1AWR Res PHE87
-0.31559599291725110026263223517162 1:1 2:0 3:0.95849055 4:0.5 5:0 6:0 #PDB 1NVR Res ALA264
-0.31559599291725110026263223517162 1:0 2:0.2 3:0.11937717 4:1 5:1 6:1 #PDB 1GYB Res ASN16
-0.31559599291725110026263223517162 1:1 2:0 3:0.86363637 4:0 5:0 6:1 #PDB 2JAM Res PRO239
-0.31559599291725110026263223517162 1:0 2:0.2 3:0.11937717 4:1 5:1 6:1 #PDB 1GYB Res ARG63
3.7871519150070129811069818970282 1:1 2:0 3:0.9395349 4:0.33333334 5:0 6:1 #PDB 1LVM Res PRO88
-0.31559599291725110026263223517162 1:1 2:0 3:0.73060346 4:0.16666667 5:0 6:0 #PDB 1NQ7 Res ILE203
-0.31559599291725110026263223517162 1:0.043478262 2:0.40000001 3:0.36885247 4:1 5:1 6:1 #PDB 1JD5 Res GLU36
-0.31559599291725110026263223517162 1:1 2:0 3:0.7175141 4:0.16666667 5:0 6:0 #PDB 2P54 Res LEU2
-0.31559599291725110026263223517162 1:0 2:0.2 3:0.12174579 4:1 5:1 6:1 #PDB 3D1E Res GLN355
-0.31559599291725110026263223517162 1:1 2:0 3:0.83370787 4:0 5:0 6:1 #PDB 1T7R Res PRO98
-0.31559599291725110026263223517162 1:0.17391305 2:0.40000001 3:0.75 4:1 5:1 6:1 #PDB 1IHJ Res ARG53
-0.31559599291725110026263223517162 1:0.39130434 2:0.2 3:0.11744186 4:0.16666667 5:0 6:0 #PDB 1LVM Res MET124
-0.31559599291725110026263223517162 1:1 2:0 3:1 4:1 5:1 6:1 #PDB 2B9H Res ARG170
-0.31559599291725110026263223517162 1:0.17391305 2:0.2 3:0.45360824 4:0 5:0 6:0 #PDB 2QOS Res GLY92
-0.31559599291725110026263223517162 1:1 2:0 3:0.39848197 4:1 5:1 6:1 #PDB 2B9H Res GLU236
-0.31559599291725110026263223517162 1:0.17391305 2:0.2 3:0.82097185 4:0 5:0 6:0 #PDB 2C3I Res VAL87
-0.31559599291725110026263223517162 1:0.82608694 2:0.2 3:0.68512112 4:0.16666667 5:1 6:1 #PDB 1JWG Res LYS81
-0.31559599291725110026263223517162 1:0 2:0.2 3:0.35371178 4:0.33333334 5:0 6:0 #PDB 1SE0 Res VAL80
-0.31559599291725110026263223517162 1:1 2:0 3:1 4:1 5:1 6:1 #PDB 2B9H Res ASP211
-0.31559599291725110026263223517162 1:0.043478262 2:0.2 3:0.57044196 4:0 5:0 6:0 #PDB 2V3S Res GLY41
3.7871519150070129811069818970282 1:1 2:0 3:1 4:1 5:1 6:1 #PDB 1T4F Res HIS51
-0.31559599291725110026263223517162 1:1 2:0 3:0.39848197 4:1 5:1 6:1 #PDB 2B9H Res ARG210
-0.31559599291725110026263223517162 1:0 2:0.2 3:0.76461536 4:0.16666667 5:0 6:0 #PDB 2ZJD Res VAL90
-0.31559599291725110026263223517162 1:1 2:0 3:1 4:1 5:1 6:1 #PDB 2B9H Res ASP268
-0.31559599291725110026263223517162 1:0.043478262 2:0.2 3:0.59710145 4:0 5:0 6:0 #PDB 1VZQ Res ILE172
-0.31559599291725110026263223517162 1:1 2:0 3:0.39848197 4:1 5:1 6:1 #PDB 2B9H Res ARG272
-0.31559599291725110026263223517162 1:0.086956523 2:0.2 3:0.74025977 4:0 5:0 6:0 #PDB 2JAM Res LEU204
-0.31559599291725110026263223517162 1:1 2:0 3:1 4:1 5:1 6:1 #PDB 2BBA Res GLU98
-0.31559599291725110026263223517162 1:0 2:0.40000001 3:0.12864077 4:0.5 5:1 6:1 #PDB 1MFG Res GLN43
-0.31559599291725110026263223517162 1:1 2:0 3:0.9739663 4:1 5:0 6:0 #PDB 3D1E Res ILE272
-0.31559599291725110026263223517162 1:0 2:0.40000001 3:0.56701028 4:0 5:1 6:1 #PDB 2QOS Res ARG113
-0.31559599291725110026263223517162 1:1 2:0 3:0.97169811 4:1 5:0 6:0 #PDB 2O4J Res ALA203
-0.31559599291725110026263223517162 1:0.17391305 2:0.40000001 3:0.23255815 4:0.16666667 5:1 6:1 #PDB 2O9V Res ARG65
-0.31559599291725110026263223517162 1:1 2:0 3:0.97169811 4:1 5:0 6:0 #PDB 2O4J Res MET227
-0.31559599291725110026263223517162 1:0.13043478 2:0.40000001 3:0.45360824 4:0 5:1 6:1 #PDB 2QOS Res GLN37
-0.31559599291725110026263223517162 1:1 2:0 3:0.96802324 4:1 5:0 6:0 #PDB 2D0N Res GLY22
-0.31559599291725110026263223517162 1:0.13043478 2:0.2 3:0.11242604 4:0.16666667 5:1 6:1 #PDB 1CKA Res ASN11
-0.31559599291725110026263223517162 1:1 2:0 3:0.9632653 4:1 5:0 6:0 #PDB 2FVJ Res GLY86
-0.31559599291725110026263223517162 1:0.086956523 2:0.40000001 3:0.52857143 4:0 5:1 6:1 #PDB 2J6F Res ASP50
-0.31559599291725110026263223517162 1:1 2:0 3:0.53012049 4:1 5:1 6:1 #PDB 1U00 Res ARG31
3.7871519150070129811069818970282 1:0.086956523 2:0.2 3:0.57121664 4:1 5:1 6:1 #PDB 1NTV Res HIS89
-0.31559599291725110026263223517162 1:0 2:0.2 3:0.68244272 4:0 5:1 6:1 #PDB 2P0W Res SER259
-0.31559599291725110026263223517162 1:1 2:0 3:0.95849055 4:1 5:0 6:0 #PDB 1NVR Res VAL4
-0.31559599291725110026263223517162 1:0.13043478 2:0.40000001 3:0.47767857 4:0 5:1 6:1 #PDB 2A3I Res GLU17
3.7871519150070129811069818970282 1:1 2:0 3:1 4:1 5:1 6:1 #PDB 2O4J Res GLN74
-0.31559599291725110026263223517162 1:0 2:0.2 3:0.66796875 4:0 5:1 6:1 #PDB 2HPL Res SER100
-0.31559599291725110026263223517162 1:1 2:0 3:0.95668548 4:1 5:0 6:0 #PDB 2P54 Res LEU226
-0.31559599291725110026263223517162 1:0.17391305 2:0.2 3:0.24081632 4:0 5:1 6:1 #PDB 2FVJ Res ARG61
-0.31559599291725110026263223517162 1:0.17391305 2:0.40000001 3:0.55090654 4:0.16666667 5:0 6:0 #PDB 2R7G Res VAL286
-0.31559599291725110026263223517162 1:1 2:0 3:0.3968254 4:1 5:1 6:1 #PDB 2HO2 Res SER14
-0.31559599291725110026263223517162 1:0.13043478 2:0.2 3:0.71608043 4:0 5:0 6:0 #PDB 1NX1 Res LEU151
-0.31559599291725110026263223517162 1:1 2:0 3:1 4:1 5:1 6:1 #PDB 2BBA Res LYS126
3.7871519150070129811069818970282 1:0.17391305 2:0.2 3:0.11981132 4:0.16666667 5:0 6:0 #PDB 1NVR Res LEU9
-0.31559599291725110026263223517162 1:0.13043478 2:0.2 3:0.51764709 4:0 5:0 6:0 #PDB 1YMT Res LEU121
-0.31559599291725110026263223517162 1:1 2:0 3:0.3882353 4:1 5:1 6:1 #PDB 1YMT Res LYS64
-0.31559599291725110026263223517162 1:0.086956523 2:0.40000001 3:0.69767439 4:0.16666667 5:0 6:0 #PDB 2O9V Res LEU67
-0.31559599291725110026263223517162 1:1 2:0 3:1 4:1 5:1 6:1 #PDB 2C3I Res ARG217
-0.31559599291725110026263223517162 1:0.17391305 2:0.2 3:0.125 4:0.33333334 5:0 6:0 #PDB 1IHJ Res MET6
-0.31559599291725110026263223517162 1:0 2:0.2 3:0.65193373 4:0 5:1 6:1 #PDB 2V3S Res LYS14
-0.31559599291725110026263223517162 1:1 2:0 3:0.35875705 4:1 5:1 6:1 #PDB 2P54 Res ASP100
-0.31559599291725110026263223517162 1:0.17391305 2:0.2 3:0.93130434 4:0.16666667 5:1 6:1 #PDB 2B1Z Res ARG204
-0.31559599291725110026263223517162 1:1 2:0 3:0.35875705 4:1 5:1 6:1 #PDB 2P54 Res GLN212
-0.31559599291725110026263223517162 1:0.043478262 2:0.2 3:0.86928105 4:0.16666667 5:1 6:1 #PDB 2H9M Res ASN195
-0.31559599291725110026263223517162 1:1 2:0 3:0.35875705 4:1 5:1 6:1 #PDB 2P54 Res GLN227
-0.31559599291725110026263223517162 1:0.17391305 2:0.2 3:0.79518074 4:0 5:1 6:1 #PDB 1U00 Res ARG61
-0.31559599291725110026263223517162 1:1 2:0 3:0.35875705 4:1 5:1 6:1 #PDB 2P54 Res SER251
-0.31559599291725110026263223517162 1:0 2:0.2 3:0.82097185 4:0.16666667 5:1 6:1 #PDB 2C3I Res ARG37
-0.31559599291725110026263223517162 1:1 2:0 3:0.95625001 4:1 5:0 6:0 #PDB 1AWR Res GLY79
3.7871519150070129811069818970282 1:1 2:0 3:1 4:1 5:0 6:0 #PDB 1YMT Res LEU228
-0.31559599291725110026263223517162 1:0.17391305 2:0.2 3:0.14927536 4:0.33333334 5:0 6:0 #PDB 1VZQ Res ILE9
-0.31559599291725110026263223517162 1:1 2:0 3:1 4:1 5:1 6:1 #PDB 2CCH Res TYR3
-0.31559599291725110026263223517162 1:0.086956523 2:0.40000001 3:0.58194774 4:0.16666667 5:0 6:0 #PDB 2P1T Res ALA56
-0.31559599291725110026263223517162 1:1 2:0 3:0.36523736 4:1 5:1 6:1 #PDB 3D1E Res GLU334
-0.31559599291725110026263223517162 1:0.17391305 2:0.2 3:0.93130434 4:0.16666667 5:0 6:0 #PDB 2B1Z Res ALA234
3.7871519150070129811069818970282 1:1 2:0 3:0.11424332 4:1 5:1 6:1 #PDB 1NTV Res LYS110
-0.31559599291725110026263223517162 1:1 2:0 3:0.3882353 4:1 5:1 6:1 #PDB 1YMT Res GLU107
-0.31559599291725110026263223517162 1:0.17391305 2:0.2 3:0.71393037 4:0 5:0 6:0 #PDB 1QKZ Res VAL175
-0.31559599291725110026263223517162 1:0.39130434 2:0.2 3:1 4:1 5:1 6:1 #PDB 1LVM Res SER126
3.7871519150070129811069818970282 1:0 2:0.2 3:0.34049079 4:0 5:0 6:0 #PDB 1OAI Res ALA42
-0.31559599291725110026263223517162 1:0.17391305 2:0.2 3:0.36815417 4:0.16666667 5:0 6:0 #PDB 3CVP Res VAL243
-0.31559599291725110026263223517162 1:1 2:0 3:1 4:1 5:1 6:1 #PDB 2CCH Res LYS91
-0.31559599291725110026263223517162 1:0.086956523 2:0.2 3:0.29761904 4:0 5:0 6:1 #PDB 2HO2 Res PRO30
-0.31559599291725110026263223517162 1:1 2:0 3:0.3882353 4:1 5:1 6:1 #PDB 1YMT Res SER111
-0.31559599291725110026263223517162 1:0 2:0.2 3:0.79518074 4:0 5:0 6:1 #PDB 1U00 Res PRO112
-0.31559599291725110026263223517162 1:1 2:0 3:1 4:1 5:1 6:1 #PDB 2CCH Res ASP109
-0.31559599291725110026263223517162 1:0.043478262 2:0.2 3:0.13333334 4:0.16666667 5:0 6:1 #PDB 1TP5 Res PRO8
-0.31559599291725110026263223517162 1:1 2:0 3:0.71393037 4:0 5:1 6:1 #PDB 1QKZ Res SER119
-0.31559599291725110026263223517162 1:0.043478262 2:0.40000001 3:0.61123347 4:1 5:0 6:0 #PDB 1EG4 Res ALA72
-0.31559599291725110026263223517162 1:1 2:0 3:0.9741379 4:0.16666667 5:1 6:1 #PDB 1NQ7 Res ASP164
-0.31559599291725110026263223517162 1:0.043478262 2:0.2 3:0.11409396 4:1 5:0 6:0 #PDB 1UJ0 Res GLY45
-0.31559599291725110026263223517162 1:1 2:0 3:0.9739663 4:0.16666667 5:1 6:1 #PDB 3D1E Res ARG24
-0.31559599291725110026263223517162 1:0.043478262 2:0.40000001 3:0.73047471 4:0.5 5:1 6:1 #PDB 3D1E Res SER192
3.7871519150070129811069818970282 1:0.13043478 2:0.40000001 3:0.69444442 4:1 5:0 6:1 #PDB 2HO2 Res TRP19
-0.31559599291725110026263223517162 1:0.39130434 2:0.2 3:0.82209301 4:0 5:1 6:1 #PDB 1LVM Res GLN145
-0.31559599291725110026263223517162 1:1 2:0 3:0.35825893 4:1 5:1 6:1 #PDB 2A3I Res GLN111
-0.31559599291725110026263223517162 1:0.043478262 2:0.40000001 3:0.73770493 4:0.16666667 5:1 6:1 #PDB 1JD5 Res GLU65
3.7871519150070129811069818970282 1:1 2:0 3:0.11937717 4:1 5:0 6:0 #PDB 1GYB Res PHE113
-0.31559599291725110026263223517162 1:1 2:0 3:0.95625001 4:1 5:0 6:0 #PDB 1AWR Res GLY103
-0.31559599291725110026263223517162 1:1 2:0 3:0.45496184 4:1 5:1 6:1 #PDB 2P0W Res SER71
-0.31559599291725110026263223517162 1:0.13043478 2:0.2 3:0.11398964 4:0.16666667 5:1 6:1 #PDB 2AK5 Res HIS32
-0.31559599291725110026263223517162 1:1 2:0 3:0.95535713 4:1 5:0 6:0 #PDB 2A3I Res GLY243
-0.31559599291725110026263223517162 1:0 2:0.2 3:0.44565219 4:0 5:1 6:1 #PDB 2PUY Res ASP33
-0.31559599291725110026263223517162 1:1 2:0 3:0.95518869 4:1 5:0 6:0 #PDB 1HC9 Res GLY19
-0.31559599291725110026263223517162 1:0.086956523 2:0.2 3:0.35232559 4:0 5:1 6:1 #PDB 1LVM Res ASP219
-0.31559599291725110026263223517162 1:1 2:0 3:0.95518869 4:1 5:0 6:0 #PDB 1HC9 Res ALA46
-0.31559599291725110026263223517162 1:0 2:0.2 3:0.48706895 4:0 5:1 6:1 #PDB 1NQ7 Res GLU114
-0.31559599291725110026263223517162 1:1 2:0 3:0.95477384 4:1 5:0 6:0 #PDB 1NX1 Res GLY62
-0.31559599291725110026263223517162 1:0.043478262 2:0.40000001 3:0.4433735 4:0.16666667 5:1 6:1 #PDB 1W9E Res SER39
-0.31559599291725110026263223517162 1:1 2:0 3:0.95477384 4:1 5:0 6:0 #PDB 1NX1 Res MET171
-0.31559599291725110026263223517162 1:0 2:0.2 3:0.48898679 4:0 5:1 6:1 #PDB 1EG4 Res ARG149
-0.31559599291725110026263223517162 1:1 2:0 3:0.48163265 4:1 5:1 6:1 #PDB 2FVJ Res LYS10
-0.31559599291725110026263223517162 1:0.043478262 2:0.2 3:0.66413665 4:0 5:1 6:1 #PDB 2B9H Res GLU21
-0.31559599291725110026263223517162 1:1 2:0 3:1 4:0.66666669 5:0 6:0 #PDB 1CKA Res GLY23
-0.31559599291725110026263223517162 1:0.17391305 2:0.2 3:0.24081632 4:0 5:1 6:1 #PDB 2FVJ Res GLU124
-0.31559599291725110026263223517162 1:1 2:0 3:0.95280898 4:1 5:0 6:0 #PDB 1T7R Res GLY241
3.7871519150070129811069818970282 1:0 2:0.2 3:0.41532257 4:0 5:1 6:1 #PDB 1X2R Res ARG92
-0.31559599291725110026263223517162 1:0 2:0.2 3:0.49792531 4:0 5:1 6:1 #PDB 1D4T Res LYS74
-0.31559599291725110026263223517162 1:1 2:0 3:0.95280898 4:1 5:0 6:0 #PDB 1T7R Res PHE248
-0.31559599291725110026263223517162 1:0 2:0.40000001 3:0.55090654 4:0.16666667 5:1 6:1 #PDB 2R7G Res GLU288
-0.31559599291725110026263223517162 1:1 2:0 3:0.95142859 4:1 5:0 6:0 #PDB 2J6F Res GLY22
-0.31559599291725110026263223517162 1:0.13043478 2:0.2 3:0.35825893 4:0 5:1 6:1 #PDB 2A3I Res GLN48
-0.31559599291725110026263223517162 1:1 2:0 3:0.93130434 4:1 5:0 6:0 #PDB 2B1Z Res VAL51
-0.31559599291725110026263223517162 1:0 2:0.2 3:0.29761904 4:0.16666667 5:1 6:1 #PDB 2HO2 Res SER1
-0.31559599291725110026263223517162 1:1 2:0 3:0.93130434 4:1 5:0 6:0 #PDB 2B1Z Res GLY114
-0.31559599291725110026263223517162 1:0 2:0.2 3:0.54655868 4:0 5:1 6:1 #PDB 1DDV Res ASN59
-0.31559599291725110026263223517162 1:1 2:0 3:0.9311164 4:1 5:0 6:0 #PDB 2P1T Res ALA169
-0.31559599291725110026263223517162 1:0.043478262 2:0.2 3:0.47782874 4:0 5:1 6:1 #PDB 1DKX Res LYS114
-0.31559599291725110026263223517162 1:0.17391305 2:0.2 3:0.375 4:0.16666667 5:0 6:0 #PDB 1TW6 Res ALA33
-0.31559599291725110026263223517162 1:1 2:0 3:1 4:1 5:1 6:1 #PDB 2FMF Res ASP12
-0.31559599291725110026263223517162 1:0.24637681 2:0.2 3:0.12864077 4:0.33333334 5:0 6:0 #PDB 1MFG Res ILE67
-0.31559599291725110026263223517162 1:1 2:0 3:1 4:1 5:1 6:1 #PDB 2FVJ Res ASP177
3.7871519150070129811069818970282 1:1 2:0 3:1 4:1 5:1 6:1 #PDB 1T7R Res LYS52
-0.31559599291725110026263223517162 1:0.24637681 2:0.2 3:0.375 4:0.16666667 5:0 6:0 #PDB 1TW6 Res LEU30
-0.31559599291725110026263223517162 1:1 2:0 3:1 4:1 5:1 6:1 #PDB 2FVJ Res ARG224
-0.31559599291725110026263223517162 1:0 2:0.2 3:0.6553846 4:0.16666667 5:0 6:0 #PDB 2ZJD Res MET87
-0.31559599291725110026263223517162 1:1 2:0 3:0.25728154 4:1 5:1 6:1 #PDB 1MFG Res ASP33
-0.31559599291725110026263223517162 1:0.17391305 2:0.40000001 3:0.67567569 4:1 5:1 6:1 #PDB 3D9T Res HIS12
-0.31559599291725110026263223517162 1:1 2:0 3:0.35409835 4:0.16666667 5:0 6:0 #PDB 2FOJ Res ALA55
-0.31559599291725110026263223517162 1:0 2:0.2 3:1 4:0.5 5:1 6:1 #PDB 1JWG Res SER70
-0.31559599291725110026263223517162 1:1 2:0 3:0.35825893 4:1 5:1 6:1 #PDB 2A3I Res CYS179
-0.31559599291725110026263223517162 1:0.17391305 2:0.2 3:0.75833333 4:0 5:1 6:1 #PDB 2VJ0 Res ARG15
-0.31559599291725110026263223517162 1:1 2:0 3:0.35825893 4:1 5:1 6:1 #PDB 2A3I Res SER183
-0.31559599291725110026263223517162 1:0.17391305 2:0.2 3:1 4:0.33333334 5:1 6:1 #PDB 2FMF Res LYS125
-0.31559599291725110026263223517162 1:1 2:0 3:0.3581315 4:1 5:1 6:1 #PDB 1GYB Res GLN24
-0.31559599291725110026263223517162 1:0.043478262 2:0.2 3:0.6553846 4:0 5:1 6:1 #PDB 2ZJD Res SER2
-0.31559599291725110026263223517162 1:1 2:0 3:0.9311164 4:1 5:0 6:0 #PDB 2P1T Res LEU173
-0.31559599291725110026263223517162 1:0.17391305 2:0.2 3:0.10123967 4:0.16666667 5:1 6:1 #PDB 2P1K Res ASN31
3.7871519150070129811069818970282 1:1 2:0 3:1 4:1 5:0 6:0 #PDB 2A3I Res MET228
-0.31559599291725110026263223517162 1:1 2:0 3:0.9311164 4:1 5:0 6:0 #PDB 2P1T Res GLY196
-0.31559599291725110026263223517162 1:0.17391305 2:0.2 3:0.32499999 4:0 5:1 6:1 #PDB 2VJ0 Res GLU10
-0.31559599291725110026263223517162 1:1 2:0 3:0.92979127 4:1 5:0 6:0 #PDB 2B9H Res MET1
-0.31559599291725110026263223517162 1:0.17391305 2:0.2 3:0.10931174 4:0.16666667 5:1 6:1 #PDB 1DDV Res SER86
-0.31559599291725110026263223517162 1:1 2:0 3:0.92523366 4:1 5:0 6:0 #PDB 2BBA Res GLY156
-0.31559599291725110026263223517162 1:0.39130434 2:0.2 3:0.11565421 4:0 5:1 6:1 #PDB 2BBA Res LYS13
-0.31559599291725110026263223517162 1:0.24637681 2:0.2 3:1 4:1 5:0 6:0 #PDB 1NVR Res GLY160
-0.31559599291725110026263223517162 1:0.39130434 2:0.2 3:0.24675325 4:0 5:1 6:1 #PDB 2JAM Res LYS209
-0.31559599291725110026263223517162 1:1 2:0 3:0.46976745 4:1 5:1 6:1 #PDB 1LVM Res LYS141
-0.31559599291725110026263223517162 1:0.043478262 2:0.40000001 3:0.86009175 4:0.5 5:0 6:0 #PDB 1DKX Res VAL6
3.7871519150070129811069818970282 1:1 2:0 3:0.11565421 4:0.33333334 5:1 6:1 #PDB 2BBA Res LYS138
-0.31559599291725110026263223517162 1:0.39130434 2:0.2 3:0.9395349 4:1 5:0 6:0 #PDB 1LVM Res VAL125
-0.31559599291725110026263223517162 1:0.13043478 2:0.2 3:0.22748092 4:0.16666667 5:1 6:1 #PDB 2P0W Res ARG27
-0.31559599291725110026263223517162 1:1 2:0 3:0.92059553 4:1 5:0 6:0 #PDB 2CCH Res PHE129
-0.31559599291725110026263223517162 1:0.17391305 2:0.2 3:0.34020618 4:0 5:1 6:1 #PDB 2QOS Res ARG40
-0.31559599291725110026263223517162 1:1 2:0 3:0.50541514 4:1 5:1 6:1 #PDB 1ER8 Res SER211
-0.31559599291725110026263223517162 1:1 2:0 3:0.3581315 4:1 5:1 6:1 #PDB 1GYB Res ASN93
-0.31559599291725110026263223517162 1:0.043478262 2:0.40000001 3:0.68512112 4:0.16666667 5:1 6:1 #PDB 1JWG Res ARG83
-0.31559599291725110026263223517162 1:1 2:0 3:0.91791046 4:1 5:0 6:0 #PDB 1QKZ Res GLY163
-0.31559599291725110026263223517162 1:0.17391305 2:0.2 3:0.34020618 4:0 5:1 6:1 #PDB 2QOS Res GLN86
3.7871519150070129811069818970282 1:0.043478262 2:0.40000001 3:0.0664794 4:0 5:1 6:1 #PDB 3BWA Res SER77
-0.31559599291725110026263223517162 1:1 2:0 3:1 4:1 5:0 6:1 #PDB 1ER8 Res PRO24
-0.31559599291725110026263223517162 1:0.17391305 2:0.2 3:0.3488372 4:0 5:1 6:1 #PDB 2O9V Res LYS64
-0.31559599291725110026263223517162 1:1 2:0 3:0.91791046 4:1 5:0 6:0 #PDB 1QKZ Res ALA207
-0.31559599291725110026263223517162 1:0 2:0.2 3:0.58951968 4:0 5:1 6:1 #PDB 1SE0 Res ARG74
-0.31559599291725110026263223517162 1:1 2:0 3:0.91394657 4:1 5:0 6:0 #PDB 1NTV Res GLY112
-0.31559599291725110026263223517162 1:0.086956523 2:0.2 3:0.47640449 4:0 5:1 6:1 #PDB 1T7R Res HIS46
-0.31559599291725110026263223517162 1:0.17391305 2:0.40000001 3:0.61194032 4:1 5:0 6:0 #PDB 1QKZ Res LEU45
-0.31559599291725110026263223517162 1:0.17391305 2:0.2 3:0.35875705 4:0 5:1 6:1 #PDB 2P54 Res ASN18
-0.31559599291725110026263223517162 1:1 2:0 3:0.91275167 4:1 5:0 6:0 #PDB 1UJ0 Res GLY24
3.7871519150070129811069818970282 1:0 2:0.40000001 3:0.10123967 4:0.33333334 5:1 6:1 #PDB 2P1K Res TYR63
-0.31559599291725110026263223517162 1:0.17391305 2:0.2 3:0.35875705 4:0 5:1 6:1 #PDB 2P54 Res GLU81
-0.31559599291725110026263223517162 1:1 2:0 3:0.91191709 4:1 5:0 6:0 #PDB 2AK5 Res GLY1
-0.31559599291725110026263223517162 1:0.17391305 2:0.40000001 3:0.22265625 4:0.33333334 5:1 6:1 #PDB 2HPL Res GLU71
-0.31559599291725110026263223517162 1:1 2:0 3:0.71393037 4:0.16666667 5:0 6:0 #PDB 1QKZ Res GLY139
-0.31559599291725110026263223517162 1:0 2:0.2 3:0.1222467 4:1 5:1 6:1 #PDB 1EG4 Res ARG147
-0.31559599291725110026263223517162 1:0.086956523 2:0.40000001 3:0.63428569 4:1 5:1 6:1 #PDB 2J6F Res GLU55
-0.31559599291725110026263223517162 1:1 2:0 3:0.35804021 4:1 5:1 6:1 #PDB 1NX1 Res ASP16
-0.31559599291725110026263223517162 1:0.17391305 2:0.2 3:0.722449 4:0 5:1 6:1 #PDB 2FVJ Res GLU53
-0.31559599291725110026263223517162 1:1 2:0 3:0.35804021 4:1 5:1 6:1 #PDB 1NX1 Res GLN85
-0.31559599291725110026263223517162 1:0.24637681 2:0.2 3:0.73630834 4:0 5:1 6:1 #PDB 3CVP Res HIS96
-0.31559599291725110026263223517162 1:1 2:0 3:0.90992367 4:1 5:0 6:0 #PDB 2P0W Res ILE312
-0.31559599291725110026263223517162 1:0.17391305 2:0.2 3:0.375 4:0 5:1 6:1 #PDB 1IHJ Res THR34
3.7871519150070129811069818970282 1:1 2:0 3:1 4:1 5:0 6:0 #PDB 2C3I Res ILE94
-0.31559599291725110026263223517162 1:1 2:0 3:0.90992367 4:1 5:0 6:0 #PDB 2P0W Res LEU316
-0.31559599291725110026263223517162 1:0.043478262 2:0.2 3:0.54615384 4:0 5:1 6:1 #PDB 2ZJD Res LYS41
-0.31559599291725110026263223517162 1:0.13043478 2:0.2 3:0.32499999 4:1 5:0 6:0 #PDB 2VJ0 Res GLY8
-0.31559599291725110026263223517162 1:1 2:0 3:0.35804021 4:1 5:1 6:1 #PDB 1NX1 Res THR156
-0.31559599291725110026263223517162 1:0.043478262 2:0.2 3:0.65193373 4:0 5:1 6:1 #PDB 2V3S Res ASP44
-0.31559599291725110026263223517162 1:1 2:0 3:0.90865386 4:1 5:0 6:0 #PDB 3BU3 Res GLY223
-0.31559599291725110026263223517162 1:0.17391305 2:0.40000001 3:0.24349158 4:0.33333334 5:1 6:1 #PDB 3D1E Res ARG56
-0.31559599291725110026263223517162 1:1 2:0 3:0.90721649 4:1 5:0 6:0 #PDB 2QOS Res ALA1
-0.31559599291725110026263223517162 1:0.043478262 2:0.40000001 3:0.55421686 4:0.16666667 5:1 6:1 #PDB 1W9E Res ARG44
-0.31559599291725110026263223517162 1:1 2:0 3:0.35804021 4:1 5:1 6:1 #PDB 1NX1 Res ASN162
-0.31559599291725110026263223517162 1:0.17391305 2:0.2 3:0.8713693 4:0.16666667 5:1 6:1 #PDB 1D4T Res SER36
-0.31559599291725110026263223517162 1:1 2:0 3:0.35409835 4:1 5:1 6:1 #PDB 2FOJ Res GLN44
-0.31559599291725110026263223517162 1:0.13043478 2:0.2 3:0.66666669 4:0 5:1 6:1 #PDB 1SSH Res SER11
3.7871519150070129811069818970282 1:1 2:0 3:0.1222467 4:1 5:0 6:0 #PDB 1EG4 Res GLY143
-0.31559599291725110026263223517162 1:0.17391305 2:0.40000001 3:0.890625 4:0.33333334 5:0 6:0 #PDB 2HPL Res LEU55
-0.31559599291725110026263223517162 1:1 2:0 3:0.11182795 4:0.16666667 5:1 6:1 #PDB 1RXZ Res LYS32
-0.31559599291725110026263223517162 1:0.086956523 2:0.40000001 3:0.67948717 4:0.33333334 5:1 6:1 #PDB 1T4F Res ARG83
-0.31559599291725110026263223517162 1:1 2:0 3:0.35371178 4:1 5:1 6:1 #PDB 1SE0 Res GLU55
-0.31559599291725110026263223517162 1:0.086956523 2:0.40000001 3:0.60743803 4:0.16666667 5:1 6:1 #PDB 2P1K Res GLU33
-0.31559599291725110026263223517162 1:1 2:0 3:0.90598291 4:1 5:0 6:0 #PDB 1T4F Res VAL19
-0.31559599291725110026263223517162 1:0.086956523 2:0.40000001 3:0.56870228 4:0.16666667 5:1 6:1 #PDB 2P0W Res GLN228
-0.31559599291725110026263223517162 1:1 2:0 3:0.90095848 4:1 5:0 6:0 #PDB 1SFI Res GLY3
-0.31559599291725110026263223517162 1:0.17391305 2:0.2 3:0.43333334 4:0 5:1 6:1 #PDB 2VJ0 Res HIS166
-0.31559599291725110026263223517162 1:1 2:0 3:0.90095848 4:1 5:0 6:0 #PDB 1SFI Res GLY21
-0.31559599291725110026263223517162 1:0.17391305 2:0.2 3:0.43333334 4:0 5:1 6:1 #PDB 2VJ0 Res GLU240
-0.31559599291725110026263223517162 1:1 2:0 3:0.35341364 4:1 5:1 6:1 #PDB 1U00 Res THR117
-0.31559599291725110026263223517162 1:0 2:0.2 3:0.89462364 4:0.33333334 5:1 6:1 #PDB 1RXZ Res LYS203
-0.31559599291725110026263223517162 1:1 2:0 3:0.87449396 4:0.5 5:0 6:0 #PDB 1DDV Res ILE1
-0.31559599291725110026263223517162 1:0 2:0.2 3:0.125 4:1 5:1 6:1 #PDB 1IHJ Res GLU25
-0.31559599291725110026263223517162 1:1 2:0 3:0.69392526 4:0.16666667 5:0 6:0 #PDB 2BBA Res LEU87
-0.31559599291725110026263223517162 1:0.043478262 2:0.40000001 3:0.43333334 4:1 5:1 6:1 #PDB 2VJ0 Res GLN150
-0.31559599291725110026263223517162 1:1 2:0 3:0.64903843 4:0.16666667 5:0 6:0 #PDB 3BU3 Res ALA94
-0.31559599291725110026263223517162 1:0.13043478 2:0.40000001 3:0.23580787 4:1 5:1 6:1 #PDB 1SE0 Res ARG89
-0.31559599291725110026263223517162 1:1 2:0 3:0.60872895 4:0.16666667 5:0 6:0 #PDB 3D1E Res GLY23
-0.31559599291725110026263223517162 1:0 2:0.2 3:0.1984127 4:1 5:1 6:1 #PDB 2HO2 Res ASP2
-0.31559599291725110026263223517162 1:1 2:0 3:0.59831458 4:0.16666667 5:0 6:0 #PDB 3BWA Res GLY237
-0.31559599291725110026263223517162 1:0 2:0.40000001 3:0.65193373 4:0.66666669 5:1 6:1 #PDB 2V3S Res ARG10
-0.31559599291725110026263223517162 1:1 2:0 3:0.35804021 4:0.16666667 5:0 6:0 #PDB 1NX1 Res MET117
-0.31559599291725110026263223517162 1:0.17391305 2:0.40000001 3:0.6300813 4:0.33333334 5:0 6:0 #PDB 2FMF Res LEU126
-0.31559599291725110026263223517162 1:1 2:0 3:0.55090654 4:1 5:1 6:1 #PDB 2R7G Res GLU244
-0.31559599291725110026263223517162 1:0 2:0.40000001 3:0.46511629 4:0.33333334 5:1 6:1 #PDB 2O9V Res ASP18
-0.31559599291725110026263223517162 1:1 2:0 3:0.35232559 4:1 5:1 6:1 #PDB 1LVM Res ASP136
-0.31559599291725110026263223517162 1:0.17391305 2:0.2 3:0.85000002 4:0.16666667 5:1 6:1 #PDB 1AWR Res LYS48
-0.31559599291725110026263223517162 1:1 2:0 3:0.35232559 4:1 5:1 6:1 #PDB 1LVM Res THR173
-0.31559599291725110026263223517162 1:0.13043478 2:0.2 3:0.78698224 4:0.16666667 5:1 6:1 #PDB 1CKA Res ASP9
-0.31559599291725110026263223517162 1:1 2:0 3:0.89565217 4:1 5:0 6:0 #PDB 1VZQ Res MET80
-0.31559599291725110026263223517162 1:0.17391305 2:0.2 3:0.43692309 4:0 5:1 6:1 #PDB 2ZJD Res HIS85
-0.31559599291725110026263223517162 1:1 2:0 3:0.34916866 4:1 5:1 6:1 #PDB 2P1T Res ASP1
-0.31559599291725110026263223517162 1:0 2:0.2 3:0.68414325 4:0.16666667 5:1 6:1 #PDB 2C3I Res ASP40
-0.31559599291725110026263223517162 1:1 2:0 3:0.79518074 4:0.33333334 5:0 6:0 #PDB 1U00 Res GLY15
-0.31559599291725110026263223517162 1:0.043478262 2:0.2 3:0.10571428 4:1 5:1 6:1 #PDB 2J6F Res ARG26
-0.31559599291725110026263223517162 1:1 2:0 3:0.77884614 4:0.33333334 5:0 6:0 #PDB 3BU3 Res VAL285
-0.31559599291725110026263223517162 1:0.086956523 2:0.40000001 3:0.11565421 4:0.66666669 5:1 6:1 #PDB 2BBA Res GLU15
-0.31559599291725110026263223517162 1:1 2:0 3:1 4:1 5:0 6:1 #PDB 1LVM Res PRO221
-0.31559599291725110026263223517162 1:0.17391305 2:0.60000002 3:0.44970414 4:0.16666667 5:0 6:1 #PDB 1CKA Res PRO19
-0.31559599291725110026263223517162 1:1 2:0 3:1 4:1 5:1 6:1 #PDB 2H9M Res THR52
-0.31559599291725110026263223517162 1:0 2:0.2 3:0.48163265 4:0 5:0 6:1 #PDB 2FVJ Res PRO21
-0.31559599291725110026263223517162 1:1 2:0 3:0.3882353 4:1 5:1 6:1 #PDB 1YMT Res LYS168
-0.31559599291725110026263223517162 1:0.13043478 2:0.40000001 3:0.72434783 4:0 5:0 6:1 #PDB 2B1Z Res PRO20
-0.31559599291725110026263223517162 1:1 2:0 3:1 4:1 5:1 6:1 #PDB 2H9M Res ASP152
-0.31559599291725110026263223517162 1:0 2:0.2 3:0.55706519 4:0 5:0 6:1 #PDB 2PUY Res PRO47
-0.31559599291725110026263223517162 1:1 2:0 3:0.3882353 4:1 5:1 6:1 #PDB 1YMT Res LYS173
-0.31559599291725110026263223517162 1:0.086956523 2:0.2 3:0.74509805 4:0 5:0 6:1 #PDB 2H9M Res PRO281
-0.31559599291725110026263223517162 1:1 2:0 3:1 4:1 5:1 6:1 #PDB 2H9M Res ASP205
-0.31559599291725110026263223517162 1:0.043478262 2:0.2 3:0.23580787 4:0.5 5:0 6:0 #PDB 1SE0 Res ILE82
-0.31559599291725110026263223517162 1:1 2:0 3:0.70742357 4:0 5:1 6:1 #PDB 1SE0 Res ASN68
3.7871519150070129811069818970282 1:0.17391305 2:0.2 3:0.24836601 4:1 5:0 6:0 #PDB 2H9M Res ALA35
-0.31559599291725110026263223517162 1:0.086956523 2:0.2 3:0.11132812 4:1 5:0 6:0 #PDB 2HPL Res ALA7
-0.31559599291725110026263223517162 1:0.17391305 2:0.40000001 3:0.47750866 4:1 5:0 6:0 #PDB 1GYB Res LEU79
-0.31559599291725110026263223517162 1:1 2:0 3:0.25882354 4:0 5:1 6:1 #PDB 1YMT Res HIS216
-0.31559599291725110026263223517162 1:0.13043478 2:0.2 3:1 4:0.66666669 5:0 6:0 #PDB 1NVR Res PHE84
-0.31559599291725110026263223517162 1:1 2:0 3:0.33253011 4:0 5:1 6:1 #PDB 1W9E Res ASP13
-0.31559599291725110026263223517162 1:0.17391305 2:0.2 3:0.95625001 4:1 5:0 6:0 #PDB 1AWR Res GLY44
-0.31559599291725110026263223517162 1:1 2:0 3:0.3612245 4:0 5:1 6:1 #PDB 2FVJ Res SER39
-0.31559599291725110026263223517162 1:0.086956523 2:0.2 3:0.86009175 4:1 5:0 6:0 #PDB 1DKX Res GLY80
-0.31559599291725110026263223517162 1:1 2:0 3:0.70742357 4:0 5:1 6:1 #PDB 1SE0 Res SER95
-0.31559599291725110026263223517162 1:0 2:0.2 3:0.32499999 4:1 5:0 6:0 #PDB 2VJ0 Res ILE178
-0.31559599291725110026263223517162 1:1 2:0 3:0.95668548 4:0.16666667 5:1 6:1 #PDB 2P54 Res ASP1
-0.31559599291725110026263223517162 1:0 2:0.2 3:0.33870968 4:1 5:0 6:0 #PDB 1YWO Res ILE24
-0.31559599291725110026263223517162 1:1 2:0 3:0.95625001 4:0.16666667 5:1 6:1 #PDB 1AWR Res THR40
-0.31559599291725110026263223517162 1:0.086956523 2:0.2 3:0.12448133 4:1 5:0 6:0 #PDB 1D4T Res ALA5
-0.31559599291725110026263223517162 1:1 2:0 3:0.9311164 4:0.16666667 5:1 6:1 #PDB 2P1T Res ASP132
-0.31559599291725110026263223517162 1:0.086956523 2:0.2 3:0.13513513 4:1 5:0 6:0 #PDB 3D9T Res ILE4
-0.31559599291725110026263223517162 1:1 2:0 3:0.70742357 4:0 5:1 6:1 #PDB 1SE0 Res ASP97
-0.31559599291725110026263223517162 1:0.17391305 2:0.2 3:0.94594592 4:1 5:0 6:0 #PDB 3D9T Res GLY42
-0.31559599291725110026263223517162 1:1 2:0 3:0.3612245 4:0 5:1 6:1 #PDB 2FVJ Res LYS135
-0.31559599291725110026263223517162 1:0.17391305 2:0.2 3:0.94323146 4:1 5:0 6:0 #PDB 1SE0 Res PHE43
-0.31559599291725110026263223517162 1:1 2:0 3:0.11374046 4:0.16666667 5:1 6:1 #PDB 2P0W Res THR136
-0.31559599291725110026263223517162 1:0.086956523 2:0.2 3:0.80991733 4:1 5:0 6:0 #PDB 2P1K Res ILE55
-0.31559599291725110026263223517162 1:1 2:0 3:0.36523736 4:0 5:1 6:1 #PDB 3D1E Res GLU316
-0.31559599291725110026263223517162 1:0.17391305 2:0.2 3:0.93023258 4:1 5:0 6:0 #PDB 2O9V Res GLY48
-0.31559599291725110026263223517162 1:1 2:0 3:0.11424332 4:0.16666667 5:1 6:1 #PDB 1NTV Res ARG19
-0.31559599291725110026263223517162 1:0.13043478 2:0.2 3:0.86009175 4:1 5:0 6:0 #PDB 1DKX Res GLY17
-0.31559599291725110026263223517162 1:0.24637681 2:0.40000001 3:0.59831458 4:0.16666667 5:1 6:1 #PDB 3BWA Res TYR27
-0.31559599291725110026263223517162 1:1 2:0 3:0.34916866 4:1 5:1 6:1 #PDB 2P1T Res ARG38
-0.31559599291725110026263223517162 1:0.17391305 2:0.2 3:0.79518074 4:0.16666667 5:1 6:1 #PDB 1U00 Res ARG65
-0.31559599291725110026263223517162 1:1 2:0 3:0.34916866 4:1 5:1 6:1 #PDB 2P1T Res ARG87
-0.31559599291725110026263223517162 1:0.17391305 2:0.2 3:0.78908187 4:0.16666667 5:1 6:1 #PDB 2CCH Res LYS242
-0.31559599291725110026263223517162 1:1 2:0 3:0.89462364 4:1 5:0 6:0 #PDB 1RXZ Res MET1
-0.31559599291725110026263223517162 1:0.17391305 2:0.2 3:0.45360824 4:0 5:1 6:1 #PDB 2QOS Res ARG88
-0.31559599291725110026263223517162 1:1 2:0 3:0.49350649 4:1 5:1 6:1 #PDB 2JAM Res ASP263
-0.31559599291725110026263223517162 1:1 2:0 3:0.34916866 4:1 5:1 6:1 #PDB 2P1T Res LYS160
-0.31559599291725110026263223517162 1:0.086956523 2:0.2 3:0.55421686 4:0 5:1 6:1 #PDB 1W9E Res LYS70
-0.31559599291725110026263223517162 1:1 2:0 3:0.89462364 4:1 5:0 6:0 #PDB 1RXZ Res GLY167
-0.31559599291725110026263223517162 1:0.17391305 2:0.2 3:0.4655582 4:0 5:1 6:1 #PDB 2P1T Res GLU15
-0.31559599291725110026263223517162 1:1 2:0 3:0.8888889 4:1 5:0 6:0 #PDB 1SSH Res LEU9
-0.31559599291725110026263223517162 1:1 2:0 3:0.43692309 4:1 5:1 6:1 #PDB 2ZJD Res GLU104
-0.31559599291725110026263223517162 1:0.13043478 2:0.2 3:0.51739132 4:0 5:1 6:1 #PDB 2B1Z Res HIS52
-0.31559599291725110026263223517162 1:1 2:0 3:0.8888889 4:1 5:0 6:0 #PDB 1SSH Res GLY25
-0.31559599291725110026263223517162 1:0.17391305 2:0.2 3:0.46976745 4:0 5:1 6:1 #PDB 1LVM Res SER31
-0.31559599291725110026263223517162 1:0.086956523 2:0.40000001 3:0.55090654 4:0.5 5:0 6:0 #PDB 2R7G Res LEU211
-0.31559599291725110026263223517162 1:1 2:0 3:1 4:1 5:1 6:1 #PDB 2H9M Res ASP250
-0.31559599291725110026263223517162 1:0.17391305 2:0.2 3:0.33253011 4:0.33333334 5:0 6:0 #PDB 1W9E Res ALA163
-0.31559599291725110026263223517162 1:1 2:0 3:1 4:0.33333334 5:1 6:1 #PDB 1NVR Res LYS45
-0.31559599291725110026263223517162 1:1 2:0 3:0.25 4:1 5:0 6:0 #PDB 1N7F Res ILE48
-0.31559599291725110026263223517162 1:0.13043478 2:0.2 3:0.11324786 4:1 5:0 6:0 #PDB 1T4F Res VAL87
-0.31559599291725110026263223517162 1:1 2:0 3:1 4:0.33333334 5:1 6:1 #PDB 1NX1 Res ARG121
-0.31559599291725110026263223517162 1:0.17391305 2:0.2 3:0.10931174 4:1 5:0 6:0 #PDB 1DDV Res LEU45
-0.31559599291725110026263223517162 1:1 2:0 3:0.68545991 4:0 5:1 6:1 #PDB 1NTV Res GLN2
-0.31559599291725110026263223517162 1:0 2:0.2 3:0.68393785 4:1 5:0 6:0 #PDB 2AK5 Res VAL36
-0.31559599291725110026263223517162 1:1 2:0 3:0.36523736 4:0 5:1 6:1 #PDB 3D1E Res SER343
-0.31559599291725110026263223517162 1:0.24637681 2:0.2 3:0.95849055 4:1 5:0 6:0 #PDB 1NVR Res LEU162
-0.31559599291725110026263223517162 1:1 2:0 3:0.11790393 4:0.16666667 5:1 6:1 #PDB 1SE0 Res GLN54
-0.31559599291725110026263223517162 1:0.17391305 2:0.2 3:0.886747 4:1 5:0 6:0 #PDB 1W9E Res GLY42
-0.31559599291725110026263223517162 1:1 2:0 3:0.36674008 4:0 5:1 6:1 #PDB 1EG4 Res GLN94
-0.31559599291725110026263223517162 1:0.39130434 2:0.2 3:0.68512112 4:0 5:1 6:1 #PDB 1JWG Res GLU54
3.7871519150070129811069818970282 1:1 2:0 3:0.24896266 4:1 5:0 6:0 #PDB 1D4T Res LEU21
-0.31559599291725110026263223517162 1:1 2:0 3:0.34696263 4:1 5:1 6:1 #PDB 2BBA Res HIS3
-0.31559599291725110026263223517162 1:0.17391305 2:0.2 3:0.9739663 4:0.5 5:1 6:1 #PDB 3D1E Res ASP243
-0.31559599291725110026263223517162 1:1 2:0 3:0.3488372 4:1 5:1 6:1 #PDB 2O9V Res SER50
-0.31559599291725110026263223517162 1:0.086956523 2:0.2 3:0.73630834 4:0.16666667 5:1 6:1 #PDB 3CVP Res THR244
-0.31559599291725110026263223517162 1:1 2:0 3:0.886747 4:1 5:0 6:0 #PDB 1W9E Res GLY54
3.7871519150070129811069818970282 1:1 2:0 3:1 4:1 5:0 6:0 #PDB 2C3I Res GLY164
-0.31559599291725110026263223517162 1:0.13043478 2:0.2 3:0.51764709 4:0 5:1 6:1 #PDB 1YMT Res GLN116
-0.31559599291725110026263223517162 1:1 2:0 3:0.88447654 4:1 5:0 6:0 #PDB 1ER8 Res GLY239
-0.31559599291725110026263223517162 1:0.043478262 2:0.40000001 3:0.4433735 4:0.33333334 5:1 6:1 #PDB 1W9E Res GLN30
-0.31559599291725110026263223517162 1:1 2:0 3:0.875 4:1 5:0 6:0 #PDB 1IHJ Res ILE4
-0.31559599291725110026263223517162 1:0.17391305 2:0.2 3:0.48584905 4:0 5:1 6:1 #PDB 2O4J Res ASP22
-0.31559599291725110026263223517162 1:1 2:0 3:0.875 4:1 5:0 6:0 #PDB 1N7F Res ALA1
-0.31559599291725110026263223517162 1:0.17391305 2:0.2 3:0.53012049 4:0 5:1 6:1 #PDB 1U00 Res TYR114
-0.31559599291725110026263223517162 1:1 2:0 3:0.875 4:1 5:0 6:0 #PDB 1N7F Res GLY44
-0.31559599291725110026263223517162 1:0 2:0.2 3:0.41048592 4:0.16666667 5:1 6:1 #PDB 2C3I Res GLU34
-0.31559599291725110026263223517162 1:1 2:0 3:0.83709979 4:0.5 5:0 6:0 #PDB 2P54 Res GLY30
-0.31559599291725110026263223517162 1:0.043478262 2:0.2 3:0.11409396 4:1 5:1 6:1 #PDB 1UJ0 Res ASP16
-0.31559599291725110026263223517162 1:1 2:0 3:0.57121664 4:0.16666667 5:0 6:0 #PDB 1NTV Res GLY15
-0.31559599291725110026263223517162 1:0.17391305 2:0.2 3:1 4:0.33333334 5:0 6:0 #PDB 1NVR Res GLY141
-0.31559599291725110026263223517162 1:1 2:0 3:0.38566554 4:1 5:1 6:1 #PDB 2O02 Res LYS3
-0.31559599291725110026263223517162 1:0.086956523 2:0.2 3:0.716263 4:0.16666667 5:0 6:0 #PDB 1GYB Res LEU6
-0.31559599291725110026263223517162 1:1 2:0 3:0.37906137 4:1 5:1 6:1 #PDB 1ER8 Res SER69
-0.31559599291725110026263223517162 1:0.17391305 2:0.2 3:1 4:0.33333334 5:0 6:0 #PDB 1VZQ Res GLY10
-0.31559599291725110026263223517162 1:1 2:0 3:0.27688172 4:1 5:1 6:1 #PDB 1X2R Res ASP34
-0.31559599291725110026263223517162 1:1 2:0 3:0.45697328 4:1 5:1 6:1 #PDB 1NTV Res LYS45
-0.31559599291725110026263223517162 1:0.086956523 2:0.2 3:0.79365081 4:1 5:0 6:0 #PDB 2HO2 Res GLY15
-0.31559599291725110026263223517162 1:1 2:0 3:0.68545991 4:0 5:1 6:1 #PDB 1NTV Res ARG4
-0.31559599291725110026263223517162 1:0 2:0.2 3:0.67741936 4:1 5:0 6:0 #PDB 1YWO Res GLY42
-0.31559599291725110026263223517162 1:0.086956523 2:0.40000001 3:0.42500001 4:1 5:1 6:1 #PDB 1AWR Res THR92
-0.31559599291725110026263223517162 1:1 2:0 3:0.56701028 4:0.16666667 5:0 6:0 #PDB 2QOS Res LEU126
3.7871519150070129811069818970282 1:0.17391305 2:0.2 3:0.10613208 4:1 5:1 6:1 #PDB 1HC9 Res GLN71
-0.31559599291725110026263223517162 1:0 2:0.2 3:0.2039801 4:1 5:1 6:1 #PDB 1QKZ Res GLN43
-0.31559599291725110026263223517162 1:1 2:0 3:0.74637681 4:0.33333334 5:0 6:0 #PDB 1VZQ Res ILE75
-0.31559599291725110026263223517162 1:0 2:0.2 3:0.21142857 4:1 5:1 6:1 #PDB 2J6F Res ARG44
-0.31559599291725110026263223517162 1:1 2:0 3:0.5662393 4:0.16666667 5:0 6:0 #PDB 1T4F Res ILE52
-0.31559599291725110026263223517162 1:0.086956523 2:0.40000001 3:0.625 4:1 5:1 6:1 #PDB 1IHJ Res CYS51
