SVM-light Version V6.02
0 # kernel type
3 # kernel parameter -d 
1 # kernel parameter -g 
1 # kernel parameter -s 
1 # kernel parameter -r 
empty# kernel parameter -u 
4 # highest feature index 
5561 # number of training documents 
4706 # number of support vectors plus 1 
0.51279889 # threshold b, each following line is a SV (starting with alpha*y)
-0.95883288427099278017351480229991 3:0.32666665 4:1 #PDB 1OAI Res GLY30
-0.95883288427099278017351480229991 3:0.47113165 4:1 #PDB 1CZY Res SER318
-0.95883288427099278017351480229991 3:1 4:0 #PDB 1LVM Res PRO221
11.505994611251914250260597327724 3:0.08421053 4:1 #PDB 2DS8 Res HIS22
-0.95883288427099278017351480229991 3:0.58962262 4:1 #PDB 2J6F Res GLU48
-0.95883288427099278017351480229991 3:0.49097472 4:1 #PDB 1GYB Res LEU81
-0.95883288427099278017351480229991 3:1 4:0 #PDB 1NVR Res GLY15
-0.95883288427099278017351480229991 3:0.55081969 4:1 #PDB 1QKZ Res THR68
-0.95883288427099278017351480229991 3:1 4:0 #PDB 1NVR Res GLY78
-0.95883288427099278017351480229991 3:0.59108526 4:1 #PDB 2FVJ Res ASP164
-0.95883288427099278017351480229991 3:1 4:0 #PDB 1NVR Res GLU79
-0.95883288427099278017351480229991 3:0.46250001 4:1 #PDB 2O4J Res ASN122
-0.95883288427099278017351480229991 3:1 4:0 #PDB 1NVR Res GLU122
-0.95883288427099278017351480229991 3:0.46250001 4:1 #PDB 2O4J Res ASP189
-0.95883288427099278017351480229991 3:1 4:0 #PDB 1NVR Res ASP136
-0.95883288427099278017351480229991 3:0.46250001 4:1 #PDB 2O4J Res PRO240
-0.95883288427099278017351480229991 3:1 4:0 #PDB 1NX1 Res ARG214
11.505994611251914250260597327724 3:0.60301507 4:0.16666667 #PDB 1DKX Res ASP406
-0.95883288427099278017351480229991 3:1 4:0 #PDB 1RXZ Res GLU24
-0.95883288427099278017351480229991 3:0.45859873 4:1 #PDB 1SSH Res SER1
-0.95883288427099278017351480229991 3:1 4:0 #PDB 1SFI Res CYS109
-0.95883288427099278017351480229991 3:0.45810056 4:1 #PDB 2O9V Res ARG852
-0.95883288427099278017351480229991 3:1 4:0 #PDB 1SFI Res THR157
-0.95883288427099278017351480229991 3:0.45810056 4:1 #PDB 2O9V Res ILE827
-0.95883288427099278017351480229991 3:1 4:0 #PDB 1T4F Res LYS51
-0.95883288427099278017351480229991 3:0.45508981 4:1 #PDB 1YWO Res ASP825
-0.95883288427099278017351480229991 3:1 4:0 #PDB 1T7R Res PRO682
-0.95883288427099278017351480229991 3:0.45052633 4:1 #PDB 1RXZ Res GLU64
-0.95883288427099278017351480229991 3:1 4:0 #PDB 2A3I Res PRO21
11.505994611251914250260597327724 3:0.08421053 4:1 #PDB 2DS8 Res ARG25
-0.95883288427099278017351480229991 3:0.45052633 4:1 #PDB 1RXZ Res SER82
-0.95883288427099278017351480229991 3:1 4:0 #PDB 2AK5 Res GLY30
-0.95883288427099278017351480229991 3:0.45052633 4:1 #PDB 1RXZ Res GLY102
-0.95883288427099278017351480229991 3:1 4:1 #PDB 1AWR Res GLY45
-0.95883288427099278017351480229991 3:0.091803275 4:0.33333334 #PDB 1QKZ Res ASP167
-0.95883288427099278017351480229991 3:1 4:1 #PDB 1AWR Res THR73
-0.95883288427099278017351480229991 3:0.091803275 4:0.33333334 #PDB 1QKZ Res SER84
-0.95883288427099278017351480229991 3:1 4:0 #PDB 2B9H Res GLY20
-0.95883288427099278017351480229991 3:0.45052633 4:1 #PDB 1RXZ Res ILE122
-0.95883288427099278017351480229991 3:1 4:1 #PDB 1AWR Res TYR79
-0.95883288427099278017351480229991 3:0.45052633 4:1 #PDB 1RXZ Res GLU124
-0.95883288427099278017351480229991 3:1 4:0 #PDB 2B9H Res SER141
-0.95883288427099278017351480229991 3:0.45052633 4:1 #PDB 1RXZ Res GLU137
-0.95883288427099278017351480229991 3:1 4:0 #PDB 2B9H Res TYR166
-0.95883288427099278017351480229991 3:0.45052633 4:1 #PDB 1RXZ Res ALA143
-0.95883288427099278017351480229991 3:1 4:1 #PDB 1AWR Res GLY80
-0.95883288427099278017351480229991 3:0.45052633 4:1 #PDB 1RXZ Res VAL169
-0.95883288427099278017351480229991 3:1 4:0 #PDB 2B9H Res THR169
-0.95883288427099278017351480229991 3:0.46250001 4:1 #PDB 2O4J Res LYS24
-0.95883288427099278017351480229991 3:1 4:0 #PDB 2C3I Res GLY45
-0.95883288427099278017351480229991 3:0.45052633 4:1 #PDB 1RXZ Res GLU183
-0.95883288427099278017351480229991 3:1 4:1 #PDB 1AWR Res GLY104
-0.95883288427099278017351480229991 3:0.11787073 4:0.66666669 #PDB 1JD5 Res ASN301
11.505994611251914250260597327724 3:0.57324839 4:1 #PDB 1SSH Res GLU14
-0.95883288427099278017351480229991 3:1 4:1 #PDB 1CZY Res PRO425
11.505994611251914250260597327724 3:0.08421053 4:1 #PDB 2DS8 Res TYR34
-0.95883288427099278017351480229991 3:0.45052633 4:1 #PDB 1RXZ Res SER207
-0.95883288427099278017351480229991 3:0.45029241 4:1 #PDB 1T4F Res SER119
-0.95883288427099278017351480229991 3:1 4:1 #PDB 1CZY Res ASP487
-0.95883288427099278017351480229991 3:0.44808742 4:1 #PDB 2PUY Res THR26
-0.95883288427099278017351480229991 3:0.44808742 4:1 #PDB 2PUY Res SER13
-0.95883288427099278017351480229991 3:1 4:1 #PDB 1CZY Res ASP488
-0.95883288427099278017351480229991 3:0.44808742 4:1 #PDB 2PUY Res GLN56
-0.95883288427099278017351480229991 3:0.44578314 4:1 #PDB 2AK5 Res THR47
-0.95883288427099278017351480229991 3:1 4:1 #PDB 1D4T Res PRO107
-0.95883288427099278017351480229991 3:0.44444445 4:1 #PDB 1AWR Res LYS76
-0.95883288427099278017351480229991 3:0.44444445 4:1 #PDB 2ZJD Res PHE13
-0.95883288427099278017351480229991 3:1 4:1 #PDB 1EG4 Res ASN99
-0.95883288427099278017351480229991 3:0.44444445 4:1 #PDB 2ZJD Res GLU105
-0.95883288427099278017351480229991 3:1 4:1 #PDB 1EG4 Res TYR106
-0.95883288427099278017351480229991 3:0.43720931 4:1 #PDB 1CKA Res VAL225
-0.95883288427099278017351480229991 3:0.43617022 4:1 #PDB 1HC9 Res ASN19
-0.95883288427099278017351480229991 3:1 4:1 #PDB 1EG4 Res ARG216
11.505994611251914250260597327724 3:0.56686044 4:1 #PDB 2FOJ Res PHE167
-0.95883288427099278017351480229991 3:0.43594646 4:1 #PDB 2VJ0 Res GLU797
-0.95883288427099278017351480229991 3:0.43594646 4:1 #PDB 2VJ0 Res GLN804
-0.95883288427099278017351480229991 3:1 4:1 #PDB 1EG4 Res GLU260
-0.95883288427099278017351480229991 3:0.43594646 4:1 #PDB 2VJ0 Res GLU863
-0.95883288427099278017351480229991 3:0.43594646 4:1 #PDB 2VJ0 Res THR925
-0.95883288427099278017351480229991 3:1 4:1 #PDB 1EG4 Res ARG300
-0.95883288427099278017351480229991 3:0.42857143 4:1 #PDB 1SFI Res VAL72
-0.95883288427099278017351480229991 3:0.42857143 4:1 #PDB 1SFI Res ASN211
-0.95883288427099278017351480229991 3:1 4:1 #PDB 1EG4 Res GLU305
-0.95883288427099278017351480229991 3:0.42105263 4:1 #PDB 2DS8 Res ASP37
11.505994611251914250260597327724 3:0.75789475 4:1 #PDB 2DS8 Res ALA29
-0.95883288427099278017351480229991 3:1 4:1 #PDB 1ER8 Res THR25
-0.95883288427099278017351480229991 3:0.42105263 4:1 #PDB 2DS8 Res GLY18
-0.95883288427099278017351480229991 3:0.41330168 4:1 #PDB 2JAM Res ASP58
-0.95883288427099278017351480229991 3:1 4:1 #PDB 1ER8 Res PRO26
-0.95883288427099278017351480229991 3:0.41330168 4:1 #PDB 2JAM Res LYS96
-0.95883288427099278017351480229991 3:0.41330168 4:1 #PDB 2JAM Res GLN219
-0.95883288427099278017351480229991 3:1 4:1 #PDB 1ER8 Res THR64
11.505994611251914250260597327724 3:0.091803275 4:1 #PDB 1QKZ Res THR50
11.505994611251914250260597327724 3:0.56315792 4:1 #PDB 1RXZ Res MET192
-0.95883288427099278017351480229991 3:0.40617576 4:1 #PDB 2C3I Res ARG156
-0.95883288427099278017351480229991 3:0.40617576 4:1 #PDB 2C3I Res LYS194
-0.95883288427099278017351480229991 3:1 4:1 #PDB 1ER8 Res SER82
-0.95883288427099278017351480229991 3:0.40617576 4:1 #PDB 2C3I Res PRO288
-0.95883288427099278017351480229991 3:0.405 4:1 #PDB 1X2R Res PRO502
-0.95883288427099278017351480229991 3:1 4:1 #PDB 1ER8 Res ASP173
-0.95883288427099278017351480229991 3:0.405 4:1 #PDB 1X2R Res ARG536
-0.95883288427099278017351480229991 3:0.40428212 4:1 #PDB 2CCH Res PRO204
-0.95883288427099278017351480229991 3:1 4:1 #PDB 1ER8 Res GLY179
-0.95883288427099278017351480229991 3:0.40428212 4:1 #PDB 2CCH Res LEU249
-0.95883288427099278017351480229991 3:0.40428212 4:1 #PDB 2CCH Res ALA325
-0.95883288427099278017351480229991 3:1 4:1 #PDB 1ER8 Res CYS253
-0.95883288427099278017351480229991 3:0.36238533 4:1 #PDB 3D1E Res GLU301
11.505994611251914250260597327724 3:0.55555558 4:1 #PDB 2ZJD Res ARG69
-0.95883288427099278017351480229991 3:0.40428212 4:1 #PDB 2CCH Res HIS419
-0.95883288427099278017351480229991 3:1 4:1 #PDB 1ER8 Res GLY284
-0.95883288427099278017351480229991 3:0.45052633 4:1 #PDB 1RXZ Res ILE182
-0.95883288427099278017351480229991 3:0.4031955 4:1 #PDB 2B9H Res SER228
-0.95883288427099278017351480229991 3:1 4:1 #PDB 1GYB Res ASP4
-0.95883288427099278017351480229991 3:0.4031955 4:1 #PDB 2B9H Res ARG272
11.505994611251914250260597327724 3:0.56315792 4:1 #PDB 1RXZ Res TYR219
-0.95883288427099278017351480229991 3:0.4031955 4:1 #PDB 2B9H Res PRO309
-0.95883288427099278017351480229991 3:1 4:1 #PDB 1GYB Res ASP70
-0.95883288427099278017351480229991 3:0.4031955 4:1 #PDB 2B9H Res LYS183
-0.95883288427099278017351480229991 3:0.4031955 4:1 #PDB 2B9H Res PHE336
-0.95883288427099278017351480229991 3:1 4:1 #PDB 1GYB Res GLN72
11.505994611251914250260597327724 3:0.7679466 4:1 #PDB 2O02 Res LYS214
-0.95883288427099278017351480229991 3:0.4031955 4:1 #PDB 2B9H Res PRO310
-0.95883288427099278017351480229991 3:1 4:1 #PDB 1GYB Res ARG120
-0.95883288427099278017351480229991 3:0.37704918 4:1 #PDB 1ER8 Res SER231
-0.95883288427099278017351480229991 3:0.36270493 4:1 #PDB 2P54 Res SER243
-0.95883288427099278017351480229991 3:1 4:1 #PDB 1IHJ Res GLY1764
-0.95883288427099278017351480229991 3:0.36241612 4:1 #PDB 1T7R Res CYS844
-0.95883288427099278017351480229991 3:0.36241612 4:1 #PDB 1T7R Res TYR857
-0.95883288427099278017351480229991 3:1 4:1 #PDB 1IHJ Res ASN1776
-0.95883288427099278017351480229991 3:0.36241612 4:1 #PDB 1T7R Res THR918
-0.95883288427099278017351480229991 3:0.36241612 4:1 #PDB 1T7R Res CYS686
-0.95883288427099278017351480229991 3:1 4:1 #PDB 1JD5 Res ARG272
11.505994611251914250260597327724 3:0.1 4:1 #PDB 1W9E Res ILE212
-0.95883288427099278017351480229991 3:0.36238533 4:1 #PDB 3D1E Res ASN118
11.505994611251914250260597327724 3:0.5628655 4:1 #PDB 1T4F Res LEU57
-0.95883288427099278017351480229991 3:0.36238533 4:1 #PDB 3D1E Res ARG245
-0.95883288427099278017351480229991 3:1 4:1 #PDB 1JD5 Res ASP302
-0.95883288427099278017351480229991 3:0.36238533 4:1 #PDB 3D1E Res GLU316
-0.95883288427099278017351480229991 3:0.36238533 4:1 #PDB 3D1E Res SER343
-0.95883288427099278017351480229991 3:1 4:1 #PDB 1LVM Res ARG9
-0.95883288427099278017351480229991 3:0.3618677 4:1 #PDB 1N7F Res TYR671
-0.95883288427099278017351480229991 3:0.3618677 4:1 #PDB 1N7F Res LYS676
-0.95883288427099278017351480229991 3:1 4:1 #PDB 1LVM Res ASN12
-0.95883288427099278017351480229991 3:0.3618677 4:1 #PDB 1N7F Res LYS703
-0.95883288427099278017351480229991 3:0.34894261 4:1 #PDB 1D4T Res ASN65
-0.95883288427099278017351480229991 3:1 4:1 #PDB 1MFG Res ASN1379
-0.95883288427099278017351480229991 3:0.3618677 4:1 #PDB 1N7F Res ILE669
-0.95883288427099278017351480229991 3:0.36093751 4:1 #PDB 1SE0 Res ALA36
-0.95883288427099278017351480229991 3:1 4:1 #PDB 1MFG Res VAL1392
-0.95883288427099278017351480229991 3:0.36093751 4:1 #PDB 1SE0 Res SER39
-0.95883288427099278017351480229991 3:0.36093751 4:1 #PDB 1SE0 Res PRO89
-0.95883288427099278017351480229991 3:1 4:1 #PDB 1NVR Res GLY77
11.505994611251914250260597327724 3:0.82448035 4:1 #PDB 1CZY Res ARG393
11.505994611251914250260597327724 3:0.5628655 4:1 #PDB 1T4F Res ILE99
-0.95883288427099278017351480229991 3:0.36093751 4:1 #PDB 1SE0 Res ILE114
-0.95883288427099278017351480229991 3:1 4:1 #PDB 1NVR Res GLY157
-0.95883288427099278017351480229991 3:0.36093751 4:1 #PDB 1SE0 Res THR20
-0.95883288427099278017351480229991 3:0.36063829 4:1 #PDB 2H9M Res GLN204
-0.95883288427099278017351480229991 3:1 4:1 #PDB 1NX1 Res GLY200
-0.95883288427099278017351480229991 3:0.36063829 4:1 #PDB 2H9M Res ASN214
-0.95883288427099278017351480229991 3:0.36063829 4:1 #PDB 2H9M Res LYS227
-0.95883288427099278017351480229991 3:1 4:1 #PDB 1RXZ Res ALA42
-0.95883288427099278017351480229991 3:0.36063829 4:1 #PDB 2H9M Res LYS247
-0.95883288427099278017351480229991 3:0.36063829 4:1 #PDB 2H9M Res LYS256
-0.95883288427099278017351480229991 3:1 4:1 #PDB 1RXZ Res ASP150
-0.95883288427099278017351480229991 3:0.36063829 4:1 #PDB 2H9M Res THR312
-0.95883288427099278017351480229991 3:0.36063829 4:1 #PDB 2H9M Res LEU37
-0.95883288427099278017351480229991 3:1 4:1 #PDB 1RXZ Res SER244
11.505994611251914250260597327724 3:0.82448035 4:1 #PDB 1CZY Res ALA466
-0.95883288427099278017351480229991 3:1 4:1 #PDB 1SFI Res GLY4
11.505994611251914250260597327724 3:0.1 4:1 #PDB 1W9E Res ALA255
-0.95883288427099278017351480229991 3:0.359375 4:1 #PDB 3CVP Res ARG204
-0.95883288427099278017351480229991 3:0.359375 4:1 #PDB 3CVP Res SER275
-0.95883288427099278017351480229991 3:1 4:1 #PDB 1SFI Res THR11
11.505994611251914250260597327724 3:0.56010932 4:1 #PDB 2PUY Res GLU9
-0.95883288427099278017351480229991 3:0.359375 4:1 #PDB 3CVP Res MET292
-0.95883288427099278017351480229991 3:0.35465115 4:1 #PDB 2FVJ Res ASP14
-0.95883288427099278017351480229991 3:1 4:1 #PDB 1SFI Res ILE71
-0.95883288427099278017351480229991 3:0.35465115 4:1 #PDB 2FVJ Res THR32
-0.95883288427099278017351480229991 3:0.35465115 4:1 #PDB 2FVJ Res LYS138
-0.95883288427099278017351480229991 3:1 4:1 #PDB 1SFI Res PRO74
-0.95883288427099278017351480229991 3:0.35465115 4:1 #PDB 2FVJ Res ARG141
-0.95883288427099278017351480229991 3:0.35465115 4:1 #PDB 2FVJ Res GLN221
-0.95883288427099278017351480229991 3:1 4:1 #PDB 1SFI Res GLY113
-0.95883288427099278017351480229991 3:0.34894261 4:1 #PDB 1D4T Res THR29
-0.95883288427099278017351480229991 3:0.34894261 4:1 #PDB 1D4T Res TYR106
-0.95883288427099278017351480229991 3:1 4:1 #PDB 1SFI Res THR114
-0.95883288427099278017351480229991 3:0.34894261 4:1 #PDB 1D4T Res GLY7
-0.95883288427099278017351480229991 3:0.3488372 4:1 #PDB 1NTV Res ILE57
-0.95883288427099278017351480229991 3:1 4:1 #PDB 1SFI Res THR124
-0.95883288427099278017351480229991 3:0.3488372 4:1 #PDB 1NTV Res PRO117
-0.95883288427099278017351480229991 3:0.3488372 4:1 #PDB 1NTV Res GLY142
-0.95883288427099278017351480229991 3:1 4:1 #PDB 1SFI Res SER126
11.505994611251914250260597327724 3:0.56010932 4:1 #PDB 2PUY Res GLY19
-0.95883288427099278017351480229991 3:0.3488372 4:1 #PDB 1NTV Res ALA41
-0.95883288427099278017351480229991 3:0.34687501 4:1 #PDB 2O4J Res ASP85
-0.95883288427099278017351480229991 3:1 4:1 #PDB 1SFI Res GLY169
-0.95883288427099278017351480229991 3:0.37704918 4:1 #PDB 1ER8 Res SER69
-0.95883288427099278017351480229991 3:0.34687501 4:1 #PDB 2O4J Res MET116
-0.95883288427099278017351480229991 3:1 4:1 #PDB 1SFI Res LYS170
-0.95883288427099278017351480229991 3:0.34687501 4:1 #PDB 2O4J Res LEU251
-0.95883288427099278017351480229991 3:0.34532374 4:1 #PDB 3D9T Res TYR278
-0.95883288427099278017351480229991 3:1 4:1 #PDB 1SFI Res GLY185
-0.95883288427099278017351480229991 3:0.34532374 4:1 #PDB 3D9T Res GLU334
-0.95883288427099278017351480229991 3:0.34532374 4:1 #PDB 3D9T Res ARG338
-0.95883288427099278017351480229991 3:1 4:1 #PDB 1SFI Res ASN223
-0.95883288427099278017351480229991 3:0.34687501 4:1 #PDB 2O4J Res SER130
-0.95883288427099278017351480229991 3:0.34532374 4:1 #PDB 3D9T Res GLN358
-0.95883288427099278017351480229991 3:0.72477067 4:1 #PDB 3D1E Res PRO83
-0.95883288427099278017351480229991 3:1 4:1 #PDB 1SSH Res GLY23
11.505994611251914250260597327724 3:0.10050251 4:1 #PDB 1U00 Res VAL394
-0.95883288427099278017351480229991 3:0.34532374 4:1 #PDB 3D9T Res THR268
-0.95883288427099278017351480229991 3:0.34394905 4:1 #PDB 1SSH Res SER34
-0.95883288427099278017351480229991 3:1 4:1 #PDB 1T4F Res GLY42
11.505994611251914250260597327724 3:0.56010932 4:1 #PDB 2PUY Res VAL30
-0.95883288427099278017351480229991 3:0.34394905 4:1 #PDB 1SSH Res ASN44
-0.95883288427099278017351480229991 3:0.34394905 4:1 #PDB 1SSH Res LEU29
-0.95883288427099278017351480229991 3:1 4:1 #PDB 1T4F Res LYS64
-0.95883288427099278017351480229991 3:0.34357542 4:1 #PDB 2O9V Res SER867
-0.95883288427099278017351480229991 3:0.34131736 4:1 #PDB 1YWO Res GLN805
-0.95883288427099278017351480229991 3:1 4:1 #PDB 1T7R Res PRO694
11.505994611251914250260597327724 3:0.84631145 4:1 #PDB 2P54 Res LEU93
-0.95883288427099278017351480229991 3:0.33789474 4:1 #PDB 1RXZ Res LYS139
-0.95883288427099278017351480229991 3:1 4:1 #PDB 1T7R Res GLY724
-0.95883288427099278017351480229991 3:0.33789474 4:1 #PDB 1RXZ Res LYS147
-0.95883288427099278017351480229991 3:0.34532374 4:1 #PDB 3D9T Res MET339
-0.95883288427099278017351480229991 3:1 4:1 #PDB 1TP5 Res ASN516
-0.95883288427099278017351480229991 3:0.33789474 4:1 #PDB 1RXZ Res LYS166
-0.95883288427099278017351480229991 3:0.33789474 4:1 #PDB 1RXZ Res SER171
-0.95883288427099278017351480229991 3:1 4:1 #PDB 1TW6 Res PRO325
-0.95883288427099278017351480229991 3:0.33789474 4:1 #PDB 1RXZ Res GLY229
-0.95883288427099278017351480229991 3:0.33789474 4:1 #PDB 1RXZ Res ASN60
-0.95883288427099278017351480229991 3:1 4:1 #PDB 1X2R Res HIS432
11.505994611251914250260597327724 3:0.55555558 4:1 #PDB 2ZJD Res HIS27
-0.95883288427099278017351480229991 3:0.33771929 4:1 #PDB 1T4F Res LYS98
-0.95883288427099278017351480229991 3:0.33771929 4:1 #PDB 1T4F Res ASN111
-0.95883288427099278017351480229991 3:1 4:1 #PDB 1X2R Res GLY433
-0.95883288427099278017351480229991 3:0.33620688 4:1 #PDB 2D0N Res SER189
-0.95883288427099278017351480229991 3:0.33433735 4:1 #PDB 2AK5 Res LEU7
-0.95883288427099278017351480229991 3:1 4:1 #PDB 1X2R Res ASP479
-0.95883288427099278017351480229991 3:0.33789474 4:1 #PDB 1RXZ Res GLU159
-0.95883288427099278017351480229991 3:0.33433735 4:1 #PDB 2AK5 Res VAL32
-0.95883288427099278017351480229991 3:1 4:1 #PDB 1X2R Res GLY480
-0.95883288427099278017351480229991 3:0.33333334 4:1 #PDB 1AWR Res THR93
-0.95883288427099278017351480229991 3:0.33333334 4:1 #PDB 1AWR Res LYS118
-0.95883288427099278017351480229991 3:1 4:1 #PDB 2A3I Res PRO105
-0.95883288427099278017351480229991 3:0.33333334 4:1 #PDB 1AWR Res LYS133
-0.95883288427099278017351480229991 3:0.33333334 4:1 #PDB 2ZJD Res LYS65
-0.95883288427099278017351480229991 3:1 4:1 #PDB 2B9H Res HIS65
11.505994611251914250260597327724 3:0.10050251 4:1 #PDB 1U00 Res GLN427
-0.95883288427099278017351480229991 3:0.33333334 4:1 #PDB 2ZJD Res ASN74
-0.95883288427099278017351480229991 3:0.33333334 4:1 #PDB 2ZJD Res THR93
-0.95883288427099278017351480229991 3:1 4:1 #PDB 2B9H Res ASN76
-0.95883288427099278017351480229991 3:0.33333334 4:1 #PDB 1AWR Res LYS28
-0.95883288427099278017351480229991 3:0.33227849 4:1 #PDB 1JWG Res ILE146
-0.95883288427099278017351480229991 3:1 4:1 #PDB 2B9H Res SER110
-0.95883288427099278017351480229991 3:0.33227849 4:1 #PDB 1JWG Res ARG149
-0.95883288427099278017351480229991 3:0.33227849 4:1 #PDB 1JWG Res GLN153
-0.95883288427099278017351480229991 3:1 4:1 #PDB 2B9H Res GLY130
-0.95883288427099278017351480229991 3:0.33433735 4:1 #PDB 2AK5 Res ASN16
-0.95883288427099278017351480229991 3:0.33227849 4:1 #PDB 1JWG Res MET38
-0.95883288427099278017351480229991 3:0.33011582 4:1 #PDB 2HPL Res GLN22
-0.95883288427099278017351480229991 3:1 4:1 #PDB 2B9H Res THR164
-0.95883288427099278017351480229991 3:0.33011582 4:1 #PDB 2HPL Res THR24
-0.95883288427099278017351480229991 3:0.33011582 4:1 #PDB 2HPL Res ARG44
-0.95883288427099278017351480229991 3:1 4:1 #PDB 2B9H Res ARG170
-0.95883288427099278017351480229991 3:0.33011582 4:1 #PDB 2HPL Res GLY57
11.505994611251914250260597327724 3:0.5510689 4:1 #PDB 2JAM Res LYS55
-0.95883288427099278017351480229991 3:0.33011582 4:1 #PDB 2HPL Res ARG69
-0.95883288427099278017351480229991 3:1 4:1 #PDB 2B9H Res TRP171
-0.95883288427099278017351480229991 3:0.33227849 4:1 #PDB 1JWG Res LYS162
-0.95883288427099278017351480229991 3:0.32790697 4:1 #PDB 1CKA Res GLU149
-0.95883288427099278017351480229991 3:1 4:1 #PDB 2B9H Res PRO208
-0.95883288427099278017351480229991 3:0.32695985 4:1 #PDB 2VJ0 Res ASP760
-0.95883288427099278017351480229991 3:0.32695985 4:1 #PDB 2VJ0 Res ASP761
-0.95883288427099278017351480229991 3:1 4:1 #PDB 2B9H Res ASP211
-0.95883288427099278017351480229991 3:0.32695985 4:1 #PDB 2VJ0 Res ASP774
-0.95883288427099278017351480229991 3:0.32695985 4:1 #PDB 2VJ0 Res THR810
-0.95883288427099278017351480229991 3:1 4:1 #PDB 2B9H Res TYR243
-0.95883288427099278017351480229991 3:0.32695985 4:1 #PDB 2VJ0 Res ASN813
-0.95883288427099278017351480229991 3:0.32695985 4:1 #PDB 2VJ0 Res LYS896
-0.95883288427099278017351480229991 3:1 4:1 #PDB 2B9H Res ASP268
-0.95883288427099278017351480229991 3:0.32695985 4:1 #PDB 2VJ0 Res GLN928
-0.95883288427099278017351480229991 3:0.32695985 4:1 #PDB 2VJ0 Res GLU936
-0.95883288427099278017351480229991 3:1 4:1 #PDB 2B9H Res PRO303
-0.95883288427099278017351480229991 3:0.32790697 4:1 #PDB 1CKA Res GLU135
11.505994611251914250260597327724 3:0.55081969 4:1 #PDB 1QKZ Res TRP47
-0.95883288427099278017351480229991 3:0.32666665 4:1 #PDB 1OAI Res GLU20
-0.95883288427099278017351480229991 3:1 4:1 #PDB 2B9H Res SER337
11.505994611251914250260597327724 3:0.10904256 4:1 #PDB 1HC9 Res ILE8
-0.95883288427099278017351480229991 3:0.32666665 4:1 #PDB 1OAI Res GLU34
-0.95883288427099278017351480229991 3:0.32666665 4:1 #PDB 1OAI Res SER8
-0.95883288427099278017351480229991 3:1 4:1 #PDB 2C3I Res LEU43
-0.95883288427099278017351480229991 3:0.30769232 4:1 #PDB 2HO2 Res PHE3
-0.95883288427099278017351480229991 3:0.30150753 4:1 #PDB 1U00 Res GLU503
-0.95883288427099278017351480229991 3:1 4:1 #PDB 2C3I Res PHE100
-0.95883288427099278017351480229991 3:0.30098686 4:1 #PDB 1DDV Res LYS1116
-0.95883288427099278017351480229991 3:0.30098686 4:1 #PDB 1DDV Res HIS1095
-0.95883288427099278017351480229991 3:1 4:1 #PDB 2C3I Res GLU153
-0.95883288427099278017351480229991 3:0.30000001 4:1 #PDB 1W9E Res THR260
-0.95883288427099278017351480229991 3:0.30000001 4:1 #PDB 1W9E Res THR219
-0.95883288427099278017351480229991 3:1 4:1 #PDB 2C3I Res PRO275
-0.95883288427099278017351480229991 3:0.2857143 4:1 #PDB 1SFI Res SER127
-0.33685963876779473347156113050005 3:0.12090164 4:1 #PDB 2P54 Res ILE237
-0.95883288427099278017351480229991 3:1 4:1 #PDB 2CCH Res VAL175
-0.95883288427099278017351480229991 3:0.2857143 4:1 #PDB 1SFI Res SER222
11.505994611251914250260597327724 3:0.55081969 4:1 #PDB 1QKZ Res ASP99
-0.95883288427099278017351480229991 3:0.27553445 4:1 #PDB 2JAM Res LYS229
-0.95883288427099278017351480229991 3:0.59895831 4:1 #PDB 3CVP Res GLU161
11.505994611251914250260597327724 3:0.22222222 4:1 #PDB 2ZJD Res ARG11
-0.95883288427099278017351480229991 3:0.27553445 4:1 #PDB 2JAM Res CYS255
-0.95883288427099278017351480229991 3:1 4:1 #PDB 2CCH Res TYR178
-0.95883288427099278017351480229991 3:0.27553445 4:1 #PDB 2JAM Res ALA52
-0.95883288427099278017351480229991 3:0.25263157 4:1 #PDB 2DS8 Res ASP45
-0.95883288427099278017351480229991 3:1 4:1 #PDB 2CCH Res ILE182
-0.95883288427099278017351480229991 3:0.25136611 4:1 #PDB 1ER8 Res THR174
-0.95883288427099278017351480229991 3:0.25136611 4:1 #PDB 1ER8 Res LYS189
-0.95883288427099278017351480229991 3:1 4:1 #PDB 2CCH Res LYS266
-0.95883288427099278017351480229991 3:0.25136611 4:1 #PDB 1ER8 Res VAL246
-0.95883288427099278017351480229991 3:0.25136611 4:1 #PDB 1ER8 Res ALA255
-0.95883288427099278017351480229991 3:1 4:1 #PDB 2CCH Res PHE267
-0.95883288427099278017351480229991 3:0.25136611 4:1 #PDB 1ER8 Res GLY101
-0.95883288427099278017351480229991 3:0.24904214 4:1 #PDB 1TW6 Res SER261
-0.95883288427099278017351480229991 3:1 4:1 #PDB 2CCH Res GLU268
-0.95883288427099278017351480229991 3:0.24904214 4:1 #PDB 1TW6 Res GLU282
-0.95883288427099278017351480229991 3:0.24904214 4:1 #PDB 1TW6 Res GLU350
-0.95883288427099278017351480229991 3:1 4:1 #PDB 2CCH Res ILE270
11.505994611251914250260597327724 3:0.54651165 4:1 #PDB 1CKA Res PHE141
-0.95883288427099278017351480229991 3:0.24904214 4:1 #PDB 1TW6 Res PRO260
-0.95883288427099278017351480229991 3:0.24802111 4:1 #PDB 1LVM Res ASP136
-0.95883288427099278017351480229991 3:1 4:1 #PDB 2CCH Res GLU277
11.505994611251914250260597327724 3:0.11202186 4:1 #PDB 2PUY Res PHE11
-0.95883288427099278017351480229991 3:0.24802111 4:1 #PDB 1LVM Res GLU194
-0.95883288427099278017351480229991 3:0.24802111 4:1 #PDB 1LVM Res VAL199
-0.95883288427099278017351480229991 3:1 4:1 #PDB 2CCH Res ASP284
-0.95883288427099278017351480229991 3:0.24721603 4:1 #PDB 1YMT Res GLN349
-0.95883288427099278017351480229991 3:0.24721603 4:1 #PDB 1YMT Res GLN355
-0.95883288427099278017351480229991 3:1 4:1 #PDB 2CCH Res LEU292
-0.95883288427099278017351480229991 3:0.32666665 4:1 #PDB 1OAI Res VAL11
-0.95883288427099278017351480229991 3:0.24721603 4:1 #PDB 1YMT Res HIS429
-0.95883288427099278017351480229991 3:1 4:1 #PDB 2FMF Res PRO60
-0.95883288427099278017351480229991 3:0.24721603 4:1 #PDB 1YMT Res HIS438
-0.95883288427099278017351480229991 3:0.24721603 4:1 #PDB 1YMT Res ASN445
-0.95883288427099278017351480229991 3:1 4:1 #PDB 2FMF Res GLY99
-0.95883288427099278017351480229991 3:0.24721603 4:1 #PDB 1YMT Res GLN461
-0.95883288427099278017351480229991 3:0.24721603 4:1 #PDB 1YMT Res ASN482
-0.95883288427099278017351480229991 3:1 4:1 #PDB 2FOJ Res SER131
11.505994611251914250260597327724 3:0.54493308 4:1 #PDB 2VJ0 Res GLY742
-0.95883288427099278017351480229991 3:0.24721603 4:1 #PDB 1YMT Res ALA360
-0.95883288427099278017351480229991 3:0.24663678 4:1 #PDB 1EG4 Res SER94
-0.95883288427099278017351480229991 3:1 4:1 #PDB 2FOJ Res HIS201
-0.95883288427099278017351480229991 3:0.24663678 4:1 #PDB 1EG4 Res GLN149
-0.95883288427099278017351480229991 3:0.24663678 4:1 #PDB 1EG4 Res ASP159
-0.95883288427099278017351480229991 3:1 4:1 #PDB 2FOJ Res GLY202
-0.95883288427099278017351480229991 3:0.24663678 4:1 #PDB 1EG4 Res ASN166
-0.95883288427099278017351480229991 3:0.24721603 4:1 #PDB 1YMT Res ASP502
-0.95883288427099278017351480229991 3:1 4:1 #PDB 2FVJ Res ASP180
-0.95883288427099278017351480229991 3:0.24663678 4:1 #PDB 1EG4 Res HIS210
-0.95883288427099278017351480229991 3:0.24663678 4:1 #PDB 1EG4 Res ASP230
-0.95883288427099278017351480229991 3:1 4:1 #PDB 2FVJ Res ARG227
-0.95883288427099278017351480229991 3:0.24663678 4:1 #PDB 1EG4 Res ASN170
-0.95883288427099278017351480229991 3:0.24663678 4:1 #PDB 1EG4 Res ASN272
-0.95883288427099278017351480229991 3:1 4:1 #PDB 2H9M Res GLY43
-0.95883288427099278017351480229991 3:0.24663678 4:1 #PDB 1EG4 Res ALA279
-0.95883288427099278017351480229991 3:0.24663678 4:1 #PDB 1EG4 Res GLU77
11.505994611251914250260597327724 3:0.54444444 4:1 #PDB 1OAI Res GLU62
-0.95883288427099278017351480229991 3:0.24548736 4:1 #PDB 1GYB Res ASP49
-0.95883288427099278017351480229991 3:1 4:1 #PDB 2H9M Res THR82
-0.95883288427099278017351480229991 3:0.24548736 4:1 #PDB 1GYB Res GLU52
-0.95883288427099278017351480229991 3:0.24548736 4:1 #PDB 1GYB Res GLN63
-0.95883288427099278017351480229991 3:1 4:1 #PDB 2H9M Res GLY127
11.505994611251914250260597327724 3:0.11627907 4:1 #PDB 1NTV Res GLY140
-0.95883288427099278017351480229991 3:0.24548736 4:1 #PDB 1GYB Res TYR77
-0.95883288427099278017351480229991 3:0.24548736 4:1 #PDB 1GYB Res LEU3
-0.95883288427099278017351480229991 3:1 4:1 #PDB 2H9M Res ASP182
-0.95883288427099278017351480229991 3:0.24505928 4:1 #PDB 2FMF Res ARG18
-0.95883288427099278017351480229991 3:0.24505928 4:1 #PDB 2FMF Res GLU33
-0.95883288427099278017351480229991 3:1 4:1 #PDB 2H9M Res ASP235
-0.95883288427099278017351480229991 3:0.24663678 4:1 #PDB 1EG4 Res ASN271
-0.95883288427099278017351480229991 3:0.24463519 4:1 #PDB 1MFG Res ASP1329
-0.95883288427099278017351480229991 3:1 4:1 #PDB 2H9M Res ASP280
-0.95883288427099278017351480229991 3:0.24463519 4:1 #PDB 1MFG Res ASN1385
-0.95883288427099278017351480229991 3:0.24463519 4:1 #PDB 1MFG Res GLY1389
-0.95883288427099278017351480229991 3:1 4:1 #PDB 2JAM Res LYS35
-0.95883288427099278017351480229991 3:0.24463519 4:1 #PDB 1MFG Res SER1393
11.505994611251914250260597327724 3:0.54000002 4:1 #PDB 1X2R Res TYR572
-0.95883288427099278017351480229991 3:0.24463519 4:1 #PDB 1MFG Res GLN1399
-0.95883288427099278017351480229991 3:1 4:1 #PDB 2JAM Res GLU50
-0.95883288427099278017351480229991 3:0.24463519 4:1 #PDB 1MFG Res ASN1400
-0.95883288427099278017351480229991 3:0.24463519 4:1 #PDB 1MFG Res GLN1320
-0.95883288427099278017351480229991 3:1 4:1 #PDB 2JAM Res VAL53
-0.95883288427099278017351480229991 3:0.24444444 4:1 #PDB 1NQ7 Res GLU346
-0.95883288427099278017351480229991 3:0.24444444 4:1 #PDB 1NQ7 Res GLU397
-0.95883288427099278017351480229991 3:1 4:1 #PDB 2JAM Res ASP71
-0.95883288427099278017351480229991 3:0.24444444 4:1 #PDB 1NQ7 Res ARG483
-0.95883288427099278017351480229991 3:0.24505928 4:1 #PDB 2FMF Res SER14
-0.95883288427099278017351480229991 3:1 4:1 #PDB 2JAM Res PHE88
-0.95883288427099278017351480229991 3:0.24444444 4:1 #PDB 1NQ7 Res ILE494
-0.95883288427099278017351480229991 3:0.24415584 4:1 #PDB 1NX1 Res GLU160
-0.95883288427099278017351480229991 3:1 4:1 #PDB 2JAM Res ASN120
-0.95883288427099278017351480229991 3:0.24415584 4:1 #PDB 1NX1 Res TYR164
-0.95883288427099278017351480229991 3:0.24444444 4:1 #PDB 1NQ7 Res ALA493
-0.95883288427099278017351480229991 3:1 4:1 #PDB 2JAM Res LEU166
-0.95883288427099278017351480229991 3:0.24329501 4:1 #PDB 1NVR Res VAL107
11.505994611251914250260597327724 3:0.53759396 4:1 #PDB 2B9H Res SER147
-0.95883288427099278017351480229991 3:0.24415584 4:1 #PDB 1NX1 Res VAL96
-0.95883288427099278017351480229991 3:1 4:1 #PDB 2JAM Res TYR170
-0.95883288427099278017351480229991 3:0.24329501 4:1 #PDB 1NVR Res ASN51
-0.95883288427099278017351480229991 3:0.24329501 4:1 #PDB 1NVR Res ASP87
-0.95883288427099278017351480229991 3:1 4:1 #PDB 2JAM Res GLY189
-0.95883288427099278017351480229991 3:0.24415584 4:1 #PDB 1NX1 Res ARG213
-0.95883288427099278017351480229991 3:0.24329501 4:1 #PDB 1NVR Res TYR145
-0.95883288427099278017351480229991 3:1 4:1 #PDB 2O4J Res ASP174
-0.95883288427099278017351480229991 3:0.24329501 4:1 #PDB 1NVR Res PRO256
-0.95883288427099278017351480229991 3:0.24329501 4:1 #PDB 1NVR Res ASN147
-0.95883288427099278017351480229991 3:1 4:1 #PDB 2O4J Res GLU185
-0.95883288427099278017351480229991 3:0.24223602 4:1 #PDB 2A3I Res GLN128
-0.95883288427099278017351480229991 3:0.24329501 4:1 #PDB 1NVR Res LYS38
-0.95883288427099278017351480229991 3:1 4:1 #PDB 2O4J Res ARG223
-0.95883288427099278017351480229991 3:0.24223602 4:1 #PDB 2A3I Res ASP158
-0.95883288427099278017351480229991 3:0.24223602 4:1 #PDB 2A3I Res ALA164
-0.95883288427099278017351480229991 3:1 4:1 #PDB 2O9V Res GLY845
-0.95883288427099278017351480229991 3:0.24223602 4:1 #PDB 2A3I Res ALA220
-0.95883288427099278017351480229991 3:1 4:1 #PDB 2P0W Res ASP77
-0.95883288427099278017351480229991 3:0.24223602 4:1 #PDB 2A3I Res PRO68
-0.95883288427099278017351480229991 3:0.22222222 4:1 #PDB 1AWR Res GLU23
-0.95883288427099278017351480229991 3:0.21860465 4:1 #PDB 1CKA Res ARG191
-0.95883288427099278017351480229991 3:0.24223602 4:1 #PDB 2A3I Res LEU131
-0.95883288427099278017351480229991 3:0.24180327 4:1 #PDB 2P54 Res CYS69
-0.95883288427099278017351480229991 3:0.24180327 4:1 #PDB 2P54 Res GLU14
-0.95883288427099278017351480229991 3:0.54156768 4:1 #PDB 2C3I Res GLY137
-0.95883288427099278017351480229991 3:1 4:0 #PDB 2JAM Res TYR14
11.505994611251914250260597327724 3:0.12021276 4:1 #PDB 2H9M Res SER49
-0.95883288427099278017351480229991 3:0.24161074 4:1 #PDB 1T7R Res ASN691
-0.95883288427099278017351480229991 3:1 4:0 #PDB 2JAM Res GLY15
-0.95883288427099278017351480229991 3:0.24161074 4:1 #PDB 1T7R Res THR755
-0.95883288427099278017351480229991 3:1 4:0 #PDB 2JAM Res LEU155
-0.95883288427099278017351480229991 3:0.24161074 4:1 #PDB 1T7R Res ARG779
-0.95883288427099278017351480229991 3:1 4:0 #PDB 2P0W Res GLN213
-0.95883288427099278017351480229991 3:0.24161074 4:1 #PDB 1T7R Res MET832
-0.95883288427099278017351480229991 3:1 4:0 #PDB 2P0W Res PRO243
-0.95883288427099278017351480229991 3:0.24161074 4:1 #PDB 1T7R Res PRO849
-0.95883288427099278017351480229991 3:1 4:0 #PDB 2ZJD Res LYS8
-0.95883288427099278017351480229991 3:0.24161074 4:1 #PDB 1T7R Res ASN675
-0.95883288427099278017351480229991 3:1 4:0 #PDB 1ER8 Res GLY80
-0.95883288427099278017351480229991 3:0.24159022 4:1 #PDB 3D1E Res ASP39
-0.95883288427099278017351480229991 3:0.98886412 4:0 #PDB 1YMT Res PRO332
-0.95883288427099278017351480229991 3:0.24159022 4:1 #PDB 3D1E Res GLN36
-0.95883288427099278017351480229991 3:0.98372096 4:0 #PDB 1CKA Res HIS59
-0.95883288427099278017351480229991 3:0.24159022 4:1 #PDB 3D1E Res GLY40
-0.95883288427099278017351480229991 3:0.98372096 4:0 #PDB 1CKA Res ARG20
-0.95883288427099278017351480229991 3:0.24159022 4:1 #PDB 3D1E Res GLU95
-0.95883288427099278017351480229991 3:0.98194945 4:0 #PDB 1GYB Res LEU121
-0.95883288427099278017351480229991 3:0.24159022 4:1 #PDB 3D1E Res ASP121
-0.95883288427099278017351480229991 3:0.97662336 4:0 #PDB 1NX1 Res THR263
-0.95883288427099278017351480229991 3:0.24159022 4:1 #PDB 3D1E Res ARG56
11.505994611251914250260597327724 3:0.405 4:1 #PDB 1X2R Res ARG483
-0.95883288427099278017351480229991 3:1 4:1 #PDB 2P0W Res ARG200
11.505994611251914250260597327724 3:0.12021276 4:1 #PDB 2H9M Res TYR260
-0.95883288427099278017351480229991 3:0.24159022 4:1 #PDB 3D1E Res GLU125
-0.95883288427099278017351480229991 3:0.24159022 4:1 #PDB 3D1E Res PRO131
-0.95883288427099278017351480229991 3:0.24159022 4:1 #PDB 3D1E Res GLU166
-0.95883288427099278017351480229991 3:1 4:1 #PDB 2P0W Res GLU298
-0.95883288427099278017351480229991 3:0.24159022 4:1 #PDB 3D1E Res GLU163
-0.95883288427099278017351480229991 3:0.24159022 4:1 #PDB 3D1E Res SER190
-0.95883288427099278017351480229991 3:0.24159022 4:1 #PDB 3D1E Res ASN288
-0.95883288427099278017351480229991 3:1 4:1 #PDB 2P54 Res ASP178
-0.95883288427099278017351480229991 3:0.24159022 4:1 #PDB 3D1E Res LYS291
-0.95883288427099278017351480229991 3:0.24180327 4:1 #PDB 2P54 Res LYS52
-0.95883288427099278017351480229991 3:0.24124514 4:1 #PDB 1N7F Res MET741
-0.95883288427099278017351480229991 3:1 4:1 #PDB 2P54 Res ARG225
-0.95883288427099278017351480229991 3:0.24124514 4:1 #PDB 1N7F Res GLU744
-0.95883288427099278017351480229991 3:0.24062499 4:1 #PDB 1SE0 Res ARG19
11.505994611251914250260597327724 3:0.405 4:1 #PDB 1X2R Res TYR525
-0.95883288427099278017351480229991 3:0.24062499 4:1 #PDB 1SE0 Res GLN22
-0.95883288427099278017351480229991 3:1 4:1 #PDB 2PUY Res CYS15
-0.95883288427099278017351480229991 3:0.24062499 4:1 #PDB 1SE0 Res ARG59
-0.95883288427099278017351480229991 3:0.24062499 4:1 #PDB 1SE0 Res LEU18
-0.95883288427099278017351480229991 3:0.24042553 4:1 #PDB 2H9M Res LEU122
-0.95883288427099278017351480229991 3:1 4:1 #PDB 2PUY Res PRO38
-0.95883288427099278017351480229991 3:0.24042553 4:1 #PDB 2H9M Res LYS123
-0.95883288427099278017351480229991 3:0.24124514 4:1 #PDB 1N7F Res ILE715
-0.95883288427099278017351480229991 3:0.24042553 4:1 #PDB 2H9M Res GLU292
-0.95883288427099278017351480229991 3:1 4:1 #PDB 2PUY Res CYS53
-0.95883288427099278017351480229991 3:0.24042553 4:1 #PDB 2H9M Res CYS334
11.505994611251914250260597327724 3:0.86393988 4:1 #PDB 2O02 Res GLU210
-0.95883288427099278017351480229991 3:0.23958333 4:1 #PDB 3CVP Res ASP123
-0.95883288427099278017351480229991 3:1 4:1 #PDB 2ZJD Res LYS30
-0.95883288427099278017351480229991 3:0.23958333 4:1 #PDB 3CVP Res SER287
-0.95883288427099278017351480229991 3:0.23958333 4:1 #PDB 3CVP Res GLU104
11.505994611251914250260597327724 3:0.405 4:1 #PDB 1X2R Res PHE577
-0.95883288427099278017351480229991 3:0.2364341 4:1 #PDB 2FVJ Res LYS142
-0.95883288427099278017351480229991 3:1 4:1 #PDB 3CVP Res PRO80
-0.95883288427099278017351480229991 3:0.2364341 4:1 #PDB 2FVJ Res LYS157
-0.95883288427099278017351480229991 3:0.24042553 4:1 #PDB 2H9M Res LEU164
-0.95883288427099278017351480229991 3:0.23584905 4:1 #PDB 2J6F Res GLY7
-0.95883288427099278017351480229991 3:1 4:1 #PDB 3CVP Res PRO177
-0.95883288427099278017351480229991 3:0.23580787 4:1 #PDB 1IHJ Res GLN1729
-0.95883288427099278017351480229991 3:0.23580787 4:1 #PDB 1IHJ Res ASP1761
-0.95883288427099278017351480229991 3:0.23580787 4:1 #PDB 1IHJ Res ALA1762
-0.95883288427099278017351480229991 3:1 4:1 #PDB 3CVP Res GLY228
-0.95883288427099278017351480229991 3:0.23580787 4:1 #PDB 1IHJ Res LEU1791
-0.95883288427099278017351480229991 3:0.23580787 4:1 #PDB 1IHJ Res GLY1727
-0.95883288427099278017351480229991 3:0.23574145 4:1 #PDB 1JD5 Res GLN289
-0.95883288427099278017351480229991 3:1 4:1 #PDB 3D1E Res GLY66
-0.95883288427099278017351480229991 3:0.23574145 4:1 #PDB 1JD5 Res SER292
-0.95883288427099278017351480229991 3:0.23574145 4:1 #PDB 1JD5 Res VAL324
11.505994611251914250260597327724 3:0.37356323 4:1 #PDB 1TW6 Res TRP323
-0.95883288427099278017351480229991 3:0.23574145 4:1 #PDB 1JD5 Res GLU347
-0.95883288427099278017351480229991 3:0.23574145 4:1 #PDB 1JD5 Res MET273
-0.95883288427099278017351480229991 3:1 4:1 #PDB 3D1E Res ARG269
11.505994611251914250260597327724 3:0.12164751 4:1 #PDB 1NVR Res ASP7
-0.95883288427099278017351480229991 3:0.23556583 4:1 #PDB 1CZY Res SER327
-0.95883288427099278017351480229991 3:0.6539197 4:1 #PDB 2VJ0 Res LYS841
11.505994611251914250260597327724 3:0.32695985 4:1 #PDB 2VJ0 Res PHE740
-0.95883288427099278017351480229991 3:0.20065789 4:1 #PDB 1DDV Res LYS1029
-0.95883288427099278017351480229991 3:0.23556583 4:1 #PDB 1CZY Res ASP337
-0.95883288427099278017351480229991 3:0.23556583 4:1 #PDB 1CZY Res GLY404
-0.95883288427099278017351480229991 3:1 4:1 #PDB 3D1E Res GLU300
-0.95883288427099278017351480229991 3:0.23556583 4:1 #PDB 1CZY Res ILE444
-0.95883288427099278017351480229991 3:0.23556583 4:1 #PDB 1CZY Res GLN322
-0.95883288427099278017351480229991 3:0.23556583 4:1 #PDB 1CZY Res ASN482
-0.95883288427099278017351480229991 3:0.2364341 4:1 #PDB 2FVJ Res ARG6
-0.95883288427099278017351480229991 3:1 4:1 #PDB 3D9T Res ARG272
-0.95883288427099278017351480229991 3:0.23262841 4:1 #PDB 1D4T Res ASP68
-0.95883288427099278017351480229991 3:0.23262841 4:1 #PDB 1D4T Res LEU110
11.505994611251914250260597327724 3:0.37203166 4:1 #PDB 1LVM Res LYS65
-0.95883288427099278017351480229991 3:0.23262841 4:1 #PDB 1D4T Res MET8
-0.95883288427099278017351480229991 3:1 4:1 #PDB 3D9T Res ALA291
-0.95883288427099278017351480229991 3:0.23255815 4:1 #PDB 1NTV Res LEU99
-0.95883288427099278017351480229991 3:0.23255815 4:1 #PDB 1NTV Res VAL111
-0.95883288427099278017351480229991 3:0.23255815 4:1 #PDB 1NTV Res ILE112
-0.95883288427099278017351480229991 3:0.23255815 4:1 #PDB 1NTV Res GLN143
-0.95883288427099278017351480229991 3:1 4:1 #PDB 3D9T Res ASP302
-0.95883288427099278017351480229991 3:0.23262841 4:1 #PDB 1D4T Res GLU24
-0.95883288427099278017351480229991 3:0.23125 4:1 #PDB 2O4J Res PRO28
-0.95883288427099278017351480229991 3:0.23125 4:1 #PDB 2O4J Res SER48
-0.95883288427099278017351480229991 3:1 4:1 #PDB 1AWR Res GLU43
-0.95883288427099278017351480229991 3:0.23125 4:1 #PDB 2O4J Res ARG190
-0.95883288427099278017351480229991 3:0.23125 4:1 #PDB 2O4J Res ARG202
-0.95883288427099278017351480229991 3:0.23125 4:1 #PDB 2O4J Res GLU241
-0.95883288427099278017351480229991 3:0.99683547 4:1 #PDB 1JWG Res HIS92
-0.95883288427099278017351480229991 3:0.23125 4:1 #PDB 2O4J Res HIS23
11.505994611251914250260597327724 3:0.37203166 4:1 #PDB 1LVM Res LYS67
-0.95883288427099278017351480229991 3:0.23255815 4:1 #PDB 1NTV Res GLN88
-0.95883288427099278017351480229991 3:0.23021583 4:1 #PDB 3D9T Res GLN289
-0.95883288427099278017351480229991 3:0.23021583 4:1 #PDB 3D9T Res VAL324
-0.95883288427099278017351480229991 3:0.99683547 4:1 #PDB 1JWG Res GLY94
-0.95883288427099278017351480229991 3:0.23021583 4:1 #PDB 3D9T Res MET273
-0.95883288427099278017351480229991 3:0.22929937 4:1 #PDB 1SSH Res GLN35
-0.95883288427099278017351480229991 3:0.23021583 4:1 #PDB 3D9T Res SER282
-0.95883288427099278017351480229991 3:0.99683547 4:1 #PDB 1JWG Res GLU51
-0.95883288427099278017351480229991 3:0.22905028 4:1 #PDB 2O9V Res ARG862
-0.95883288427099278017351480229991 3:0.22905028 4:1 #PDB 2O9V Res ASP878
-0.95883288427099278017351480229991 3:0.22905028 4:1 #PDB 2O9V Res ASN833
-0.95883288427099278017351480229991 3:0.2275449 4:1 #PDB 1YWO Res GLN824
-0.95883288427099278017351480229991 3:0.99616855 4:1 #PDB 1TW6 Res ILE276
-0.95883288427099278017351480229991 3:0.2275449 4:1 #PDB 1YWO Res GLY826
-0.95883288427099278017351480229991 3:0.2275449 4:1 #PDB 1YWO Res TYR833
11.505994611251914250260597327724 3:0.36945814 4:1 #PDB 1TP5 Res PHE493
-0.95883288427099278017351480229991 3:0.2275449 4:1 #PDB 1YWO Res GLU822
-0.95883288427099278017351480229991 3:0.99616855 4:1 #PDB 1TW6 Res LYS334
-0.95883288427099278017351480229991 3:0.22674419 4:1 #PDB 2FOJ Res SER82
-0.95883288427099278017351480229991 3:0.22674419 4:1 #PDB 2FOJ Res SER84
-0.95883288427099278017351480229991 3:0.22674419 4:1 #PDB 2FOJ Res LEU86
-0.95883288427099278017351480229991 3:0.22674419 4:1 #PDB 2FOJ Res PHE105
-0.95883288427099278017351480229991 3:0.99616855 4:1 #PDB 1TW6 Res THR254
-0.95883288427099278017351480229991 3:0.22674419 4:1 #PDB 2FOJ Res ASP108
-0.95883288427099278017351480229991 3:0.22674419 4:1 #PDB 2FOJ Res LYS161
-0.95883288427099278017351480229991 3:0.22674419 4:1 #PDB 2FOJ Res ASP178
-0.95883288427099278017351480229991 3:0.99208444 4:1 #PDB 1LVM Res ASN52
11.505994611251914250260597327724 3:0.12207792 4:1 #PDB 1NX1 Res LEU132
-0.95883288427099278017351480229991 3:0.22674419 4:1 #PDB 2FOJ Res ARG80
-0.95883288427099278017351480229991 3:0.22526316 4:1 #PDB 1RXZ Res LYS53
-0.95883288427099278017351480229991 3:0.22526316 4:1 #PDB 1RXZ Res ASP72
-0.95883288427099278017351480229991 3:0.22526316 4:1 #PDB 1RXZ Res THR83
-0.95883288427099278017351480229991 3:0.99208444 4:1 #PDB 1LVM Res ASN68
11.505994611251914250260597327724 3:0.36823106 4:1 #PDB 1GYB Res GLN45
-0.95883288427099278017351480229991 3:0.22526316 4:1 #PDB 1RXZ Res LYS84
-0.95883288427099278017351480229991 3:0.22905028 4:1 #PDB 2O9V Res PHE822
-0.95883288427099278017351480229991 3:0.22526316 4:1 #PDB 1RXZ Res VAL104
-0.95883288427099278017351480229991 3:0.99208444 4:1 #PDB 1LVM Res GLN117
-0.95883288427099278017351480229991 3:0.22526316 4:1 #PDB 1RXZ Res GLU105
-0.95883288427099278017351480229991 3:0.22526316 4:1 #PDB 1RXZ Res VAL173
-0.95883288427099278017351480229991 3:0.22526316 4:1 #PDB 1RXZ Res THR177
-0.95883288427099278017351480229991 3:0.22526316 4:1 #PDB 1RXZ Res GLU178
-0.95883288427099278017351480229991 3:0.99208444 4:1 #PDB 1LVM Res VAL125
-0.95883288427099278017351480229991 3:0.22526316 4:1 #PDB 1RXZ Res THR179
-0.95883288427099278017351480229991 3:0.22526316 4:1 #PDB 1RXZ Res ARG190
-0.95883288427099278017351480229991 3:0.22526316 4:1 #PDB 1RXZ Res LEU210
-0.95883288427099278017351480229991 3:0.99208444 4:1 #PDB 1LVM Res TRP143
-0.95883288427099278017351480229991 3:0.22526316 4:1 #PDB 1RXZ Res GLU31
-0.95883288427099278017351480229991 3:0.2251462 4:1 #PDB 1T4F Res GLN24
11.505994611251914250260597327724 3:0.36623377 4:1 #PDB 1NX1 Res HIS129
-0.95883288427099278017351480229991 3:0.2251462 4:1 #PDB 1T4F Res PRO32
-0.95883288427099278017351480229991 3:0.2251462 4:1 #PDB 1T4F Res LYS45
-0.95883288427099278017351480229991 3:0.99208444 4:1 #PDB 1LVM Res ASP10
-0.95883288427099278017351480229991 3:0.2251462 4:1 #PDB 1T4F Res ASN79
-0.95883288427099278017351480229991 3:0.22413793 4:1 #PDB 2D0N Res MET186
-0.95883288427099278017351480229991 3:0.22413793 4:1 #PDB 2D0N Res ASN188
-0.95883288427099278017351480229991 3:0.9903475 4:1 #PDB 2HPL Res ARG109
-0.95883288427099278017351480229991 3:0.22413793 4:1 #PDB 2D0N Res LYS195
-0.95883288427099278017351480229991 3:0.22413793 4:1 #PDB 2D0N Res ARG179
-0.95883288427099278017351480229991 3:0.22404371 4:1 #PDB 2PUY Res SER5
-0.95883288427099278017351480229991 3:0.22404371 4:1 #PDB 2PUY Res ARG16
-0.95883288427099278017351480229991 3:0.9903475 4:1 #PDB 2HPL Res SER94
-0.95883288427099278017351480229991 3:0.22526316 4:1 #PDB 1RXZ Res LEU86
-0.95883288427099278017351480229991 3:0.22289157 4:1 #PDB 2AK5 Res GLU40
-0.95883288427099278017351480229991 3:0.22289157 4:1 #PDB 2AK5 Res ARG51
-0.95883288427099278017351480229991 3:0.98886412 4:1 #PDB 1YMT Res PRO523
11.505994611251914250260597327724 3:0.36623377 4:1 #PDB 1NX1 Res LYS177
-0.95883288427099278017351480229991 3:0.22289157 4:1 #PDB 2AK5 Res ARG37
-0.95883288427099278017351480229991 3:0.22222222 4:1 #PDB 1AWR Res ASP13
-0.95883288427099278017351480229991 3:0.22151899 4:1 #PDB 1JWG Res HIS62
-0.95883288427099278017351480229991 3:0.22151899 4:1 #PDB 1JWG Res LYS147
-0.95883288427099278017351480229991 3:0.98886412 4:1 #PDB 1YMT Res GLY427
-0.95883288427099278017351480229991 3:0.22007722 4:1 #PDB 2HPL Res THR59
-0.95883288427099278017351480229991 3:0.22007722 4:1 #PDB 2HPL Res PHE76
-0.95883288427099278017351480229991 3:0.22007722 4:1 #PDB 2HPL Res GLN99
-0.95883288427099278017351480229991 3:0.98654711 4:1 #PDB 1EG4 Res GLU90
-0.95883288427099278017351480229991 3:0.22007722 4:1 #PDB 2HPL Res GLU26
-0.95883288427099278017351480229991 3:0.21860465 4:1 #PDB 1CKA Res PRO73
-0.95883288427099278017351480229991 3:0.21860465 4:1 #PDB 1CKA Res PRO75
-0.95883288427099278017351480229991 3:0.21860465 4:1 #PDB 1CKA Res ALA76
-0.95883288427099278017351480229991 3:0.98654711 4:1 #PDB 1EG4 Res LEU168
-0.95883288427099278017351480229991 3:0.21860465 4:1 #PDB 1CKA Res VAL82
11.505994611251914250260597327724 3:0.3618677 4:1 #PDB 1N7F Res THR689
-0.95883288427099278017351480229991 3:0.21860465 4:1 #PDB 1CKA Res SER85
-0.95883288427099278017351480229991 3:0.21860465 4:1 #PDB 1CKA Res ALA193
-0.95883288427099278017351480229991 3:0.98654711 4:1 #PDB 1EG4 Res ARG246
11.505994611251914250260597327724 3:0.12207792 4:1 #PDB 1NX1 Res ALA174
-0.95883288427099278017351480229991 3:0.21860465 4:1 #PDB 1CKA Res ASN54
-0.95883288427099278017351480229991 3:0.21808511 4:1 #PDB 1HC9 Res LYS56
-0.95883288427099278017351480229991 3:0.22404371 4:1 #PDB 2PUY Res MET47
-0.95883288427099278017351480229991 3:0.21797323 4:1 #PDB 2VJ0 Res PRO772
-0.95883288427099278017351480229991 3:0.98654711 4:1 #PDB 1EG4 Res SER265
-0.95883288427099278017351480229991 3:0.21797323 4:1 #PDB 2VJ0 Res ASP778
-0.95883288427099278017351480229991 3:0.21797323 4:1 #PDB 2VJ0 Res GLN834
-0.95883288427099278017351480229991 3:0.21797323 4:1 #PDB 2VJ0 Res ASN845
-0.95883288427099278017351480229991 3:0.21797323 4:1 #PDB 2VJ0 Res GLN748
-0.95883288427099278017351480229991 3:0.98654711 4:1 #PDB 1EG4 Res GLU288
-0.95883288427099278017351480229991 3:0.21797323 4:1 #PDB 2VJ0 Res ILE870
-0.95883288427099278017351480229991 3:0.20512821 4:1 #PDB 2HO2 Res SER2
11.505994611251914250260597327724 3:0.36063829 4:1 #PDB 2H9M Res ALA47
-0.95883288427099278017351480229991 3:0.20100503 4:1 #PDB 1DKX Res LEU504
-0.95883288427099278017351480229991 3:0.98654711 4:1 #PDB 1EG4 Res HIS51
-0.95883288427099278017351480229991 3:0.20100503 4:1 #PDB 1U00 Res THR403
-0.95883288427099278017351480229991 3:0.20100503 4:1 #PDB 1U00 Res LEU504
-0.95883288427099278017351480229991 3:0.20100503 4:1 #PDB 1DKX Res THR403
-0.95883288427099278017351480229991 3:0.21797323 4:1 #PDB 2VJ0 Res ALA867
-0.95883288427099278017351480229991 3:0.98522168 4:1 #PDB 1TP5 Res ALA529
-0.95883288427099278017351480229991 3:0.20065789 4:1 #PDB 1DDV Res HIS1094
-0.95883288427099278017351480229991 3:0.20065789 4:1 #PDB 1DDV Res GLU1101
10.304135231277186335319129284471 3:0.86525613 4:1 #PDB 1YMT Res ARG380
-0.95883288427099278017351480229991 3:0.98372096 4:1 #PDB 1CKA Res GLY156
-0.95883288427099278017351480229991 3:0.20065789 4:1 #PDB 1DDV Res GLU1115
-0.95883288427099278017351480229991 3:0.2 4:1 #PDB 1W9E Res GLY262
-0.95883288427099278017351480229991 3:0.2 4:1 #PDB 1W9E Res GLN253
-0.95883288427099278017351480229991 3:0.19198665 4:1 #PDB 2O02 Res ASN74
-0.95883288427099278017351480229991 3:0.98372096 4:1 #PDB 1CKA Res PHE94
11.505994611251914250260597327724 3:0.36063829 4:1 #PDB 2H9M Res ASP107
-0.95883288427099278017351480229991 3:0.19198665 4:1 #PDB 2O02 Res GLU188
-0.95883288427099278017351480229991 3:0.19198665 4:1 #PDB 2O02 Res ASP4
-0.95883288427099278017351480229991 3:0.18360655 4:1 #PDB 1QKZ Res ASP61
-0.95883288427099278017351480229991 3:0.98194945 4:1 #PDB 1GYB Res GLU40
-0.95883288427099278017351480229991 3:0.18360655 4:1 #PDB 1QKZ Res LYS75
-0.95883288427099278017351480229991 3:0.18360655 4:1 #PDB 1QKZ Res SER28
-0.95883288427099278017351480229991 3:0.16842106 4:1 #PDB 2DS8 Res SER32
-0.95883288427099278017351480229991 3:0.14285715 4:1 #PDB 1SFI Res SER75
-0.95883288427099278017351480229991 3:0.98138297 4:1 #PDB 1HC9 Res ALA44
-0.95883288427099278017351480229991 3:0.14285715 4:1 #PDB 1SFI Res TYR5
-0.95883288427099278017351480229991 3:0.14285715 4:1 #PDB 1SFI Res LYS91
-0.95883288427099278017351480229991 3:0.14285715 4:1 #PDB 1SFI Res SER98
-0.95883288427099278017351480229991 3:0.14285715 4:1 #PDB 1SFI Res SER92
-0.95883288427099278017351480229991 3:0.98138297 4:1 #PDB 1HC9 Res THR45
-0.95883288427099278017351480229991 3:0.14285715 4:1 #PDB 1SFI Res SER108
11.505994611251914250260597327724 3:0.35377359 4:1 #PDB 2J6F Res VAL42
-0.95883288427099278017351480229991 3:0.14285715 4:1 #PDB 1SFI Res SER111
-0.95883288427099278017351480229991 3:0.14285715 4:1 #PDB 1SFI Res GLY128
-0.95883288427099278017351480229991 3:0.98138297 4:1 #PDB 1HC9 Res CYS46
-0.95883288427099278017351480229991 3:0.14285715 4:1 #PDB 1SFI Res THR129
-0.95883288427099278017351480229991 3:0.14285715 4:1 #PDB 1SFI Res SER130
-0.95883288427099278017351480229991 3:0.14285715 4:1 #PDB 1SFI Res LYS149
-0.95883288427099278017351480229991 3:0.14285715 4:1 #PDB 1SFI Res SER150
-0.95883288427099278017351480229991 3:0.98138297 4:1 #PDB 1HC9 Res ASP61
-0.95883288427099278017351480229991 3:0.14285715 4:1 #PDB 1SFI Res LEU166
-0.95883288427099278017351480229991 3:0.14285715 4:1 #PDB 1SFI Res LYS186
-0.95883288427099278017351480229991 3:0.14285715 4:1 #PDB 1SFI Res LYS217
-0.95883288427099278017351480229991 3:0.14285715 4:1 #PDB 1SFI Res ARG99
-0.95883288427099278017351480229991 3:0.98138297 4:1 #PDB 1HC9 Res GLY17
11.505994611251914250260597327724 3:0.12274368 4:1 #PDB 1GYB Res GLU34
-0.39210750011093431499631378756021 3:0.12079511 4:1 #PDB 3D1E Res THR309
-0.95883288427099278017351480229991 3:0.22222222 4:1 #PDB 2ZJD Res THR12
11.505994611251914250260597327724 3:0.35377359 4:1 #PDB 2J6F Res VAL55
-0.95883288427099278017351480229991 3:0.12079511 4:1 #PDB 3D1E Res GLU314
-0.95883288427099278017351480229991 3:0.98000002 4:1 #PDB 1OAI Res ALA24
-0.95883288427099278017351480229991 3:0.12079511 4:1 #PDB 3D1E Res ASN335
-0.95883288427099278017351480229991 3:0.12079511 4:1 #PDB 3D1E Res ARG337
-0.95883288427099278017351480229991 3:0.12079511 4:1 #PDB 3D1E Res ALA353
-0.95883288427099278017351480229991 3:0.12079511 4:1 #PDB 3D1E Res GLN355
-0.95883288427099278017351480229991 3:0.97854078 4:1 #PDB 1MFG Res SER1412
-0.95883288427099278017351480229991 3:0.23021583 4:1 #PDB 3D9T Res GLU347
-0.95883288427099278017351480229991 3:0.20065789 4:1 #PDB 1DDV Res HIS1030
-0.95883288427099278017351480229991 3:0.12080537 4:1 #PDB 1T7R Res ALA679
-0.95883288427099278017351480229991 3:0.12080537 4:1 #PDB 1T7R Res ASN692
-0.95883288427099278017351480229991 3:0.97854078 4:1 #PDB 1MFG Res THR1357
-0.95883288427099278017351480229991 3:0.12080537 4:1 #PDB 1T7R Res GLN693
-0.95883288427099278017351480229991 3:0.12080537 4:1 #PDB 1T7R Res GLU706
-0.95883288427099278017351480229991 3:0.12080537 4:1 #PDB 1T7R Res TYR773
-0.95883288427099278017351480229991 3:0.97777778 4:1 #PDB 1NQ7 Res GLU336
11.505994611251914250260597327724 3:0.35377359 4:1 #PDB 2J6F Res LYS62
-0.95883288427099278017351480229991 3:0.12080537 4:1 #PDB 1T7R Res HIS776
-0.95883288427099278017351480229991 3:0.12080537 4:1 #PDB 1T7R Res TYR781
-0.95883288427099278017351480229991 3:0.12080537 4:1 #PDB 1T7R Res VAL785
-0.95883288427099278017351480229991 3:0.12080537 4:1 #PDB 1T7R Res GLN792
-0.95883288427099278017351480229991 3:0.97662336 4:1 #PDB 1NX1 Res ASN123
-0.95883288427099278017351480229991 3:0.12080537 4:1 #PDB 1T7R Res GLY795
-0.95883288427099278017351480229991 3:0.12080537 4:1 #PDB 1T7R Res PRO801
-0.95883288427099278017351480229991 3:0.12080537 4:1 #PDB 1T7R Res PHE826
-0.95883288427099278017351480229991 3:0.12080537 4:1 #PDB 1T7R Res ASP839
-0.95883288427099278017351480229991 3:0.97662336 4:1 #PDB 1NX1 Res ARG143
-0.95883288427099278017351480229991 3:0.12080537 4:1 #PDB 1T7R Res ALA843
-0.95883288427099278017351480229991 3:0.12080537 4:1 #PDB 1T7R Res LYS847
-0.95883288427099278017351480229991 3:0.12080537 4:1 #PDB 1T7R Res GLN875
-0.95883288427099278017351480229991 3:0.97662336 4:1 #PDB 1NX1 Res GLY155
-0.95883288427099278017351480229991 3:0.12080537 4:1 #PDB 1T7R Res ASP879
11.505994611251914250260597327724 3:0.35361215 4:1 #PDB 1JD5 Res ARG314
-0.95883288427099278017351480229991 3:0.12080537 4:1 #PDB 1T7R Res ILE882
-0.95883288427099278017351480229991 3:0.12080537 4:1 #PDB 1T7R Res GLU678
-0.95883288427099278017351480229991 3:0.12090164 4:1 #PDB 2P54 Res GLN55
-0.95883288427099278017351480229991 3:0.97662336 4:1 #PDB 1NX1 Res SER184
-0.95883288427099278017351480229991 3:0.12090164 4:1 #PDB 2P54 Res ASN56
-0.95883288427099278017351480229991 3:0.12090164 4:1 #PDB 2P54 Res GLU58
-0.95883288427099278017351480229991 3:0.12090164 4:1 #PDB 2P54 Res ALA84
-0.95883288427099278017351480229991 3:0.12090164 4:1 #PDB 2P54 Res ALA89
-0.95883288427099278017351480229991 3:0.97662336 4:1 #PDB 1NX1 Res MET264
-0.95883288427099278017351480229991 3:0.12090164 4:1 #PDB 2P54 Res ASN90
-0.95883288427099278017351480229991 3:0.12090164 4:1 #PDB 2P54 Res ASP119
-0.95883288427099278017351480229991 3:0.12090164 4:1 #PDB 2P54 Res LYS140
-0.95883288427099278017351480229991 3:0.97662336 4:1 #PDB 1NX1 Res ASP110
-0.95883288427099278017351480229991 3:0.12090164 4:1 #PDB 2P54 Res ASP151
-0.95883288427099278017351480229991 3:0.12090164 4:1 #PDB 2P54 Res LEU183
11.505994611251914250260597327724 3:0.35334873 4:1 #PDB 1CZY Res ASP399
-0.95883288427099278017351480229991 3:0.12090164 4:1 #PDB 2P54 Res VAL185
-0.95883288427099278017351480229991 3:0.12090164 4:1 #PDB 2P54 Res GLY186
-0.95883288427099278017351480229991 3:0.97318006 4:1 #PDB 1NVR Res THR13
-0.95883288427099278017351480229991 3:0.12090164 4:1 #PDB 2P54 Res HIS187
-0.95883288427099278017351480229991 3:0.12090164 4:1 #PDB 2P54 Res HIS197
-0.95883288427099278017351480229991 3:0.12090164 4:1 #PDB 2P54 Res ILE211
-0.95883288427099278017351480229991 3:0.12090164 4:1 #PDB 2P54 Res PHE212
-0.95883288427099278017351480229991 3:0.97318006 4:1 #PDB 1NVR Res GLU17
11.505994611251914250260597327724 3:0.12274368 4:1 #PDB 1GYB Res LEU44
-0.95883288427099278017351480229991 3:0.14285715 4:1 #PDB 1SFI Res GLN218
-0.95883288427099278017351480229991 3:0.12090164 4:1 #PDB 2P54 Res CYS48
-0.95883288427099278017351480229991 3:0.12111801 4:1 #PDB 2A3I Res SER5
-0.95883288427099278017351480229991 3:0.97318006 4:1 #PDB 1NVR Res ARG150
-0.95883288427099278017351480229991 3:0.12111801 4:1 #PDB 2A3I Res ARG6
-0.95883288427099278017351480229991 3:0.12111801 4:1 #PDB 2A3I Res PRO12
-0.95883288427099278017351480229991 3:0.12111801 4:1 #PDB 2A3I Res GLU17
11.505994611251914250260597327724 3:0.35334873 4:1 #PDB 1CZY Res GLY400
-0.95883288427099278017351480229991 3:0.12111801 4:1 #PDB 2A3I Res ASN18
-0.95883288427099278017351480229991 3:0.97318006 4:1 #PDB 1NVR Res LEU159
-0.95883288427099278017351480229991 3:0.12111801 4:1 #PDB 2A3I Res SER31
-0.95883288427099278017351480229991 3:0.12111801 4:1 #PDB 2A3I Res VAL108
-0.95883288427099278017351480229991 3:0.12111801 4:1 #PDB 2A3I Res GLU112
-0.95883288427099278017351480229991 3:0.12111801 4:1 #PDB 2A3I Res HIS115
-0.95883288427099278017351480229991 3:0.97318006 4:1 #PDB 1NVR Res PRO3
-0.95883288427099278017351480229991 3:0.12111801 4:1 #PDB 2A3I Res ALA118
-0.95883288427099278017351480229991 3:0.12111801 4:1 #PDB 2A3I Res TYR120
-0.95883288427099278017351480229991 3:0.12111801 4:1 #PDB 2A3I Res VAL134
-0.95883288427099278017351480229991 3:0.96894407 4:1 #PDB 2A3I Res PRO238
-0.95883288427099278017351480229991 3:0.12111801 4:1 #PDB 2A3I Res ALA165
-0.95883288427099278017351480229991 3:0.12111801 4:1 #PDB 2A3I Res THR171
-0.95883288427099278017351480229991 3:0.12111801 4:1 #PDB 2A3I Res THR182
-0.95883288427099278017351480229991 3:0.12111801 4:1 #PDB 2A3I Res GLY184
-0.95883288427099278017351480229991 3:0.96894407 4:1 #PDB 2A3I Res LYS239
11.505994611251914250260597327724 3:0.35334873 4:1 #PDB 1CZY Res PHE410
-0.95883288427099278017351480229991 3:0.12111801 4:1 #PDB 2A3I Res TYR191
-0.95883288427099278017351480229991 3:0.12111801 4:1 #PDB 2A3I Res ASP206
-0.95883288427099278017351480229991 3:0.12111801 4:1 #PDB 2A3I Res GLU209
-0.95883288427099278017351480229991 3:0.12111801 4:1 #PDB 2A3I Res TYR213
-0.95883288427099278017351480229991 3:0.96894407 4:1 #PDB 2A3I Res GLY243
-0.95883288427099278017351480229991 3:0.12111801 4:1 #PDB 2A3I Res ARG216
-0.95883288427099278017351480229991 3:0.12111801 4:1 #PDB 2A3I Res THR3
-0.95883288427099278017351480229991 3:0.12164751 4:1 #PDB 1NVR Res VAL25
-0.95883288427099278017351480229991 3:0.96894407 4:1 #PDB 2A3I Res ASP106
-0.95883288427099278017351480229991 3:0.12164751 4:1 #PDB 1NVR Res GLU28
-0.95883288427099278017351480229991 3:0.12164751 4:1 #PDB 1NVR Res ALA29
-0.95883288427099278017351480229991 3:0.12164751 4:1 #PDB 1NVR Res ASN66
-0.95883288427099278017351480229991 3:0.12164751 4:1 #PDB 1NVR Res PRO91
-0.95883288427099278017351480229991 3:0.96721309 4:1 #PDB 2P54 Res LEU218
-0.95883288427099278017351480229991 3:0.12164751 4:1 #PDB 1NVR Res GLU128
11.505994611251914250260597327724 3:0.34894261 4:1 #PDB 1D4T Res CYS56
-0.95883288427099278017351480229991 3:0.12164751 4:1 #PDB 1NVR Res ARG129
-0.95883288427099278017351480229991 3:0.12164751 4:1 #PDB 1NVR Res ASN146
-0.95883288427099278017351480229991 3:0.12164751 4:1 #PDB 1NVR Res ARG148
-0.95883288427099278017351480229991 3:0.96721309 4:1 #PDB 2P54 Res ASP223
-0.95883288427099278017351480229991 3:0.12164751 4:1 #PDB 1NVR Res LYS168
-0.95883288427099278017351480229991 3:0.12164751 4:1 #PDB 1NVR Res ARG169
-0.95883288427099278017351480229991 3:0.12164751 4:1 #PDB 1NVR Res ARG170
-0.95883288427099278017351480229991 3:0.96721309 4:1 #PDB 2P54 Res GLN233
-0.95883288427099278017351480229991 3:0.12164751 4:1 #PDB 1NVR Res ASP201
-0.95883288427099278017351480229991 3:0.12164751 4:1 #PDB 1NVR Res SER202
-0.95883288427099278017351480229991 3:0.12164751 4:1 #PDB 1NVR Res LYS212
-0.95883288427099278017351480229991 3:0.12164751 4:1 #PDB 1NVR Res TYR215
-0.95883288427099278017351480229991 3:0.96721309 4:1 #PDB 2P54 Res LYS239
-0.95883288427099278017351480229991 3:0.12164751 4:1 #PDB 1NVR Res LEU216
-0.95883288427099278017351480229991 3:0.12164751 4:1 #PDB 1NVR Res ASN217
11.505994611251914250260597327724 3:0.34894261 4:1 #PDB 1D4T Res TYR58
-0.95883288427099278017351480229991 3:0.12164751 4:1 #PDB 1NVR Res LYS220
-0.95883288427099278017351480229991 3:0.12164751 4:1 #PDB 1NVR Res SER224
-0.95883288427099278017351480229991 3:0.96721309 4:1 #PDB 2P54 Res ARG139
11.505994611251914250260597327724 3:0.12274368 4:1 #PDB 1GYB Res PHE115
-0.95883288427099278017351480229991 3:0.12164751 4:1 #PDB 1NVR Res HIS231
-0.95883288427099278017351480229991 3:0.12164751 4:1 #PDB 1NVR Res SER239
-0.95883288427099278017351480229991 3:0.12164751 4:1 #PDB 1NVR Res ASP246
-0.95883288427099278017351480229991 3:0.12164751 4:1 #PDB 1NVR Res LYS249
-0.95883288427099278017351480229991 3:0.96644294 4:1 #PDB 1T7R Res PRO723
-0.95883288427099278017351480229991 3:0.12164751 4:1 #PDB 1NVR Res ARG251
-0.95883288427099278017351480229991 3:0.12164751 4:1 #PDB 1NVR Res ASN254
-0.95883288427099278017351480229991 3:0.12164751 4:1 #PDB 1NVR Res LYS255
-0.95883288427099278017351480229991 3:0.96644294 4:1 #PDB 1T7R Res GLY909
-0.95883288427099278017351480229991 3:0.12164751 4:1 #PDB 1NVR Res ALA261
-0.95883288427099278017351480229991 3:0.12164751 4:1 #PDB 1NVR Res ARG263
-0.95883288427099278017351480229991 3:0.12164751 4:1 #PDB 1NVR Res PRO264
11.505994611251914250260597327724 3:0.34687501 4:1 #PDB 2O4J Res SER88
-0.95883288427099278017351480229991 3:0.12164751 4:1 #PDB 1NVR Res ARG265
-0.95883288427099278017351480229991 3:0.96644294 4:1 #PDB 1T7R Res ASP690
-0.95883288427099278017351480229991 3:0.12164751 4:1 #PDB 1NVR Res VAL266
-0.95883288427099278017351480229991 3:0.12164751 4:1 #PDB 1NVR Res ARG24
-0.95883288427099278017351480229991 3:0.12207792 4:1 #PDB 1NX1 Res ARG101
-0.95883288427099278017351480229991 3:0.12207792 4:1 #PDB 1NX1 Res ALA104
-0.95883288427099278017351480229991 3:0.96636087 4:1 #PDB 3D1E Res ASP77
-0.95883288427099278017351480229991 3:0.12207792 4:1 #PDB 1NX1 Res THR116
-0.95883288427099278017351480229991 3:0.12207792 4:1 #PDB 1NX1 Res THR127
-0.95883288427099278017351480229991 3:0.12207792 4:1 #PDB 1NX1 Res PRO130
-0.95883288427099278017351480229991 3:0.96636087 4:1 #PDB 3D1E Res SER104
-0.95883288427099278017351480229991 3:0.12207792 4:1 #PDB 1NX1 Res ASP135
-0.95883288427099278017351480229991 3:0.12207792 4:1 #PDB 1NX1 Res LYS163
-0.95883288427099278017351480229991 3:0.12207792 4:1 #PDB 1NX1 Res LYS171
-0.95883288427099278017351480229991 3:0.12207792 4:1 #PDB 1NX1 Res VAL181
-0.95883288427099278017351480229991 3:0.96636087 4:1 #PDB 3D1E Res PHE106
11.505994611251914250260597327724 3:0.34532374 4:1 #PDB 3D9T Res ARG314
-0.95883288427099278017351480229991 3:0.12207792 4:1 #PDB 1NX1 Res ARG183
-0.95883288427099278017351480229991 3:0.12207792 4:1 #PDB 1NX1 Res GLY194
-0.95883288427099278017351480229991 3:0.12207792 4:1 #PDB 1NX1 Res GLU218
-0.95883288427099278017351480229991 3:0.12207792 4:1 #PDB 1NX1 Res GLY219
-0.95883288427099278017351480229991 3:0.96636087 4:1 #PDB 3D1E Res ASP150
-0.95883288427099278017351480229991 3:0.12207792 4:1 #PDB 1NX1 Res ASN221
-0.95883288427099278017351480229991 3:0.12207792 4:1 #PDB 1NX1 Res LYS242
-0.95883288427099278017351480229991 3:0.12207792 4:1 #PDB 1NX1 Res LYS246
-0.95883288427099278017351480229991 3:0.12207792 4:1 #PDB 1NX1 Res GLY248
-0.95883288427099278017351480229991 3:0.96636087 4:1 #PDB 3D1E Res VAL151
-0.95883288427099278017351480229991 3:0.12207792 4:1 #PDB 1NX1 Res GLN253
-0.95883288427099278017351480229991 3:0.12207792 4:1 #PDB 1NX1 Res GLN257
-0.95883288427099278017351480229991 3:0.12207792 4:1 #PDB 1NX1 Res ARG97
-0.95883288427099278017351480229991 3:0.12222222 4:1 #PDB 1NQ7 Res GLN305
-0.95883288427099278017351480229991 3:0.96636087 4:1 #PDB 3D1E Res ASP243
11.505994611251914250260597327724 3:0.34011629 4:1 #PDB 2FOJ Res MET100
-0.95883288427099278017351480229991 3:0.12222222 4:1 #PDB 1NQ7 Res ARG316
-0.95883288427099278017351480229991 3:0.12222222 4:1 #PDB 1NQ7 Res GLU405
-0.95883288427099278017351480229991 3:0.12222222 4:1 #PDB 1NQ7 Res GLN437
-0.95883288427099278017351480229991 3:0.96636087 4:1 #PDB 3D1E Res VAL247
-0.95883288427099278017351480229991 3:0.12222222 4:1 #PDB 1NQ7 Res LYS439
-0.95883288427099278017351480229991 3:0.12222222 4:1 #PDB 1NQ7 Res VAL440
-0.95883288427099278017351480229991 3:0.12222222 4:1 #PDB 1NQ7 Res LYS444
-0.95883288427099278017351480229991 3:0.12222222 4:1 #PDB 1NQ7 Res GLN447
-0.95883288427099278017351480229991 3:0.96636087 4:1 #PDB 3D1E Res LEU248
-0.95883288427099278017351480229991 3:0.12222222 4:1 #PDB 1NQ7 Res GLN450
-0.95883288427099278017351480229991 3:0.12222222 4:1 #PDB 1NQ7 Res LEU451
-0.95883288427099278017351480229991 3:0.12222222 4:1 #PDB 1NQ7 Res LYS459
-0.95883288427099278017351480229991 3:0.12222222 4:1 #PDB 1NQ7 Res MET489
-0.95883288427099278017351480229991 3:0.96636087 4:1 #PDB 3D1E Res ILE272
-0.95883288427099278017351480229991 3:0.12222222 4:1 #PDB 1NQ7 Res ALA490
-0.95883288427099278017351480229991 3:0.12222222 4:1 #PDB 1NQ7 Res ASP497
-0.95883288427099278017351480229991 3:0.12222222 4:1 #PDB 1NQ7 Res HIS502
-0.95883288427099278017351480229991 3:0.96636087 4:1 #PDB 3D1E Res GLU298
-0.95883288427099278017351480229991 3:0.12222222 4:1 #PDB 1NQ7 Res TRP300
-0.95883288427099278017351480229991 3:0.1223176 4:1 #PDB 1MFG Res PRO1330
-0.95883288427099278017351480229991 3:0.1223176 4:1 #PDB 1MFG Res ASP1352
-0.95883288427099278017351480229991 3:0.96636087 4:1 #PDB 3D1E Res ASP326
-0.95883288427099278017351480229991 3:0.1223176 4:1 #PDB 1MFG Res TYR1381
-0.95883288427099278017351480229991 3:0.1223176 4:1 #PDB 1MFG Res GLN1390
-0.95883288427099278017351480229991 3:0.1223176 4:1 #PDB 1MFG Res GLU1321
-0.95883288427099278017351480229991 3:0.96636087 4:1 #PDB 3D1E Res PRO28
11.505994611251914250260597327724 3:0.10904256 4:0 #PDB 1HC9 Res LYS68
-0.95883288427099278017351480229991 3:0.1 4:0 #PDB 1W9E Res SER259
-0.95883288427099278017351480229991 3:0.36666667 4:1 #PDB 1NQ7 Res ASN310
-0.95883288427099278017351480229991 3:0.96249998 4:1 #PDB 1SE0 Res PRO102
-0.95883288427099278017351480229991 3:0.10050251 4:0 #PDB 1U00 Res ALA449
-0.95883288427099278017351480229991 3:0.96249998 4:1 #PDB 1SE0 Res HIS13
-0.95883288427099278017351480229991 3:0.10050251 4:0 #PDB 1DKX Res ALA449
-0.95883288427099278017351480229991 3:0.96170211 4:1 #PDB 2H9M Res THR124
-0.95883288427099278017351480229991 3:0.1025641 4:0 #PDB 2HO2 Res SER13
-0.95883288427099278017351480229991 3:0.96170211 4:1 #PDB 2H9M Res THR208
-0.95883288427099278017351480229991 3:0.1025641 4:0 #PDB 2HO2 Res GLN23
-0.95883288427099278017351480229991 3:0.96170211 4:1 #PDB 2H9M Res GLY299
-0.95883288427099278017351480229991 3:0.1025641 4:0 #PDB 2HO2 Res THR11
-0.95883288427099278017351480229991 3:0.96170211 4:1 #PDB 2H9M Res GLY85
-0.95883288427099278017351480229991 3:0.10904256 4:0 #PDB 1HC9 Res TRP30
-0.95883288427099278017351480229991 3:0.95833331 4:1 #PDB 3CVP Res ASN192
-0.95883288427099278017351480229991 3:0.10930233 4:0 #PDB 1CKA Res SER41
-0.95883288427099278017351480229991 3:0.95833331 4:1 #PDB 3CVP Res PRO211
-0.95883288427099278017351480229991 3:0.10930233 4:0 #PDB 1CKA Res ARG122
-0.95883288427099278017351480229991 3:0.95833331 4:1 #PDB 3CVP Res ASN226
-0.95883288427099278017351480229991 3:0.10930233 4:0 #PDB 1CKA Res ILE128
-0.95883288427099278017351480229991 3:0.95833331 4:1 #PDB 3CVP Res GLN274
-0.95883288427099278017351480229991 3:0.10930233 4:0 #PDB 1CKA Res LEU129
-0.95883288427099278017351480229991 3:0.95833331 4:1 #PDB 3CVP Res PRO46
-0.95883288427099278017351480229991 3:0.94078946 4:1 #PDB 2B9H Res MET1
-0.95883288427099278017351480229991 3:0.94774348 4:1 #PDB 2C3I Res ASP60
-0.95883288427099278017351480229991 3:0.34011629 4:1 #PDB 2FOJ Res LYS113
-0.95883288427099278017351480229991 3:0.94774348 4:1 #PDB 2C3I Res GLU111
-0.95883288427099278017351480229991 3:0.94774348 4:1 #PDB 2C3I Res ASP195
-0.95883288427099278017351480229991 3:0.94774348 4:1 #PDB 2C3I Res THR280
-0.95883288427099278017351480229991 3:0.80167598 4:1 #PDB 2O9V Res ARG868
-0.95883288427099278017351480229991 3:0.43594646 4:1 #PDB 2VJ0 Res GLN827
-0.95883288427099278017351480229991 3:0.94774348 4:1 #PDB 2C3I Res PRO33
-0.95883288427099278017351480229991 3:0.94573641 4:1 #PDB 2FVJ Res GLY33
-0.95883288427099278017351480229991 3:0.94573641 4:1 #PDB 2FVJ Res GLU82
-0.95883288427099278017351480229991 3:0.94573641 4:1 #PDB 2FVJ Res PRO88
-0.95883288427099278017351480229991 3:0.94573641 4:1 #PDB 2FVJ Res GLY89
-0.95883288427099278017351480229991 3:0.94573641 4:1 #PDB 2FVJ Res ASP225
-0.95883288427099278017351480229991 3:0.94573641 4:1 #PDB 2FVJ Res HIS250
-0.95883288427099278017351480229991 3:0.94573641 4:1 #PDB 2FVJ Res ASP4
-0.95883288427099278017351480229991 3:0.94499999 4:1 #PDB 1X2R Res ASN397
11.505994611251914250260597327724 3:0.60823756 4:0.16666667 #PDB 1NVR Res TYR69
-0.95883288427099278017351480229991 3:0.94499999 4:1 #PDB 1X2R Res THR501
-0.95883288427099278017351480229991 3:0.94499999 4:1 #PDB 1X2R Res GLY527
-0.95883288427099278017351480229991 3:0.94499999 4:1 #PDB 1X2R Res ASP573
-0.95883288427099278017351480229991 3:0.94499999 4:1 #PDB 1X2R Res ASP589
-0.95883288427099278017351480229991 3:0.94499999 4:1 #PDB 1X2R Res ASP385
-0.95883288427099278017351480229991 3:0.94332492 4:1 #PDB 2CCH Res TYR185
-0.95883288427099278017351480229991 3:0.94332492 4:1 #PDB 2CCH Res THR207
-0.95883288427099278017351480229991 3:0.94332492 4:1 #PDB 2CCH Res PHE304
-0.95883288427099278017351480229991 3:0.94332492 4:1 #PDB 2CCH Res GLU330
-0.95883288427099278017351480229991 3:0.94332492 4:1 #PDB 2CCH Res ASP181
-0.95883288427099278017351480229991 3:0.94323146 4:1 #PDB 1IHJ Res GLY1777
-0.95883288427099278017351480229991 3:0.94323146 4:1 #PDB 1IHJ Res ARG1765
-0.95883288427099278017351480229991 3:0.94296581 4:1 #PDB 1JD5 Res SER363
-0.95883288427099278017351480229991 3:0.94296581 4:1 #PDB 1JD5 Res PRO280
-0.95883288427099278017351480229991 3:0.94226331 4:1 #PDB 1CZY Res GLN437
-0.95883288427099278017351480229991 3:0.94226331 4:1 #PDB 1CZY Res LEU317
-0.95883288427099278017351480229991 3:0.94078946 4:1 #PDB 2B9H Res THR35
-0.95883288427099278017351480229991 3:0.94078946 4:1 #PDB 2B9H Res THR106
-0.95883288427099278017351480229991 3:1 4:0.66666669 #PDB 1N7F Res ASN723
-0.95883288427099278017351480229991 3:0.97662336 4:0 #PDB 1NX1 Res ARG233
-0.95883288427099278017351480229991 3:0.93884295 4:1 #PDB 2P0W Res GLY36
-0.95883288427099278017351480229991 3:0.93884295 4:1 #PDB 2P0W Res LYS65
-0.95883288427099278017351480229991 3:0.93884295 4:1 #PDB 2P0W Res TYR66
11.505994611251914250260597327724 3:0.10930233 4:0 #PDB 1CKA Res ALA25
-0.95883288427099278017351480229991 3:0.96894407 4:0 #PDB 2A3I Res HIS95
11.505994611251914250260597327724 3:0.12331839 4:1 #PDB 1EG4 Res THR188
-0.95883288427099278017351480229991 3:0.44015443 4:1 #PDB 2HPL Res THR27
-0.95883288427099278017351480229991 3:0.53759396 4:1 #PDB 2B9H Res MET108
-0.95883288427099278017351480229991 3:0.96636087 4:0 #PDB 3D1E Res LEU366
-0.95883288427099278017351480229991 3:0.44015443 4:1 #PDB 2HPL Res GLU84
-0.95883288427099278017351480229991 3:0.10930233 4:0 #PDB 1CKA Res GLN28
-0.95883288427099278017351480229991 3:0.44015443 4:1 #PDB 2HPL Res GLU19
-0.95883288427099278017351480229991 3:0.96437055 4:0 #PDB 2JAM Res SER13
-0.95883288427099278017351480229991 3:0.44303799 4:1 #PDB 1JWG Res SER37
-0.95883288427099278017351480229991 3:0.96170211 4:0 #PDB 2H9M Res PRO224
-0.95883288427099278017351480229991 3:0.44303799 4:1 #PDB 1JWG Res SER39
-0.95883288427099278017351480229991 3:0.62260538 4:0 #PDB 1TW6 Res LYS322
-0.95883288427099278017351480229991 3:0.44303799 4:1 #PDB 1JWG Res GLU40
-0.95883288427099278017351480229991 3:0.62841529 4:0 #PDB 1ER8 Res SER118
-0.95883288427099278017351480229991 3:0.44303799 4:1 #PDB 1JWG Res GLN47
-0.95883288427099278017351480229991 3:0.64262295 4:0 #PDB 1QKZ Res SER17
-0.95883288427099278017351480229991 3:0.44303799 4:1 #PDB 1JWG Res PRO116
-0.95883288427099278017351480229991 3:0.6539197 4:0 #PDB 2VJ0 Res SER922
-0.95883288427099278017351480229991 3:0.44303799 4:1 #PDB 1JWG Res TYR118
-0.95883288427099278017351480229991 3:0.96170211 4:0 #PDB 2H9M Res VAL268
-0.95883288427099278017351480229991 3:0.44303799 4:1 #PDB 1JWG Res ASP150
-0.95883288427099278017351480229991 3:0.65581393 4:0 #PDB 1CKA Res GLN211
-0.95883288427099278017351480229991 3:0.47916666 4:1 #PDB 3CVP Res ASP167
-0.95883288427099278017351480229991 3:1 4:0.66666669 #PDB 1NVR Res LYS42
-0.95883288427099278017351480229991 3:0.65581393 4:0 #PDB 1CKA Res PRO220
-0.95883288427099278017351480229991 3:0.65581393 4:0 #PDB 1CKA Res ASN4
-0.95883288427099278017351480229991 3:0.44303799 4:1 #PDB 1JWG Res PRO36
-0.95883288427099278017351480229991 3:0.96170211 4:0 #PDB 2H9M Res PRO139
-0.95883288427099278017351480229991 3:0.44444445 4:1 #PDB 1AWR Res LYS44
-0.95883288427099278017351480229991 3:0.94774348 4:0 #PDB 2C3I Res PHE49
-0.95883288427099278017351480229991 3:0.44444445 4:1 #PDB 1AWR Res GLY50
-0.95883288427099278017351480229991 3:0.66023165 4:0 #PDB 2HPL Res ASN45
-0.95883288427099278017351480229991 3:0.94774348 4:0 #PDB 2C3I Res LEU44
-0.95883288427099278017351480229991 3:0.45901638 4:1 #PDB 1QKZ Res PHE160
-0.95883288427099278017351480229991 3:0.94323146 4:0 #PDB 1IHJ Res SER1739
-0.95883288427099278017351480229991 3:0.93884295 4:1 #PDB 2P0W Res LYS69
-0.95883288427099278017351480229991 3:0.67199248 4:0 #PDB 2B9H Res ARG102
-0.95883288427099278017351480229991 3:0.67543858 4:0 #PDB 1T4F Res ASN5
-0.95883288427099278017351480229991 3:0.67695963 4:0 #PDB 2C3I Res VAL126
-0.95883288427099278017351480229991 3:0.93884295 4:1 #PDB 2P0W Res TRP192
-0.95883288427099278017351480229991 3:0.68263471 4:0 #PDB 1YWO Res MET849
-0.95883288427099278017351480229991 3:0.68421054 4:0 #PDB 1UJ0 Res SER2
-0.95883288427099278017351480229991 3:0.94323146 4:0 #PDB 1IHJ Res GLY1735
-0.95883288427099278017351480229991 3:0.93884295 4:1 #PDB 2P0W Res GLU245
-0.95883288427099278017351480229991 3:0.68421054 4:0 #PDB 1UJ0 Res GLU78
-0.95883288427099278017351480229991 3:0.68421054 4:0 #PDB 1UJ0 Res GLY1
-0.95883288427099278017351480229991 3:0.58962262 4:0.16666667 #PDB 2J6F Res THR25
-0.95883288427099278017351480229991 3:0.4714829 4:1 #PDB 1JD5 Res ARG351
-0.95883288427099278017351480229991 3:0.93884295 4:1 #PDB 2P0W Res ARG291
-0.95883288427099278017351480229991 3:0.6888361 4:0 #PDB 2JAM Res SER37
-0.95883288427099278017351480229991 3:0.69788522 4:0 #PDB 1D4T Res SER6
-0.95883288427099278017351480229991 3:0.94226331 4:0 #PDB 1CZY Res PRO379
-0.95883288427099278017351480229991 3:0.93884295 4:1 #PDB 2P0W Res ARG295
-0.95883288427099278017351480229991 3:0.69788522 4:0 #PDB 1D4T Res ASN13
-0.95883288427099278017351480229991 3:0.69788522 4:0 #PDB 1D4T Res ASN16
-0.95883288427099278017351480229991 3:0.69788522 4:0 #PDB 1D4T Res LYS85
-0.95883288427099278017351480229991 3:0.93884295 4:1 #PDB 2P0W Res SER306
-0.95883288427099278017351480229991 3:0.69788522 4:0 #PDB 1D4T Res SER2
-0.95883288427099278017351480229991 3:0.70742357 4:0 #PDB 1IHJ Res LYS1793
-0.95883288427099278017351480229991 3:0.70930231 4:0 #PDB 2FVJ Res SER126
-0.95883288427099278017351480229991 3:0.93884295 4:1 #PDB 2P0W Res PRO3
-0.95883288427099278017351480229991 3:0.70930231 4:0 #PDB 2FVJ Res GLU53
-0.95883288427099278017351480229991 3:0.71875 4:0 #PDB 3CVP Res ASN62
-0.95883288427099278017351480229991 3:0.71875 4:0 #PDB 3CVP Res GLU63
-0.95883288427099278017351480229991 3:0.93051362 4:1 #PDB 1D4T Res THR18
-0.95883288427099278017351480229991 3:0.46250001 4:1 #PDB 2O4J Res SER54
-0.95883288427099278017351480229991 3:0.4728682 4:1 #PDB 2FVJ Res ASP54
-0.95883288427099278017351480229991 3:0.46525681 4:1 #PDB 1D4T Res PRO109
-0.95883288427099278017351480229991 3:0.71875 4:0 #PDB 3CVP Res GLY212
-0.95883288427099278017351480229991 3:0.94226331 4:0 #PDB 1CZY Res ILE355
-0.95883288427099278017351480229991 3:0.93884295 4:0 #PDB 2P0W Res ASN244
-0.95883288427099278017351480229991 3:0.93884295 4:0 #PDB 2P0W Res GLY216
-0.95883288427099278017351480229991 3:0.91228068 4:0 #PDB 1UJ0 Res SER5
-0.95883288427099278017351480229991 3:0.91228068 4:0 #PDB 1UJ0 Res ASP25
-0.95883288427099278017351480229991 3:0.91228068 4:0 #PDB 1UJ0 Res SER3
-0.95883288427099278017351480229991 3:0.49808428 4:0.66666669 #PDB 1TW6 Res GLN283
-0.95883288427099278017351480229991 3:0.48322147 4:1 #PDB 1T7R Res LYS912
-0.95883288427099278017351480229991 3:0.9045226 4:0 #PDB 1DKX Res VAL363
-0.95883288427099278017351480229991 3:0.9045226 4:0 #PDB 1DKX Res PRO365
-0.95883288427099278017351480229991 3:0.50273222 4:0.66666669 #PDB 1ER8 Res THR178
-0.95883288427099278017351480229991 3:0.9045226 4:0 #PDB 1DKX Res ASN450
-0.95883288427099278017351480229991 3:0.71875 4:0 #PDB 3CVP Res PRO32
-0.95883288427099278017351480229991 3:0.9045226 4:0 #PDB 1DKX Res GLY451
-0.95883288427099278017351480229991 3:1 4:0.5 #PDB 2A3I Res HIS251
-0.95883288427099278017351480229991 3:0.9045226 4:0 #PDB 1DKX Res ILE452
-0.95883288427099278017351480229991 3:1 4:0.16666667 #PDB 1T4F Res ASN106
-0.95883288427099278017351480229991 3:0.9045226 4:0 #PDB 1U00 Res ASP362
-0.95883288427099278017351480229991 3:1 4:0.5 #PDB 2JAM Res GLU70
-0.95883288427099278017351480229991 3:0.9045226 4:0 #PDB 1U00 Res VAL363
-0.95883288427099278017351480229991 3:1 4:0.5 #PDB 2ZJD Res ASP48
-0.95883288427099278017351480229991 3:0.9045226 4:0 #PDB 1U00 Res PRO365
-0.95883288427099278017351480229991 3:0.9045226 4:0 #PDB 1U00 Res ASN450
-0.95883288427099278017351480229991 3:1 4:0.5 #PDB 1SFI Res GLU59
-0.95883288427099278017351480229991 3:0.9045226 4:0 #PDB 1U00 Res GLY451
-0.95883288427099278017351480229991 3:1 4:0.33333334 #PDB 1JD5 Res MET266
-0.95883288427099278017351480229991 3:0.9045226 4:0 #PDB 1U00 Res ILE452
-0.95883288427099278017351480229991 3:1 4:0.33333334 #PDB 1LVM Res GLY62
-0.95883288427099278017351480229991 3:0.9045226 4:0 #PDB 1DKX Res ASP362
-0.95883288427099278017351480229991 3:1 4:0.33333334 #PDB 1NVR Res PHE81
-0.95883288427099278017351480229991 3:0.72127658 4:0 #PDB 2H9M Res SER97
-0.95883288427099278017351480229991 3:1 4:0.33333334 #PDB 1SSH Res PRO2
-0.95883288427099278017351480229991 3:0.90105265 4:0 #PDB 1RXZ Res ARG117
-0.95883288427099278017351480229991 3:1 4:0.33333334 #PDB 2A3I Res PRO33
-0.95883288427099278017351480229991 3:0.87441862 4:0 #PDB 1CKA Res PRO210
-0.95883288427099278017351480229991 3:0.87441862 4:0 #PDB 1CKA Res ALA221
-0.95883288427099278017351480229991 3:0.87441862 4:0 #PDB 1CKA Res GLY145
-0.95883288427099278017351480229991 3:0.87189293 4:0 #PDB 2VJ0 Res ARG839
-0.95883288427099278017351480229991 3:1 4:0.16666667 #PDB 1T4F Res LEU107
-0.95883288427099278017351480229991 3:0.86525613 4:0 #PDB 1YMT Res GLU334
-0.95883288427099278017351480229991 3:0.86393988 4:0 #PDB 2O02 Res GLU115
-0.95883288427099278017351480229991 3:1 4:0.16666667 #PDB 1YMT Res ARG526
-0.95883288427099278017351480229991 3:0.86393988 4:0 #PDB 2O02 Res LEU222
-0.95883288427099278017351480229991 3:1 4:0.16666667 #PDB 2B9H Res GLU165
-0.95883288427099278017351480229991 3:0.86393988 4:0 #PDB 2O02 Res GLY55
-0.95883288427099278017351480229991 3:1 4:0.16666667 #PDB 2B9H Res VAL167
11.505994611251914250260597327724 3:0.12331839 4:1 #PDB 1EG4 Res GLY189
-0.95883288427099278017351480229991 3:1 4:0.33333334 #PDB 2FMF Res PRO107
-0.95883288427099278017351480229991 3:0.53904283 4:0.66666669 #PDB 2CCH Res HIS179
-0.95883288427099278017351480229991 3:0.54000002 4:0.66666669 #PDB 1X2R Res ARG326
-0.95883288427099278017351480229991 3:0.12252964 4:1 #PDB 2FMF Res GLU26
11.505994611251914250260597327724 3:0.80167598 4:1 #PDB 2O9V Res ASP855
-0.95883288427099278017351480229991 3:0.12252964 4:1 #PDB 2FMF Res ASN31
-0.95883288427099278017351480229991 3:0.85920578 4:0 #PDB 1GYB Res PRO58
-0.95883288427099278017351480229991 3:0.12252964 4:1 #PDB 2FMF Res GLU36
-0.95883288427099278017351480229991 3:0.85555553 4:0 #PDB 1NQ7 Res ALA330
-0.95883288427099278017351480229991 3:0.12252964 4:1 #PDB 2FMF Res VAL39
-0.95883288427099278017351480229991 3:0.85454547 4:0 #PDB 1NX1 Res PHE241
-0.95883288427099278017351480229991 3:0.12252964 4:1 #PDB 2FMF Res ASN43
-0.95883288427099278017351480229991 3:0.85454547 4:0 #PDB 1NX1 Res GLY250
-0.95883288427099278017351480229991 3:0.12252964 4:1 #PDB 2FMF Res LYS44
-0.95883288427099278017351480229991 3:0.85454547 4:0 #PDB 1NX1 Res VAL254
-0.95883288427099278017351480229991 3:0.78012049 4:1 #PDB 2AK5 Res GLN19
-0.95883288427099278017351480229991 3:0.85454547 4:0 #PDB 1NX1 Res ASN204
-0.95883288427099278017351480229991 3:0.12252964 4:1 #PDB 2FMF Res GLN46
-0.95883288427099278017351480229991 3:0.84563756 4:0 #PDB 1T7R Res PRO766
-0.95883288427099278017351480229991 3:0.12252964 4:1 #PDB 2FMF Res ALA47
-0.95883288427099278017351480229991 3:0.84563756 4:0 #PDB 1T7R Res GLU681
-0.95883288427099278017351480229991 3:0.12252964 4:1 #PDB 2FMF Res GLY48
-0.95883288427099278017351480229991 3:1 4:0.16666667 #PDB 1NQ7 Res ARG478
-0.95883288427099278017351480229991 3:0.83854169 4:0 #PDB 3CVP Res SER247
-0.95883288427099278017351480229991 3:0.83854169 4:0 #PDB 3CVP Res GLY29
11.505994611251914250260597327724 3:0.12401056 4:1 #PDB 1LVM Res VAL63
-0.95883288427099278017351480229991 3:0.78012049 4:1 #PDB 2AK5 Res SER9
11.505994611251914250260597327724 3:0.10930233 4:0 #PDB 1CKA Res GLN123
-0.95883288427099278017351480229991 3:0.095993325 4:0.33333334 #PDB 2O02 Res GLN78
11.505994611251914250260597327724 3:0.77777779 4:1 #PDB 2ZJD Res LYS49
-0.95883288427099278017351480229991 3:1 4:0.16666667 #PDB 2C3I Res GLY47
-0.95883288427099278017351480229991 3:0.12252964 4:1 #PDB 2FMF Res GLY49
-0.95883288427099278017351480229991 3:0.40131578 4:1 #PDB 1DDV Res SER1053
-0.95883288427099278017351480229991 3:1 4:0.16666667 #PDB 2C3I Res GLY188
-0.95883288427099278017351480229991 3:0.12252964 4:1 #PDB 2FMF Res ALA73
-0.95883288427099278017351480229991 3:0.82622951 4:0 #PDB 1QKZ Res GLY15
-0.95883288427099278017351480229991 3:0.12252964 4:1 #PDB 2FMF Res ALA74
-0.95883288427099278017351480229991 3:1 4:0.16666667 #PDB 2C3I Res ASP200
-0.95883288427099278017351480229991 3:0.12252964 4:1 #PDB 2FMF Res SER76
-0.95883288427099278017351480229991 3:0.8254717 4:0 #PDB 2J6F Res SER65
-0.95883288427099278017351480229991 3:0.12252964 4:1 #PDB 2FMF Res ALA77
-0.95883288427099278017351480229991 3:1 4:0.16666667 #PDB 2FMF Res ASP12
-0.95883288427099278017351480229991 3:0.12252964 4:1 #PDB 2FMF Res GLU90
-0.95883288427099278017351480229991 3:0.82448035 4:0 #PDB 1CZY Res LYS357
-0.95883288427099278017351480229991 3:0.77777779 4:1 #PDB 1AWR Res ASN106
-0.95883288427099278017351480229991 3:0.095993325 4:0.33333334 #PDB 2O02 Res LYS77
-0.95883288427099278017351480229991 3:1 4:0.16666667 #PDB 2ZJD Res GLN116
-0.95883288427099278017351480229991 3:0.12252964 4:1 #PDB 2FMF Res LYS25
-0.95883288427099278017351480229991 3:0.82448035 4:0 #PDB 1CZY Res GLU346
-0.95883288427099278017351480229991 3:0.12274368 4:1 #PDB 1GYB Res SER25
-0.95883288427099278017351480229991 3:1 4:0.16666667 #PDB 2ZJD Res GLY120
-0.95883288427099278017351480229991 3:0.12274368 4:1 #PDB 1GYB Res ASN29
-0.95883288427099278017351480229991 3:1 4:0.16666667 #PDB 3D1E Res GLY239
-0.95883288427099278017351480229991 3:0.12274368 4:1 #PDB 1GYB Res ASN33
-0.95883288427099278017351480229991 3:0.80856425 4:0 #PDB 2CCH Res LYS417
-0.95883288427099278017351480229991 3:0.67195326 4:1 #PDB 2O02 Res LYS117
-0.95883288427099278017351480229991 3:1 4:0.16666667 #PDB 3D9T Res PRO331
-0.95883288427099278017351480229991 3:0.77777779 4:1 #PDB 2ZJD Res MET1
-0.95883288427099278017351480229991 3:0.1025641 4:0.33333334 #PDB 2HO2 Res ASN5
-0.95883288427099278017351480229991 3:1 4:0.16666667 #PDB 2B9H Res TYR184
-0.95883288427099278017351480229991 3:0.11003861 4:0.33333334 #PDB 2HPL Res LYS91
-0.95883288427099278017351480229991 3:0.77777779 4:1 #PDB 2ZJD Res HIS57
-0.95883288427099278017351480229991 3:0.1107595 4:0.33333334 #PDB 1JWG Res PRO57
-0.95883288427099278017351480229991 3:1 4:0.33333334 #PDB 3D9T Res MET266
-0.95883288427099278017351480229991 3:0.11111111 4:0.33333334 #PDB 2ZJD Res VAL46
-0.95883288427099278017351480229991 3:0.77777779 4:1 #PDB 2ZJD Res ASN59
-0.95883288427099278017351480229991 3:0.72127658 4:0 #PDB 2H9M Res THR269
-0.95883288427099278017351480229991 3:0.77777779 4:1 #PDB 2ZJD Res GLU62
-0.95883288427099278017351480229991 3:0.11263158 4:0.33333334 #PDB 1RXZ Res ASP50
-0.95883288427099278017351480229991 3:1 4:0.33333334 #PDB 1ER8 Res ASN145
-0.95883288427099278017351480229991 3:0.11337209 4:0.33333334 #PDB 2FOJ Res ASP185
-0.95883288427099278017351480229991 3:0.77777779 4:1 #PDB 2ZJD Res VAL91
-0.95883288427099278017351480229991 3:0.11337209 4:0.33333334 #PDB 2FOJ Res ARG144
-0.95883288427099278017351480229991 3:0.99208444 4:0.33333334 #PDB 1LVM Res PRO92
-0.95883288427099278017351480229991 3:0.11377245 4:0.33333334 #PDB 1YWO Res GLN819
-0.95883288427099278017351480229991 3:0.99208444 4:0.16666667 #PDB 1LVM Res SER123
-0.95883288427099278017351480229991 3:0.80856425 4:0 #PDB 2CCH Res LYS226
11.505994611251914250260597327724 3:0.12401056 4:1 #PDB 1LVM Res ASN176
-0.95883288427099278017351480229991 3:0.77777779 4:1 #PDB 2ZJD Res LYS103
11.505994611251914250260597327724 3:0.10930233 4:0 #PDB 1CKA Res MET181
-0.95883288427099278017351480229991 3:0.11464968 4:0.33333334 #PDB 1SSH Res LEU57
11.505994611251914250260597327724 3:0.82509506 4:1 #PDB 1JD5 Res GLU325
-0.95883288427099278017351480229991 3:0.98886412 4:0.16666667 #PDB 1YMT Res LYS558
-0.95883288427099278017351480229991 3:0.12274368 4:1 #PDB 1GYB Res LYS48
-0.95883288427099278017351480229991 3:0.50273222 4:1 #PDB 1ER8 Res GLN190
-0.95883288427099278017351480229991 3:0.806391 4:0 #PDB 2B9H Res GLU21
-0.95883288427099278017351480229991 3:0.12274368 4:1 #PDB 1GYB Res ARG65
-0.95883288427099278017351480229991 3:0.98886412 4:0.16666667 #PDB 1YMT Res ASP479
-0.95883288427099278017351480229991 3:0.12274368 4:1 #PDB 1GYB Res PRO76
-0.95883288427099278017351480229991 3:0.806391 4:0 #PDB 2B9H Res LEU19
-0.95883288427099278017351480229991 3:0.12274368 4:1 #PDB 1GYB Res GLU92
-0.95883288427099278017351480229991 3:0.98023713 4:0.16666667 #PDB 2FMF Res ASN58
-0.95883288427099278017351480229991 3:0.12274368 4:1 #PDB 1GYB Res GLY109
-0.95883288427099278017351480229991 3:0.97854078 4:0.16666667 #PDB 1MFG Res SER1335
-0.95883288427099278017351480229991 3:0.12274368 4:1 #PDB 1GYB Res ASN18
-0.95883288427099278017351480229991 3:0.79824561 4:0 #PDB 1UJ0 Res GLU40
-0.95883288427099278017351480229991 3:0.77777779 4:1 #PDB 2ZJD Res ASP104
-0.95883288427099278017351480229991 3:0.11510792 4:0.33333334 #PDB 3D9T Res GLN267
-0.95883288427099278017351480229991 3:0.94573641 4:0.16666667 #PDB 2FVJ Res ASP259
-0.95883288427099278017351480229991 3:0.12315271 4:1 #PDB 1TP5 Res SER473
-0.95883288427099278017351480229991 3:0.79824561 4:0 #PDB 1UJ0 Res ARG21
-0.95883288427099278017351480229991 3:0.12315271 4:1 #PDB 1TP5 Res LEU502
-0.95883288427099278017351480229991 3:0.94499999 4:0.16666667 #PDB 1X2R Res GLU542
-0.95883288427099278017351480229991 3:0.12315271 4:1 #PDB 1TP5 Res ARG507
-0.95883288427099278017351480229991 3:0.79640716 4:0 #PDB 1YWO Res GLU848
-0.95883288427099278017351480229991 3:0.12315271 4:1 #PDB 1TP5 Res LYS508
-0.95883288427099278017351480229991 3:0.94323146 4:0.16666667 #PDB 1IHJ Res GLY1769
11.505994611251914250260597327724 3:0.12568305 4:1 #PDB 1ER8 Res ASP117
-0.95883288427099278017351480229991 3:0.12315271 4:1 #PDB 1TP5 Res ALA522
-0.95883288427099278017351480229991 3:0.92500001 4:0.16666667 #PDB 2O4J Res GLY255
-0.95883288427099278017351480229991 3:0.77777779 4:1 #PDB 1AWR Res PRO58
-0.95883288427099278017351480229991 3:0.115625 4:0.33333334 #PDB 2O4J Res LEU3
-0.95883288427099278017351480229991 3:0.92500001 4:0.16666667 #PDB 2O4J Res PRO176
-0.95883288427099278017351480229991 3:0.12315271 4:1 #PDB 1TP5 Res GLN527
-0.95883288427099278017351480229991 3:0.78842103 4:0 #PDB 1RXZ Res GLU119
-0.95883288427099278017351480229991 3:0.12315271 4:1 #PDB 1TP5 Res ALA530
-0.95883288427099278017351480229991 3:0.11787073 4:0.33333334 #PDB 1JD5 Res GLN267
-0.95883288427099278017351480229991 3:0.77531648 4:1 #PDB 1JWG Res GLN75
-0.95883288427099278017351480229991 3:0.72127658 4:0 #PDB 2H9M Res PRO311
-0.95883288427099278017351480229991 3:0.77531648 4:1 #PDB 1JWG Res LYS77
-0.95883288427099278017351480229991 3:0.11790393 4:0.33333334 #PDB 1IHJ Res LEU1796
-0.95883288427099278017351480229991 3:0.99208444 4:0.33333334 #PDB 1LVM Res HIS61
-0.95883288427099278017351480229991 3:0.11790393 4:0.33333334 #PDB 1IHJ Res GLY1797
-0.95883288427099278017351480229991 3:0.77531648 4:1 #PDB 1JWG Res GLU144
-0.95883288427099278017351480229991 3:0.72127658 4:0 #PDB 2H9M Res PRO55
-0.95883288427099278017351480229991 3:0.12315271 4:1 #PDB 1TP5 Res GLN537
-0.95883288427099278017351480229991 3:0.72373539 4:0 #PDB 1N7F Res ARG718
-0.95883288427099278017351480229991 3:0.77531648 4:1 #PDB 1JWG Res GLN163
-0.95883288427099278017351480229991 3:0.11790393 4:0.33333334 #PDB 1IHJ Res PRO1732
-0.95883288427099278017351480229991 3:0.98886412 4:0.5 #PDB 1YMT Res PRO546
-0.95883288427099278017351480229991 3:0.11792453 4:0.33333334 #PDB 2J6F Res LYS27
-0.95883288427099278017351480229991 3:0.98886412 4:0.5 #PDB 1YMT Res GLY543
-0.95883288427099278017351480229991 3:0.11979166 4:0.33333334 #PDB 3CVP Res LEU66
-0.95883288427099278017351480229991 3:0.77531648 4:1 #PDB 1JWG Res SER25
-0.95883288427099278017351480229991 3:0.12315271 4:1 #PDB 1TP5 Res ALA538
11.505994611251914250260597327724 3:0.44015443 4:1 #PDB 2HPL Res TYR38
-0.95883288427099278017351480229991 3:0.77027029 4:1 #PDB 2HPL Res GLN97
-0.95883288427099278017351480229991 3:0.12315271 4:1 #PDB 1TP5 Res GLN553
-0.95883288427099278017351480229991 3:0.12315271 4:1 #PDB 1TP5 Res HIS470
-0.95883288427099278017351480229991 3:0.77027029 4:1 #PDB 2HPL Res SER110
-0.95883288427099278017351480229991 3:0.12331839 4:1 #PDB 1EG4 Res ASN100
-0.95883288427099278017351480229991 3:0.12331839 4:1 #PDB 1EG4 Res ASN137
-0.95883288427099278017351480229991 3:0.77027029 4:1 #PDB 2HPL Res THR85
-0.95883288427099278017351480229991 3:0.12331839 4:1 #PDB 1EG4 Res GLN143
-0.95883288427099278017351480229991 3:0.12331839 4:1 #PDB 1EG4 Res PRO144
-0.95883288427099278017351480229991 3:0.7679466 4:1 #PDB 2O02 Res ALA18
-0.95883288427099278017351480229991 3:0.12331839 4:1 #PDB 1EG4 Res ASN152
-0.95883288427099278017351480229991 3:0.12331839 4:1 #PDB 1EG4 Res GLN163
-0.95883288427099278017351480229991 3:0.7679466 4:1 #PDB 2O02 Res ASP23
-0.95883288427099278017351480229991 3:0.12331839 4:1 #PDB 1EG4 Res ASN167
-0.95883288427099278017351480229991 3:0.12331839 4:1 #PDB 1EG4 Res ARG193
-0.95883288427099278017351480229991 3:0.7679466 4:1 #PDB 2O02 Res LYS29
-0.95883288427099278017351480229991 3:0.12331839 4:1 #PDB 1EG4 Res THR226
-0.95883288427099278017351480229991 3:0.12331839 4:1 #PDB 1EG4 Res PHE228
11.505994611251914250260597327724 3:0.44015443 4:1 #PDB 2HPL Res ARG64
-0.95883288427099278017351480229991 3:0.59108526 4:0.16666667 #PDB 2FVJ Res GLN254
-0.95883288427099278017351480229991 3:0.12331839 4:1 #PDB 1EG4 Res PHE269
-0.95883288427099278017351480229991 3:0.7679466 4:1 #PDB 2O02 Res SER59
-0.95883288427099278017351480229991 3:0.12331839 4:1 #PDB 1EG4 Res PRO274
-0.95883288427099278017351480229991 3:0.12331839 4:1 #PDB 1EG4 Res GLU275
-0.95883288427099278017351480229991 3:0.7679466 4:1 #PDB 2O02 Res VAL63
11.505994611251914250260597327724 3:0.12568305 4:1 #PDB 1ER8 Res ILE298
-0.95883288427099278017351480229991 3:0.12331839 4:1 #PDB 1EG4 Res GLU277
-0.95883288427099278017351480229991 3:0.12331839 4:1 #PDB 1EG4 Res ALA303
-0.95883288427099278017351480229991 3:0.7679466 4:1 #PDB 2O02 Res GLN69
-0.95883288427099278017351480229991 3:0.12331839 4:1 #PDB 1EG4 Res GLY59
-0.95883288427099278017351480229991 3:0.12360802 4:1 #PDB 1YMT Res GLN347
-0.95883288427099278017351480229991 3:0.7679466 4:1 #PDB 2O02 Res GLY137
-0.95883288427099278017351480229991 3:0.12360802 4:1 #PDB 1YMT Res SER350
-0.95883288427099278017351480229991 3:0.12360802 4:1 #PDB 1YMT Res ASN353
-0.95883288427099278017351480229991 3:0.7679466 4:1 #PDB 2O02 Res GLU204
-0.95883288427099278017351480229991 3:0.12360802 4:1 #PDB 1YMT Res GLU387
-0.95883288427099278017351480229991 3:0.12360802 4:1 #PDB 1YMT Res LYS389
-0.95883288427099278017351480229991 3:0.7679466 4:1 #PDB 2O02 Res ASP206
11.505994611251914250260597327724 3:0.43594646 4:1 #PDB 2VJ0 Res LEU726
-0.95883288427099278017351480229991 3:0.12360802 4:1 #PDB 1YMT Res THR434
-0.95883288427099278017351480229991 3:0.12360802 4:1 #PDB 1YMT Res ILE436
-0.95883288427099278017351480229991 3:0.7679466 4:1 #PDB 2O02 Res ARG224
-0.95883288427099278017351480229991 3:0.12360802 4:1 #PDB 1YMT Res SER437
-0.95883288427099278017351480229991 3:0.12360802 4:1 #PDB 1YMT Res VAL455
-0.95883288427099278017351480229991 3:0.7679466 4:1 #PDB 2O02 Res ASP225
-0.95883288427099278017351480229991 3:0.12360802 4:1 #PDB 1YMT Res SER459
-0.95883288427099278017351480229991 3:0.12360802 4:1 #PDB 1YMT Res LEU486
-0.95883288427099278017351480229991 3:0.7679466 4:1 #PDB 2O02 Res LYS13
-0.95883288427099278017351480229991 3:0.12360802 4:1 #PDB 1YMT Res GLN487
-0.95883288427099278017351480229991 3:0.12360802 4:1 #PDB 1YMT Res GLY491
-0.95883288427099278017351480229991 3:0.76511627 4:1 #PDB 1CKA Res GLY45
-0.95883288427099278017351480229991 3:0.12360802 4:1 #PDB 1YMT Res CYS506
-0.95883288427099278017351480229991 3:0.12360802 4:1 #PDB 1YMT Res GLN510
-0.95883288427099278017351480229991 3:0.76511627 4:1 #PDB 1CKA Res ASP95
-0.95883288427099278017351480229991 3:0.12360802 4:1 #PDB 1YMT Res GLU513
-0.95883288427099278017351480229991 3:0.12360802 4:1 #PDB 1YMT Res TYR538
-0.95883288427099278017351480229991 3:0.76511627 4:1 #PDB 1CKA Res HIS107
11.505994611251914250260597327724 3:0.43594646 4:1 #PDB 2VJ0 Res LYS744
-0.95883288427099278017351480229991 3:0.12360802 4:1 #PDB 1YMT Res PRO335
-0.95883288427099278017351480229991 3:0.12401056 4:1 #PDB 1LVM Res GLY27
-0.95883288427099278017351480229991 3:0.76511627 4:1 #PDB 1CKA Res ARG138
-0.95883288427099278017351480229991 3:0.12401056 4:1 #PDB 1LVM Res LEU56
-0.95883288427099278017351480229991 3:0.12401056 4:1 #PDB 1LVM Res LEU60
-0.95883288427099278017351480229991 3:0.76511627 4:1 #PDB 1CKA Res LYS155
-0.95883288427099278017351480229991 3:0.12401056 4:1 #PDB 1LVM Res LYS99
11.505994611251914250260597327724 3:0.13500001 4:1 #PDB 1X2R Res TYR334
-0.95883288427099278017351480229991 3:0.12401056 4:1 #PDB 1LVM Res GLU102
-0.95883288427099278017351480229991 3:0.12401056 4:1 #PDB 1LVM Res GLN104
-0.95883288427099278017351480229991 3:0.98194945 4:0.5 #PDB 1GYB Res TYR123
-0.95883288427099278017351480229991 3:0.12401056 4:1 #PDB 1LVM Res ARG105
-0.95883288427099278017351480229991 3:0.12401056 4:1 #PDB 1LVM Res GLU106
-0.95883288427099278017351480229991 3:0.76511627 4:1 #PDB 1CKA Res PRO218
-0.95883288427099278017351480229991 3:0.12401056 4:1 #PDB 1LVM Res MET121
-0.95883288427099278017351480229991 3:0.12401056 4:1 #PDB 1LVM Res CYS130
-0.95883288427099278017351480229991 3:0.76511627 4:1 #PDB 1CKA Res PRO44
-0.95883288427099278017351480229991 3:0.12401056 4:1 #PDB 1LVM Res PHE132
11.505994611251914250260597327724 3:0.43594646 4:1 #PDB 2VJ0 Res GLY780
-0.95883288427099278017351480229991 3:0.12401056 4:1 #PDB 1LVM Res SER135
-0.95883288427099278017351480229991 3:0.76329786 4:1 #PDB 1HC9 Res SER11
-0.95883288427099278017351480229991 3:0.12401056 4:1 #PDB 1LVM Res ARG159
-0.95883288427099278017351480229991 3:0.12401056 4:1 #PDB 1LVM Res THR173
-0.95883288427099278017351480229991 3:0.76329786 4:1 #PDB 1HC9 Res THR60
-0.95883288427099278017351480229991 3:0.12401056 4:1 #PDB 1LVM Res MET187
-0.95883288427099278017351480229991 3:0.12401056 4:1 #PDB 1LVM Res GLU188
-0.95883288427099278017351480229991 3:0.76329786 4:1 #PDB 1HC9 Res PRO72
-0.95883288427099278017351480229991 3:0.12401056 4:1 #PDB 1LVM Res THR191
-0.95883288427099278017351480229991 3:0.12401056 4:1 #PDB 1LVM Res GLN193
-0.95883288427099278017351480229991 3:0.76329786 4:1 #PDB 1HC9 Res THR2
-0.95883288427099278017351480229991 3:0.12401056 4:1 #PDB 1LVM Res ALA195
-0.95883288427099278017351480229991 3:0.12401056 4:1 #PDB 1LVM Res GLN197
-0.95883288427099278017351480229991 3:0.76290631 4:1 #PDB 2VJ0 Res ARG731
-0.95883288427099278017351480229991 3:0.12401056 4:1 #PDB 1LVM Res GLU24
-0.95883288427099278017351480229991 3:0.12452107 4:1 #PDB 1TW6 Res ARG258
-0.95883288427099278017351480229991 3:0.76290631 4:1 #PDB 2VJ0 Res ARG736
-0.95883288427099278017351480229991 3:0.12452107 4:1 #PDB 1TW6 Res PHE270
11.505994611251914250260597327724 3:0.43555555 4:1 #PDB 1OAI Res GLY61
-0.95883288427099278017351480229991 3:0.12452107 4:1 #PDB 1TW6 Res GLY273
-0.95883288427099278017351480229991 3:0.76290631 4:1 #PDB 2VJ0 Res ASN751
-0.95883288427099278017351480229991 3:0.12452107 4:1 #PDB 1TW6 Res SER278
-0.95883288427099278017351480229991 3:0.12452107 4:1 #PDB 1TW6 Res LYS328
-0.95883288427099278017351480229991 3:0.76290631 4:1 #PDB 2VJ0 Res THR755
-0.95883288427099278017351480229991 3:0.12452107 4:1 #PDB 1TW6 Res GLN333
-0.95883288427099278017351480229991 3:0.12452107 4:1 #PDB 1TW6 Res GLN336
-0.95883288427099278017351480229991 3:0.76290631 4:1 #PDB 2VJ0 Res PHE837
-0.95883288427099278017351480229991 3:0.12452107 4:1 #PDB 1TW6 Res ASN340
11.505994611251914250260597327724 3:0.14285715 4:1 #PDB 1SFI Res SER78
-0.95883288427099278017351480229991 3:0.12452107 4:1 #PDB 1TW6 Res ASN341
-0.95883288427099278017351480229991 3:0.76290631 4:1 #PDB 2VJ0 Res LYS855
-0.95883288427099278017351480229991 3:0.12452107 4:1 #PDB 1TW6 Res LEU256
-0.95883288427099278017351480229991 3:0.12568305 4:1 #PDB 1ER8 Res VAL53
-0.95883288427099278017351480229991 3:0.76290631 4:1 #PDB 2VJ0 Res GLY871
-0.95883288427099278017351480229991 3:0.12568305 4:1 #PDB 1ER8 Res THR55
-0.95883288427099278017351480229991 3:0.12568305 4:1 #PDB 1ER8 Res LYS61
-0.95883288427099278017351480229991 3:0.76290631 4:1 #PDB 2VJ0 Res GLN911
-0.95883288427099278017351480229991 3:0.12568305 4:1 #PDB 1ER8 Res LYS66
11.505994611251914250260597327724 3:0.42857143 4:1 #PDB 1SFI Res TYR22
-0.95883288427099278017351480229991 3:0.12568305 4:1 #PDB 1ER8 Res LEU67
-0.95883288427099278017351480229991 3:0.76290631 4:1 #PDB 2VJ0 Res GLN913
-0.95883288427099278017351480229991 3:0.12568305 4:1 #PDB 1ER8 Res THR98
-0.95883288427099278017351480229991 3:0.12568305 4:1 #PDB 1ER8 Res THR100
-0.95883288427099278017351480229991 3:0.12331839 4:0.33333334 #PDB 1EG4 Res ARG160
-0.95883288427099278017351480229991 3:0.12568305 4:1 #PDB 1ER8 Res LYS108
-0.95883288427099278017351480229991 3:0.76290631 4:1 #PDB 2VJ0 Res ASN719
-0.95883288427099278017351480229991 3:0.12568305 4:1 #PDB 1ER8 Res LYS109
-0.95883288427099278017351480229991 3:0.12568305 4:1 #PDB 1ER8 Res SER113
-0.95883288427099278017351480229991 3:0.12568305 4:1 #PDB 1ER8 Res SER135
-0.95883288427099278017351480229991 3:0.75789475 4:1 #PDB 2DS8 Res CYS17
-0.95883288427099278017351480229991 3:0.12568305 4:1 #PDB 1ER8 Res THR137
-0.95883288427099278017351480229991 3:0.12568305 4:1 #PDB 1ER8 Res SER152
-0.95883288427099278017351480229991 3:0.75789475 4:1 #PDB 2DS8 Res LYS19
-0.95883288427099278017351480229991 3:0.12568305 4:1 #PDB 1ER8 Res HIS162
-0.95883288427099278017351480229991 3:0.12568305 4:1 #PDB 1ER8 Res ALA163
-0.95883288427099278017351480229991 3:0.75789475 4:1 #PDB 2DS8 Res PRO31
-0.95883288427099278017351480229991 3:0.12568305 4:1 #PDB 1ER8 Res GLY205
11.505994611251914250260597327724 3:0.42857143 4:1 #PDB 1SFI Res PHE24
-0.95883288427099278017351480229991 3:0.12568305 4:1 #PDB 1ER8 Res ALA227
-0.95883288427099278017351480229991 3:0.75789475 4:1 #PDB 2DS8 Res VAL33
-0.95883288427099278017351480229991 3:0.12568305 4:1 #PDB 1ER8 Res THR228
-0.95883288427099278017351480229991 3:0.12568305 4:1 #PDB 1ER8 Res ALA232
-0.95883288427099278017351480229991 3:0.75789475 4:1 #PDB 2DS8 Res GLU38
-0.95883288427099278017351480229991 3:0.12568305 4:1 #PDB 1ER8 Res GLN236
-0.95883288427099278017351480229991 3:0.12568305 4:1 #PDB 1ER8 Res LYS241
-0.95883288427099278017351480229991 3:0.75789475 4:1 #PDB 2DS8 Res LEU42
-0.95883288427099278017351480229991 3:0.12568305 4:1 #PDB 1ER8 Res SER242
-0.95883288427099278017351480229991 3:0.12568305 4:1 #PDB 1ER8 Res SER244
-0.95883288427099278017351480229991 3:0.75789475 4:1 #PDB 2DS8 Res ILE46
11.505994611251914250260597327724 3:0.14285715 4:1 #PDB 1SFI Res TYR131
-0.95883288427099278017351480229991 3:0.12568305 4:1 #PDB 1ER8 Res SER245
-0.95883288427099278017351480229991 3:0.12568305 4:1 #PDB 1ER8 Res THR256
-0.95883288427099278017351480229991 3:0.75789475 4:1 #PDB 2DS8 Res PHE16
-0.95883288427099278017351480229991 3:0.12568305 4:1 #PDB 1ER8 Res ARG268
-0.95883288427099278017351480229991 3:0.12568305 4:1 #PDB 1ER8 Res SER287
-0.95883288427099278017351480229991 3:0.75409836 4:1 #PDB 1ER8 Res THR2
-0.95883288427099278017351480229991 3:0.12568305 4:1 #PDB 1ER8 Res THR6
11.505994611251914250260597327724 3:0.34011629 4:1 #PDB 2FOJ Res ARG152
-0.95883288427099278017351480229991 3:0.13439849 4:1 #PDB 2B9H Res VAL6
-0.95883288427099278017351480229991 3:0.75409836 4:1 #PDB 1ER8 Res ALA50
-0.95883288427099278017351480229991 3:0.13439849 4:1 #PDB 2B9H Res SER11
-0.95883288427099278017351480229991 3:0.13439849 4:1 #PDB 2B9H Res ASP12
-0.95883288427099278017351480229991 3:0.13439849 4:1 #PDB 2B9H Res GLN14
-0.95883288427099278017351480229991 3:0.75409836 4:1 #PDB 1ER8 Res LEU68
-0.95883288427099278017351480229991 3:0.13439849 4:1 #PDB 2B9H Res SER17
-0.95883288427099278017351480229991 3:0.13439849 4:1 #PDB 2B9H Res THR31
-0.95883288427099278017351480229991 3:0.13439849 4:1 #PDB 2B9H Res LYS33
-0.95883288427099278017351480229991 3:0.75409836 4:1 #PDB 1ER8 Res GLY70
-0.95883288427099278017351480229991 3:0.13439849 4:1 #PDB 2B9H Res PRO34
-0.95883288427099278017351480229991 3:0.13439849 4:1 #PDB 2B9H Res GLY36
-0.95883288427099278017351480229991 3:0.13439849 4:1 #PDB 2B9H Res GLU37
